digraph Tree {
node [shape=box] ;
0 [label="comic_tag1 <= 0.5\ngini = 0.4493\nsamples = 650965\nvalue = [429172, 221793]"] ;
1 [label="last_episode <= 16.5\ngini = 0.3772\nsamples = 405882\nvalue = [303526, 102356]"] ;
0 -> 1 [labeldistance=2.5, labelangle=45, headlabel="True"] ;
2 [label="total_episode <= 3.5\ngini = 0.4991\nsamples = 55336\nvalue = [28871, 26465]"] ;
1 -> 2 ;
3 [label="total_episode <= 2.5\ngini = 0.4512\nsamples = 15509\nvalue = [10177, 5332]"] ;
2 -> 3 ;
4 [label="total_episode <= 0.5\ngini = 0.3868\nsamples = 6947\nvalue = [5126, 1821]"] ;
3 -> 4 ;
5 [label="last_episode <= 3.5\ngini = 0.1982\nsamples = 1327\nvalue = [1179, 148]"] ;
4 -> 5 ;
6 [label="total_session <= 67.0\ngini = 0.4918\nsamples = 39\nvalue = [22, 17]"] ;
5 -> 6 ;
7 [label="purchasing_power <= 3.5\ngini = 0.4688\nsamples = 24\nvalue = [9, 15]"] ;
6 -> 7 ;
8 [label="gini = 0.4339\nsamples = 22\nvalue = [7, 15]"] ;
7 -> 8 ;
9 [label="gini = 0.0\nsamples = 2\nvalue = [2, 0]"] ;
7 -> 9 ;
10 [label="genre12 <= 0.5\ngini = 0.2311\nsamples = 15\nvalue = [13, 2]"] ;
6 -> 10 ;
11 [label="gini = 0.4444\nsamples = 3\nvalue = [1, 2]"] ;
10 -> 11 ;
12 [label="gini = 0.0\nsamples = 12\nvalue = [12, 0]"] ;
10 -> 12 ;
13 [label="plat_B <= 0.5\ngini = 0.1827\nsamples = 1288\nvalue = [1157, 131]"] ;
5 -> 13 ;
14 [label="genre3 <= 0.5\ngini = 0.235\nsamples = 625\nvalue = [540, 85]"] ;
13 -> 14 ;
15 [label="gini = 0.1823\nsamples = 414\nvalue = [372, 42]"] ;
14 -> 15 ;
16 [label="gini = 0.3245\nsamples = 211\nvalue = [168, 43]"] ;
14 -> 16 ;
17 [label="comic_start <= 13.5\ngini = 0.1291\nsamples = 663\nvalue = [617, 46]"] ;
13 -> 17 ;
18 [label="gini = 0.0575\nsamples = 270\nvalue = [262, 8]"] ;
17 -> 18 ;
19 [label="gini = 0.1747\nsamples = 393\nvalue = [355, 38]"] ;
17 -> 19 ;
20 [label="genre6 <= 0.5\ngini = 0.4181\nsamples = 5620\nvalue = [3947, 1673]"] ;
4 -> 20 ;
21 [label="total_episode <= 1.5\ngini = 0.3991\nsamples = 4626\nvalue = [3352, 1274]"] ;
20 -> 21 ;
22 [label="comic_start <= 13.5\ngini = 0.3334\nsamples = 2020\nvalue = [1593, 427]"] ;
21 -> 22 ;
23 [label="gini = 0.2702\nsamples = 1236\nvalue = [1037, 199]"] ;
22 -> 23 ;
24 [label="gini = 0.4125\nsamples = 784\nvalue = [556, 228]"] ;
22 -> 24 ;
25 [label="schedule5 <= 0.5\ngini = 0.4388\nsamples = 2606\nvalue = [1759, 847]"] ;
21 -> 25 ;
26 [label="gini = 0.4102\nsamples = 1954\nvalue = [1391, 563]"] ;
25 -> 26 ;
27 [label="gini = 0.4917\nsamples = 652\nvalue = [368, 284]"] ;
25 -> 27 ;
28 [label="comic_start <= 12.5\ngini = 0.4806\nsamples = 994\nvalue = [595, 399]"] ;
20 -> 28 ;
29 [label="total_session <= 224.5\ngini = 0.2224\nsamples = 204\nvalue = [178, 26]"] ;
28 -> 29 ;
30 [label="gini = 0.1836\nsamples = 176\nvalue = [158, 18]"] ;
29 -> 30 ;
31 [label="gini = 0.4082\nsamples = 28\nvalue = [20, 8]"] ;
29 -> 31 ;
32 [label="total_episode <= 1.5\ngini = 0.4984\nsamples = 790\nvalue = [417, 373]"] ;
28 -> 32 ;
33 [label="gini = 0.4999\nsamples = 717\nvalue = [363, 354]"] ;
32 -> 33 ;
34 [label="gini = 0.3851\nsamples = 73\nvalue = [54, 19]"] ;
32 -> 34 ;
35 [label="plat_D <= 0.5\ngini = 0.4838\nsamples = 8562\nvalue = [5051, 3511]"] ;
3 -> 35 ;
36 [label="last_episode <= 13.5\ngini = 0.4614\nsamples = 5598\nvalue = [3577, 2021]"] ;
35 -> 36 ;
37 [label="genre5 <= 0.5\ngini = 0.4778\nsamples = 4128\nvalue = [2499, 1629]"] ;
36 -> 37 ;
38 [label="comic_start <= 2.5\ngini = 0.4672\nsamples = 3618\nvalue = [2272, 1346]"] ;
37 -> 38 ;
39 [label="gini = 0.3465\nsamples = 462\nvalue = [359, 103]"] ;
38 -> 39 ;
40 [label="gini = 0.4775\nsamples = 3156\nvalue = [1913, 1243]"] ;
38 -> 40 ;
41 [label="plat_C <= 0.5\ngini = 0.494\nsamples = 510\nvalue = [227, 283]"] ;
37 -> 41 ;
42 [label="gini = 0.5\nsamples = 363\nvalue = [183, 180]"] ;
41 -> 42 ;
43 [label="gini = 0.4195\nsamples = 147\nvalue = [44, 103]"] ;
41 -> 43 ;
44 [label="total_session <= 246.0\ngini = 0.3911\nsamples = 1470\nvalue = [1078, 392]"] ;
36 -> 44 ;
45 [label="end <= 0.5\ngini = 0.3721\nsamples = 1315\nvalue = [990, 325]"] ;
44 -> 45 ;
46 [label="gini = 0.4707\nsamples = 161\nvalue = [100, 61]"] ;
45 -> 46 ;
47 [label="gini = 0.3529\nsamples = 1154\nvalue = [890, 264]"] ;
45 -> 47 ;
48 [label="total_session <= 927.0\ngini = 0.4908\nsamples = 155\nvalue = [88, 67]"] ;
44 -> 48 ;
49 [label="gini = 0.4836\nsamples = 149\nvalue = [88, 61]"] ;
48 -> 49 ;
50 [label="gini = 0.0\nsamples = 6\nvalue = [0, 6]"] ;
48 -> 50 ;
51 [label="end <= 0.5\ngini = 0.5\nsamples = 2964\nvalue = [1474, 1490]"] ;
35 -> 51 ;
52 [label="last_episode <= 15.0\ngini = 0.2932\nsamples = 241\nvalue = [198, 43]"] ;
51 -> 52 ;
53 [label="total_session <= 12.0\ngini = 0.2637\nsamples = 224\nvalue = [189, 35]"] ;
52 -> 53 ;
54 [label="gini = 0.4608\nsamples = 25\nvalue = [16, 9]"] ;
53 -> 54 ;
55 [label="gini = 0.2272\nsamples = 199\nvalue = [173, 26]"] ;
53 -> 55 ;
56 [label="total_session <= 48.5\ngini = 0.4983\nsamples = 17\nvalue = [9, 8]"] ;
52 -> 56 ;
57 [label="gini = 0.2188\nsamples = 8\nvalue = [7, 1]"] ;
56 -> 57 ;
58 [label="gini = 0.3457\nsamples = 9\nvalue = [2, 7]"] ;
56 -> 58 ;
59 [label="last_episode <= 13.5\ngini = 0.498\nsamples = 2723\nvalue = [1276, 1447]"] ;
51 -> 59 ;
60 [label="schedule4 <= 0.5\ngini = 0.489\nsamples = 2073\nvalue = [883, 1190]"] ;
59 -> 60 ;
61 [label="gini = 0.4861\nsamples = 2040\nvalue = [850, 1190]"] ;
60 -> 61 ;
62 [label="gini = 0.0\nsamples = 33\nvalue = [33, 0]"] ;
60 -> 62 ;
63 [label="total_session <= 340.5\ngini = 0.4781\nsamples = 650\nvalue = [393, 257]"] ;
59 -> 63 ;
64 [label="gini = 0.4652\nsamples = 595\nvalue = [376, 219]"] ;
63 -> 64 ;
65 [label="gini = 0.4271\nsamples = 55\nvalue = [17, 38]"] ;
63 -> 65 ;
66 [label="plat_D <= 0.5\ngini = 0.4981\nsamples = 39827\nvalue = [18694, 21133]"] ;
2 -> 66 ;
67 [label="end <= 0.5\ngini = 0.4994\nsamples = 27650\nvalue = [14293, 13357]"] ;
66 -> 67 ;
68 [label="total_session <= 5.5\ngini = 0.3933\nsamples = 1981\nvalue = [1448, 533]"] ;
67 -> 68 ;
69 [label="last_episode <= 15.5\ngini = 0.4938\nsamples = 243\nvalue = [108, 135]"] ;
68 -> 69 ;
70 [label="plat_A <= 0.5\ngini = 0.4592\nsamples = 56\nvalue = [36, 20]"] ;
69 -> 70 ;
71 [label="gini = 0.32\nsamples = 30\nvalue = [24, 6]"] ;
70 -> 71 ;
72 [label="gini = 0.497\nsamples = 26\nvalue = [12, 14]"] ;
70 -> 72 ;
73 [label="genre4 <= 0.5\ngini = 0.4736\nsamples = 187\nvalue = [72, 115]"] ;
69 -> 73 ;
74 [label="gini = 0.4585\nsamples = 177\nvalue = [63, 114]"] ;
73 -> 74 ;
75 [label="gini = 0.18\nsamples = 10\nvalue = [9, 1]"] ;
73 -> 75 ;
76 [label="plat_B <= 0.5\ngini = 0.3531\nsamples = 1738\nvalue = [1340, 398]"] ;
68 -> 76 ;
77 [label="genre3 <= 0.5\ngini = 0.2325\nsamples = 715\nvalue = [619, 96]"] ;
76 -> 77 ;
78 [label="gini = 0.2177\nsamples = 684\nvalue = [599, 85]"] ;
77 -> 78 ;
79 [label="gini = 0.4579\nsamples = 31\nvalue = [20, 11]"] ;
77 -> 79 ;
80 [label="coin_needed <= 2.5\ngini = 0.4161\nsamples = 1023\nvalue = [721, 302]"] ;
76 -> 80 ;
81 [label="gini = 0.3894\nsamples = 925\nvalue = [680, 245]"] ;
80 -> 81 ;
82 [label="gini = 0.4867\nsamples = 98\nvalue = [41, 57]"] ;
80 -> 82 ;
83 [label="plat_C <= 0.5\ngini = 0.5\nsamples = 25669\nvalue = [12845, 12824]"] ;
67 -> 83 ;
84 [label="genre15 <= 0.5\ngini = 0.4988\nsamples = 21549\nvalue = [11297, 10252]"] ;
83 -> 84 ;
85 [label="total_episode <= 9.5\ngini = 0.4999\nsamples = 15151\nvalue = [7495, 7656]"] ;
84 -> 85 ;
86 [label="gini = 0.4991\nsamples = 12582\nvalue = [6555, 6027]"] ;
85 -> 86 ;
87 [label="gini = 0.464\nsamples = 2569\nvalue = [940, 1629]"] ;
85 -> 87 ;
88 [label="schedule5 <= 0.5\ngini = 0.4822\nsamples = 6398\nvalue = [3802, 2596]"] ;
84 -> 88 ;
89 [label="gini = 0.4717\nsamples = 5280\nvalue = [3268, 2012]"] ;
88 -> 89 ;
90 [label="gini = 0.499\nsamples = 1118\nvalue = [534, 584]"] ;
88 -> 90 ;
91 [label="comic_start <= 4.5\ngini = 0.4691\nsamples = 4120\nvalue = [1548, 2572]"] ;
83 -> 91 ;
92 [label="genre16 <= 0.5\ngini = 0.4974\nsamples = 761\nvalue = [408, 353]"] ;
91 -> 92 ;
93 [label="gini = 0.4858\nsamples = 486\nvalue = [202, 284]"] ;
92 -> 93 ;
94 [label="gini = 0.3759\nsamples = 275\nvalue = [206, 69]"] ;
92 -> 94 ;
95 [label="last_episode <= 7.5\ngini = 0.4484\nsamples = 3359\nvalue = [1140, 2219]"] ;
91 -> 95 ;
96 [label="gini = 0.0\nsamples = 33\nvalue = [33, 0]"] ;
95 -> 96 ;
97 [label="gini = 0.4441\nsamples = 3326\nvalue = [1107, 2219]"] ;
95 -> 97 ;
98 [label="end <= 0.5\ngini = 0.4616\nsamples = 12177\nvalue = [4401, 7776]"] ;
66 -> 98 ;
99 [label="total_episode <= 4.5\ngini = 0.4123\nsamples = 492\nvalue = [349, 143]"] ;
98 -> 99 ;
100 [label="purchasing_power <= 2.5\ngini = 0.4999\nsamples = 152\nvalue = [77, 75]"] ;
99 -> 100 ;
101 [label="total_session <= 34.5\ngini = 0.417\nsamples = 54\nvalue = [38, 16]"] ;
100 -> 101 ;
102 [label="gini = 0.4983\nsamples = 17\nvalue = [8, 9]"] ;
101 -> 102 ;
103 [label="gini = 0.3068\nsamples = 37\nvalue = [30, 7]"] ;
101 -> 103 ;
104 [label="total_session <= 21.5\ngini = 0.4792\nsamples = 98\nvalue = [39, 59]"] ;
100 -> 104 ;
105 [label="gini = 0.3367\nsamples = 28\nvalue = [6, 22]"] ;
104 -> 105 ;
106 [label="gini = 0.4984\nsamples = 70\nvalue = [33, 37]"] ;
104 -> 106 ;
107 [label="purchasing_power <= 1.5\ngini = 0.32\nsamples = 340\nvalue = [272, 68]"] ;
99 -> 107 ;
108 [label="genre6 <= 0.5\ngini = 0.4472\nsamples = 80\nvalue = [53, 27]"] ;
107 -> 108 ;
109 [label="gini = 0.375\nsamples = 60\nvalue = [45, 15]"] ;
108 -> 109 ;
110 [label="gini = 0.48\nsamples = 20\nvalue = [8, 12]"] ;
108 -> 110 ;
111 [label="total_session <= 9.5\ngini = 0.2657\nsamples = 260\nvalue = [219, 41]"] ;
107 -> 111 ;
112 [label="gini = 0.4628\nsamples = 33\nvalue = [21, 12]"] ;
111 -> 112 ;
113 [label="gini = 0.2229\nsamples = 227\nvalue = [198, 29]"] ;
111 -> 113 ;
114 [label="genre16 <= 0.5\ngini = 0.453\nsamples = 11685\nvalue = [4052, 7633]"] ;
98 -> 114 ;
115 [label="schedule9 <= 0.5\ngini = 0.4329\nsamples = 8770\nvalue = [2779, 5991]"] ;
114 -> 115 ;
116 [label="total_episode <= 9.5\ngini = 0.4266\nsamples = 8608\nvalue = [2655, 5953]"] ;
115 -> 116 ;
117 [label="gini = 0.4411\nsamples = 7092\nvalue = [2329, 4763]"] ;
116 -> 117 ;
118 [label="gini = 0.3376\nsamples = 1516\nvalue = [326, 1190]"] ;
116 -> 118 ;
119 [label="total_session <= 467.5\ngini = 0.3591\nsamples = 162\nvalue = [124, 38]"] ;
115 -> 119 ;
120 [label="gini = 0.3247\nsamples = 152\nvalue = [121, 31]"] ;
119 -> 120 ;
121 [label="gini = 0.42\nsamples = 10\nvalue = [3, 7]"] ;
119 -> 121 ;
122 [label="total_episode <= 4.5\ngini = 0.492\nsamples = 2915\nvalue = [1273, 1642]"] ;
114 -> 122 ;
123 [label="schedule2 <= 0.5\ngini = 0.3406\nsamples = 510\nvalue = [111, 399]"] ;
122 -> 123 ;
124 [label="gini = 0.3358\nsamples = 506\nvalue = [108, 398]"] ;
123 -> 124 ;
125 [label="gini = 0.375\nsamples = 4\nvalue = [3, 1]"] ;
123 -> 125 ;
126 [label="total_episode <= 11.5\ngini = 0.4994\nsamples = 2405\nvalue = [1162, 1243]"] ;
122 -> 126 ;
127 [label="gini = 0.4968\nsamples = 2073\nvalue = [953, 1120]"] ;
126 -> 127 ;
128 [label="gini = 0.4665\nsamples = 332\nvalue = [209, 123]"] ;
126 -> 128 ;
129 [label="schedule8 <= 0.5\ngini = 0.3392\nsamples = 350546\nvalue = [274655, 75891]"] ;
1 -> 129 ;
130 [label="book <= 0.5\ngini = 0.3145\nsamples = 330876\nvalue = [266219, 64657]"] ;
129 -> 130 ;
131 [label="plat_D <= 0.5\ngini = 0.292\nsamples = 302342\nvalue = [248677, 53665]"] ;
130 -> 131 ;
132 [label="comic_start <= 10.5\ngini = 0.2603\nsamples = 244242\nvalue = [206672, 37570]"] ;
131 -> 132 ;
133 [label="schedule3 <= 0.5\ngini = 0.3959\nsamples = 33412\nvalue = [24330, 9082]"] ;
132 -> 133 ;
134 [label="total_session <= 7.5\ngini = 0.3524\nsamples = 23636\nvalue = [18240, 5396]"] ;
133 -> 134 ;
135 [label="gini = 0.4587\nsamples = 2543\nvalue = [1637, 906]"] ;
134 -> 135 ;
136 [label="gini = 0.3351\nsamples = 21093\nvalue = [16603, 4490]"] ;
134 -> 136 ;
137 [label="total_episode <= 14.0\ngini = 0.4698\nsamples = 9776\nvalue = [6090, 3686]"] ;
133 -> 137 ;
138 [label="gini = 0.4854\nsamples = 8274\nvalue = [4844, 3430]"] ;
137 -> 138 ;
139 [label="gini = 0.2828\nsamples = 1502\nvalue = [1246, 256]"] ;
137 -> 139 ;
140 [label="plat_C <= 0.5\ngini = 0.2337\nsamples = 210830\nvalue = [182342, 28488]"] ;
132 -> 140 ;
141 [label="genre3 <= 0.5\ngini = 0.2154\nsamples = 187416\nvalue = [164409, 23007]"] ;
140 -> 141 ;
142 [label="gini = 0.2\nsamples = 159325\nvalue = [141368, 17957]"] ;
141 -> 142 ;
143 [label="gini = 0.2949\nsamples = 28091\nvalue = [23041, 5050]"] ;
141 -> 143 ;
144 [label="genre3 <= 0.5\ngini = 0.3586\nsamples = 23414\nvalue = [17933, 5481]"] ;
140 -> 144 ;
145 [label="gini = 0.3376\nsamples = 19478\nvalue = [15289, 4189]"] ;
144 -> 145 ;
146 [label="gini = 0.441\nsamples = 3936\nvalue = [2644, 1292]"] ;
144 -> 146 ;
147 [label="schedule3 <= 0.5\ngini = 0.4006\nsamples = 58100\nvalue = [42005, 16095]"] ;
131 -> 147 ;
148 [label="comic_start <= 10.5\ngini = 0.3706\nsamples = 45987\nvalue = [34692, 11295]"] ;
147 -> 148 ;
149 [label="end <= 0.5\ngini = 0.4491\nsamples = 5705\nvalue = [3763, 1942]"] ;
148 -> 149 ;
150 [label="gini = 0.4326\nsamples = 4999\nvalue = [3417, 1582]"] ;
149 -> 150 ;
151 [label="gini = 0.4998\nsamples = 706\nvalue = [346, 360]"] ;
149 -> 151 ;
152 [label="coin_needed <= 2.5\ngini = 0.3566\nsamples = 40282\nvalue = [30929, 9353]"] ;
148 -> 152 ;
153 [label="gini = 0.2789\nsamples = 10100\nvalue = [8408, 1692]"] ;
152 -> 153 ;
154 [label="gini = 0.3788\nsamples = 30182\nvalue = [22521, 7661]"] ;
152 -> 154 ;
155 [label="genre3 <= 0.5\ngini = 0.4785\nsamples = 12113\nvalue = [7313, 4800]"] ;
147 -> 155 ;
156 [label="genre17 <= 0.5\ngini = 0.436\nsamples = 7927\nvalue = [5382, 2545]"] ;
155 -> 156 ;
157 [label="gini = 0.408\nsamples = 7126\nvalue = [5091, 2035]"] ;
156 -> 157 ;
158 [label="gini = 0.4626\nsamples = 801\nvalue = [291, 510]"] ;
156 -> 158 ;
159 [label="genre15 <= 0.5\ngini = 0.497\nsamples = 4186\nvalue = [1931, 2255]"] ;
155 -> 159 ;
160 [label="gini = 0.4182\nsamples = 1773\nvalue = [528, 1245]"] ;
159 -> 160 ;
161 [label="gini = 0.4867\nsamples = 2413\nvalue = [1403, 1010]"] ;
159 -> 161 ;
162 [label="total_episode <= 4.5\ngini = 0.4737\nsamples = 28534\nvalue = [17542, 10992]"] ;
130 -> 162 ;
163 [label="total_episode <= 2.5\ngini = 0.3948\nsamples = 15805\nvalue = [11528, 4277]"] ;
162 -> 163 ;
164 [label="plat_D <= 0.5\ngini = 0.3611\nsamples = 10552\nvalue = [8057, 2495]"] ;
163 -> 164 ;
165 [label="plat_C <= 0.5\ngini = 0.323\nsamples = 6824\nvalue = [5442, 1382]"] ;
164 -> 165 ;
166 [label="gini = 0.2878\nsamples = 5423\nvalue = [4478, 945]"] ;
165 -> 166 ;
167 [label="gini = 0.4293\nsamples = 1401\nvalue = [964, 437]"] ;
165 -> 167 ;
168 [label="genre8 <= 0.5\ngini = 0.4188\nsamples = 3728\nvalue = [2615, 1113]"] ;
164 -> 168 ;
169 [label="gini = 0.4326\nsamples = 3404\nvalue = [2327, 1077]"] ;
168 -> 169 ;
170 [label="gini = 0.1975\nsamples = 324\nvalue = [288, 36]"] ;
168 -> 170 ;
171 [label="comic_start <= 15.5\ngini = 0.4483\nsamples = 5253\nvalue = [3471, 1782]"] ;
163 -> 171 ;
172 [label="total_session <= 6.5\ngini = 0.3906\nsamples = 2131\nvalue = [1564, 567]"] ;
171 -> 172 ;
173 [label="gini = 0.4749\nsamples = 366\nvalue = [224, 142]"] ;
172 -> 173 ;
174 [label="gini = 0.3656\nsamples = 1765\nvalue = [1340, 425]"] ;
172 -> 174 ;
175 [label="coin_needed <= 3.5\ngini = 0.4754\nsamples = 3122\nvalue = [1907, 1215]"] ;
171 -> 175 ;
176 [label="gini = 0.4441\nsamples = 2392\nvalue = [1596, 796]"] ;
175 -> 176 ;
177 [label="gini = 0.4891\nsamples = 730\nvalue = [311, 419]"] ;
175 -> 177 ;
178 [label="genre1 <= 0.5\ngini = 0.4985\nsamples = 12729\nvalue = [6014, 6715]"] ;
162 -> 178 ;
179 [label="plat_D <= 0.5\ngini = 0.4963\nsamples = 8845\nvalue = [4803, 4042]"] ;
178 -> 179 ;
180 [label="total_episode <= 16.5\ngini = 0.4906\nsamples = 6439\nvalue = [3661, 2778]"] ;
179 -> 180 ;
181 [label="gini = 0.4926\nsamples = 6297\nvalue = [3531, 2766]"] ;
180 -> 181 ;
182 [label="gini = 0.1547\nsamples = 142\nvalue = [130, 12]"] ;
180 -> 182 ;
183 [label="purchasing_power <= 3.5\ngini = 0.4987\nsamples = 2406\nvalue = [1142, 1264]"] ;
179 -> 183 ;
184 [label="gini = 0.4997\nsamples = 2191\nvalue = [1068, 1123]"] ;
183 -> 184 ;
185 [label="gini = 0.4514\nsamples = 215\nvalue = [74, 141]"] ;
183 -> 185 ;
186 [label="plat_A <= 0.5\ngini = 0.4292\nsamples = 3884\nvalue = [1211, 2673]"] ;
178 -> 186 ;
187 [label="plat_B <= 0.5\ngini = 0.3965\nsamples = 3321\nvalue = [905, 2416]"] ;
186 -> 187 ;
188 [label="gini = 0.3105\nsamples = 1670\nvalue = [321, 1349]"] ;
187 -> 188 ;
189 [label="gini = 0.4572\nsamples = 1651\nvalue = [584, 1067]"] ;
187 -> 189 ;
190 [label="total_session <= 8.5\ngini = 0.4962\nsamples = 563\nvalue = [306, 257]"] ;
186 -> 190 ;
191 [label="gini = 0.484\nsamples = 134\nvalue = [55, 79]"] ;
190 -> 191 ;
192 [label="gini = 0.4855\nsamples = 429\nvalue = [251, 178]"] ;
190 -> 192 ;
193 [label="last_episode <= 18.5\ngini = 0.4899\nsamples = 19670\nvalue = [8436, 11234]"] ;
129 -> 193 ;
194 [label="total_episode <= 1.5\ngini = 0.4145\nsamples = 3124\nvalue = [2208, 916]"] ;
193 -> 194 ;
195 [label="plat_D <= 0.5\ngini = 0.0164\nsamples = 847\nvalue = [840, 7]"] ;
194 -> 195 ;
196 [label="purchasing_power <= 1.5\ngini = 0.0087\nsamples = 689\nvalue = [686, 3]"] ;
195 -> 196 ;
197 [label="total_session <= 71.5\ngini = 0.0345\nsamples = 171\nvalue = [168, 3]"] ;
196 -> 197 ;
198 [label="gini = 0.0\nsamples = 99\nvalue = [99, 0]"] ;
197 -> 198 ;
199 [label="gini = 0.0799\nsamples = 72\nvalue = [69, 3]"] ;
197 -> 199 ;
200 [label="gini = 0.0\nsamples = 518\nvalue = [518, 0]"] ;
196 -> 200 ;
201 [label="total_session <= 121.5\ngini = 0.0494\nsamples = 158\nvalue = [154, 4]"] ;
195 -> 201 ;
202 [label="total_session <= 119.0\ngini = 0.0775\nsamples = 99\nvalue = [95, 4]"] ;
201 -> 202 ;
203 [label="gini = 0.0612\nsamples = 95\nvalue = [92, 3]"] ;
202 -> 203 ;
204 [label="gini = 0.375\nsamples = 4\nvalue = [3, 1]"] ;
202 -> 204 ;
205 [label="gini = 0.0\nsamples = 59\nvalue = [59, 0]"] ;
201 -> 205 ;
206 [label="plat_D <= 0.5\ngini = 0.4797\nsamples = 2277\nvalue = [1368, 909]"] ;
194 -> 206 ;
207 [label="last_episode <= 17.5\ngini = 0.4603\nsamples = 1582\nvalue = [1014, 568]"] ;
206 -> 207 ;
208 [label="total_session <= 17.5\ngini = 0.4763\nsamples = 1271\nvalue = [774, 497]"] ;
207 -> 208 ;
209 [label="gini = 0.4973\nsamples = 475\nvalue = [255, 220]"] ;
208 -> 209 ;
210 [label="gini = 0.4538\nsamples = 796\nvalue = [519, 277]"] ;
208 -> 210 ;
211 [label="total_session <= 177.5\ngini = 0.3524\nsamples = 311\nvalue = [240, 71]"] ;
207 -> 211 ;
212 [label="gini = 0.3759\nsamples = 271\nvalue = [203, 68]"] ;
211 -> 212 ;
213 [label="gini = 0.1388\nsamples = 40\nvalue = [37, 3]"] ;
211 -> 213 ;
214 [label="total_session <= 60.5\ngini = 0.4998\nsamples = 695\nvalue = [354, 341]"] ;
206 -> 214 ;
215 [label="total_session <= 18.5\ngini = 0.4915\nsamples = 368\nvalue = [160, 208]"] ;
214 -> 215 ;
216 [label="gini = 0.4968\nsamples = 150\nvalue = [81, 69]"] ;
215 -> 216 ;
217 [label="gini = 0.4621\nsamples = 218\nvalue = [79, 139]"] ;
215 -> 217 ;
218 [label="total_session <= 135.5\ngini = 0.4826\nsamples = 327\nvalue = [194, 133]"] ;
214 -> 218 ;
219 [label="gini = 0.457\nsamples = 150\nvalue = [97, 53]"] ;
218 -> 219 ;
220 [label="gini = 0.4954\nsamples = 177\nvalue = [97, 80]"] ;
218 -> 220 ;
221 [label="total_episode <= 6.5\ngini = 0.4694\nsamples = 16546\nvalue = [6228, 10318]"] ;
193 -> 221 ;
222 [label="total_session <= 2.5\ngini = 0.4918\nsamples = 11803\nvalue = [5145, 6658]"] ;
221 -> 222 ;
223 [label="comic_start <= 13.5\ngini = 0.3475\nsamples = 1443\nvalue = [323, 1120]"] ;
222 -> 223 ;
224 [label="purchasing_power <= 0.5\ngini = 0.4977\nsamples = 161\nvalue = [75, 86]"] ;
223 -> 224 ;
225 [label="gini = 0.1653\nsamples = 11\nvalue = [1, 10]"] ;
224 -> 225 ;
226 [label="gini = 0.4999\nsamples = 150\nvalue = [74, 76]"] ;
224 -> 226 ;
227 [label="purchasing_power <= 1.5\ngini = 0.3121\nsamples = 1282\nvalue = [248, 1034]"] ;
223 -> 227 ;
228 [label="gini = 0.2818\nsamples = 666\nvalue = [113, 553]"] ;
227 -> 228 ;
229 [label="gini = 0.3423\nsamples = 616\nvalue = [135, 481]"] ;
227 -> 229 ;
230 [label="comic_start <= 13.5\ngini = 0.4976\nsamples = 10360\nvalue = [4822, 5538]"] ;
222 -> 230 ;
231 [label="plat_C <= 0.5\ngini = 0.494\nsamples = 2860\nvalue = [1586, 1274]"] ;
230 -> 231 ;
232 [label="gini = 0.489\nsamples = 2562\nvalue = [1471, 1091]"] ;
231 -> 232 ;
233 [label="gini = 0.474\nsamples = 298\nvalue = [115, 183]"] ;
231 -> 233 ;
234 [label="plat_A <= 0.5\ngini = 0.4906\nsamples = 7500\nvalue = [3236, 4264]"] ;
230 -> 234 ;
235 [label="gini = 0.4825\nsamples = 6258\nvalue = [2544, 3714]"] ;
234 -> 235 ;
236 [label="gini = 0.4935\nsamples = 1242\nvalue = [692, 550]"] ;
234 -> 236 ;
237 [label="plat_D <= 0.5\ngini = 0.3524\nsamples = 4743\nvalue = [1083, 3660]"] ;
221 -> 237 ;
238 [label="plat_C <= 0.5\ngini = 0.4842\nsamples = 1934\nvalue = [795, 1139]"] ;
237 -> 238 ;
239 [label="total_session <= 141.5\ngini = 0.4957\nsamples = 1277\nvalue = [698, 579]"] ;
238 -> 239 ;
240 [label="gini = 0.4847\nsamples = 948\nvalue = [557, 391]"] ;
239 -> 240 ;
241 [label="gini = 0.4898\nsamples = 329\nvalue = [141, 188]"] ;
239 -> 241 ;
242 [label="purchasing_power <= 1.5\ngini = 0.2517\nsamples = 657\nvalue = [97, 560]"] ;
238 -> 242 ;
243 [label="gini = 0.5\nsamples = 28\nvalue = [14, 14]"] ;
242 -> 243 ;
244 [label="gini = 0.2291\nsamples = 629\nvalue = [83, 546]"] ;
242 -> 244 ;
245 [label="purchasing_power <= 1.5\ngini = 0.184\nsamples = 2809\nvalue = [288, 2521]"] ;
237 -> 245 ;
246 [label="total_session <= 166.5\ngini = 0.3553\nsamples = 290\nvalue = [67, 223]"] ;
245 -> 246 ;
247 [label="gini = 0.4142\nsamples = 198\nvalue = [58, 140]"] ;
246 -> 247 ;
248 [label="gini = 0.1765\nsamples = 92\nvalue = [9, 83]"] ;
246 -> 248 ;
249 [label="total_session <= 64.5\ngini = 0.1601\nsamples = 2519\nvalue = [221, 2298]"] ;
245 -> 249 ;
250 [label="gini = 0.227\nsamples = 789\nvalue = [103, 686]"] ;
249 -> 250 ;
251 [label="gini = 0.1271\nsamples = 1730\nvalue = [118, 1612]"] ;
249 -> 251 ;
252 [label="book <= 0.5\ngini = 0.4997\nsamples = 245083\nvalue = [125646, 119437]"] ;
0 -> 252 [labeldistance=2.5, labelangle=-45, headlabel="False"] ;
253 [label="last_episode <= 18.5\ngini = 0.4989\nsamples = 200565\nvalue = [95628, 104937]"] ;
252 -> 253 ;
254 [label="comic_start <= 9.5\ngini = 0.4912\nsamples = 62935\nvalue = [35643, 27292]"] ;
253 -> 254 ;
255 [label="total_episode <= 3.5\ngini = 0.4757\nsamples = 14831\nvalue = [5781, 9050]"] ;
254 -> 255 ;
256 [label="last_episode <= 10.5\ngini = 0.4771\nsamples = 2310\nvalue = [1402, 908]"] ;
255 -> 256 ;
257 [label="total_episode <= 1.5\ngini = 0.4985\nsamples = 1525\nvalue = [804, 721]"] ;
256 -> 257 ;
258 [label="total_session <= 83.5\ngini = 0.3464\nsamples = 323\nvalue = [251, 72]"] ;
257 -> 258 ;
259 [label="gini = 0.4281\nsamples = 203\nvalue = [140, 63]"] ;
258 -> 259 ;
260 [label="gini = 0.1388\nsamples = 120\nvalue = [111, 9]"] ;
258 -> 260 ;
261 [label="total_session <= 143.5\ngini = 0.4968\nsamples = 1202\nvalue = [553, 649]"] ;
257 -> 261 ;
262 [label="gini = 0.4999\nsamples = 845\nvalue = [418, 427]"] ;
261 -> 262 ;
263 [label="gini = 0.4703\nsamples = 357\nvalue = [135, 222]"] ;
261 -> 263 ;
264 [label="total_session <= 149.0\ngini = 0.3629\nsamples = 785\nvalue = [598, 187]"] ;
256 -> 264 ;
265 [label="total_session <= 55.5\ngini = 0.3353\nsamples = 615\nvalue = [484, 131]"] ;
264 -> 265 ;
266 [label="gini = 0.3851\nsamples = 388\nvalue = [287, 101]"] ;
265 -> 266 ;
267 [label="gini = 0.2294\nsamples = 227\nvalue = [197, 30]"] ;
265 -> 267 ;
268 [label="total_session <= 150.5\ngini = 0.4418\nsamples = 170\nvalue = [114, 56]"] ;
264 -> 268 ;
269 [label="gini = 0.3457\nsamples = 9\nvalue = [2, 7]"] ;
268 -> 269 ;
270 [label="gini = 0.4234\nsamples = 161\nvalue = [112, 49]"] ;
268 -> 270 ;
271 [label="comic_tag7 <= 0.5\ngini = 0.4548\nsamples = 12521\nvalue = [4379, 8142]"] ;
255 -> 271 ;
272 [label="end <= 0.5\ngini = 0.4408\nsamples = 11353\nvalue = [3724, 7629]"] ;
271 -> 272 ;
273 [label="total_session <= 71.5\ngini = 0.4998\nsamples = 1311\nvalue = [667, 644]"] ;
272 -> 273 ;
274 [label="gini = 0.4868\nsamples = 867\nvalue = [363, 504]"] ;
273 -> 274 ;
275 [label="gini = 0.4318\nsamples = 444\nvalue = [304, 140]"] ;
273 -> 275 ;
276 [label="schedule5 <= 0.5\ngini = 0.4235\nsamples = 10042\nvalue = [3057, 6985]"] ;
272 -> 276 ;
277 [label="gini = 0.3913\nsamples = 7538\nvalue = [2012, 5526]"] ;
276 -> 277 ;
278 [label="gini = 0.4863\nsamples = 2504\nvalue = [1045, 1459]"] ;
276 -> 278 ;
279 [label="last_episode <= 11.0\ngini = 0.4926\nsamples = 1168\nvalue = [655, 513]"] ;
271 -> 279 ;
280 [label="plat_C <= 0.5\ngini = 0.4589\nsamples = 286\nvalue = [102, 184]"] ;
279 -> 280 ;
281 [label="gini = 0.4839\nsamples = 195\nvalue = [80, 115]"] ;
280 -> 281 ;
282 [label="gini = 0.3666\nsamples = 91\nvalue = [22, 69]"] ;
280 -> 282 ;
283 [label="total_session <= 48.5\ngini = 0.4678\nsamples = 882\nvalue = [553, 329]"] ;
279 -> 283 ;
284 [label="gini = 0.4941\nsamples = 415\nvalue = [230, 185]"] ;
283 -> 284 ;
285 [label="gini = 0.4265\nsamples = 467\nvalue = [323, 144]"] ;
283 -> 285 ;
286 [label="total_episode <= 5.5\ngini = 0.4708\nsamples = 48104\nvalue = [29862, 18242]"] ;
254 -> 286 ;
287 [label="genre3 <= 0.5\ngini = 0.4607\nsamples = 43232\nvalue = [27679, 15553]"] ;
286 -> 287 ;
288 [label="genre17 <= 0.5\ngini = 0.4459\nsamples = 34346\nvalue = [22824, 11522]"] ;
287 -> 288 ;
289 [label="comic_tag7 <= 0.5\ngini = 0.4423\nsamples = 33888\nvalue = [22701, 11187]"] ;
288 -> 289 ;
290 [label="gini = 0.4494\nsamples = 31616\nvalue = [20836, 10780]"] ;
289 -> 290 ;
291 [label="gini = 0.2941\nsamples = 2272\nvalue = [1865, 407]"] ;
289 -> 291 ;
292 [label="total_session <= 39.5\ngini = 0.3929\nsamples = 458\nvalue = [123, 335]"] ;
288 -> 292 ;
293 [label="gini = 0.3107\nsamples = 156\nvalue = [30, 126]"] ;
292 -> 293 ;
294 [label="gini = 0.4262\nsamples = 302\nvalue = [93, 209]"] ;
292 -> 294 ;
295 [label="coin_needed <= 1.0\ngini = 0.4957\nsamples = 8886\nvalue = [4855, 4031]"] ;
287 -> 295 ;
296 [label="gini = 0.0\nsamples = 231\nvalue = [231, 0]"] ;
295 -> 296 ;
297 [label="total_session <= 14.5\ngini = 0.4977\nsamples = 8655\nvalue = [4624, 4031]"] ;
295 -> 297 ;
298 [label="gini = 0.4867\nsamples = 2055\nvalue = [860, 1195]"] ;
297 -> 298 ;
299 [label="gini = 0.4901\nsamples = 6600\nvalue = [3764, 2836]"] ;
297 -> 299 ;
300 [label="schedule7 <= 0.5\ngini = 0.4946\nsamples = 4872\nvalue = [2183, 2689]"] ;
286 -> 300 ;
301 [label="total_session <= 359.5\ngini = 0.4832\nsamples = 3669\nvalue = [1498, 2171]"] ;
300 -> 301 ;
302 [label="total_session <= 5.5\ngini = 0.4873\nsamples = 3385\nvalue = [1423, 1962]"] ;
301 -> 302 ;
303 [label="gini = 0.4234\nsamples = 470\nvalue = [143, 327]"] ;
302 -> 303 ;
304 [label="gini = 0.4926\nsamples = 2915\nvalue = [1280, 1635]"] ;
302 -> 304 ;
305 [label="genre6 <= 0.5\ngini = 0.3887\nsamples = 284\nvalue = [75, 209]"] ;
301 -> 305 ;
306 [label="gini = 0.3452\nsamples = 257\nvalue = [57, 200]"] ;
305 -> 306 ;
307 [label="gini = 0.4444\nsamples = 27\nvalue = [18, 9]"] ;
305 -> 307 ;
308 [label="total_session <= 11.5\ngini = 0.4904\nsamples = 1203\nvalue = [685, 518]"] ;
300 -> 308 ;
309 [label="last_episode <= 17.0\ngini = 0.4809\nsamples = 261\nvalue = [105, 156]"] ;
308 -> 309 ;
310 [label="gini = 0.0\nsamples = 7\nvalue = [7, 0]"] ;
309 -> 310 ;
311 [label="gini = 0.4739\nsamples = 254\nvalue = [98, 156]"] ;
309 -> 311 ;
312 [label="total_session <= 220.5\ngini = 0.4732\nsamples = 942\nvalue = [580, 362]"] ;
308 -> 312 ;
313 [label="gini = 0.4847\nsamples = 841\nvalue = [494, 347]"] ;
312 -> 313 ;
314 [label="gini = 0.2529\nsamples = 101\nvalue = [86, 15]"] ;
312 -> 314 ;
315 [label="genre5 <= 0.5\ngini = 0.4918\nsamples = 137630\nvalue = [59985, 77645]"] ;
253 -> 315 ;
316 [label="genre8 <= 0.5\ngini = 0.484\nsamples = 117569\nvalue = [48278, 69291]"] ;
315 -> 316 ;
317 [label="comic_start <= 12.5\ngini = 0.4805\nsamples = 112086\nvalue = [44982, 67104]"] ;
316 -> 317 ;
318 [label="genre9 <= 0.5\ngini = 0.4961\nsamples = 9969\nvalue = [5424, 4545]"] ;
317 -> 318 ;
319 [label="total_episode <= 11.5\ngini = 0.4845\nsamples = 8376\nvalue = [4926, 3450]"] ;
318 -> 319 ;
320 [label="gini = 0.4896\nsamples = 7940\nvalue = [4543, 3397]"] ;
319 -> 320 ;
321 [label="gini = 0.2136\nsamples = 436\nvalue = [383, 53]"] ;
319 -> 321 ;
322 [label="total_session <= 11.5\ngini = 0.4298\nsamples = 1593\nvalue = [498, 1095]"] ;
318 -> 322 ;
323 [label="gini = 0.3137\nsamples = 421\nvalue = [82, 339]"] ;
322 -> 323 ;
324 [label="gini = 0.4579\nsamples = 1172\nvalue = [416, 756]"] ;
322 -> 324 ;
325 [label="schedule3 <= 0.5\ngini = 0.4746\nsamples = 102117\nvalue = [39558, 62559]"] ;
317 -> 325 ;
326 [label="schedule5 <= 0.5\ngini = 0.4806\nsamples = 89574\nvalue = [35959, 53615]"] ;
325 -> 326 ;
327 [label="gini = 0.4856\nsamples = 77751\nvalue = [32270, 45481]"] ;
326 -> 327 ;
328 [label="gini = 0.4293\nsamples = 11823\nvalue = [3689, 8134]"] ;
326 -> 328 ;
329 [label="end <= 0.5\ngini = 0.4092\nsamples = 12543\nvalue = [3599, 8944]"] ;
325 -> 329 ;
330 [label="gini = 0.4002\nsamples = 12247\nvalue = [3388, 8859]"] ;
329 -> 330 ;
331 [label="gini = 0.4094\nsamples = 296\nvalue = [211, 85]"] ;
329 -> 331 ;
332 [label="schedule4 <= 0.5\ngini = 0.4795\nsamples = 5483\nvalue = [3296, 2187]"] ;
316 -> 332 ;
333 [label="schedule3 <= 0.5\ngini = 0.3502\nsamples = 2404\nvalue = [1860, 544]"] ;
332 -> 333 ;
334 [label="schedule8 <= 0.5\ngini = 0.3034\nsamples = 2140\nvalue = [1741, 399]"] ;
333 -> 334 ;
335 [label="gini = 0.2939\nsamples = 2078\nvalue = [1706, 372]"] ;
334 -> 335 ;
336 [label="gini = 0.4917\nsamples = 62\nvalue = [35, 27]"] ;
334 -> 336 ;
337 [label="total_session <= 59.5\ngini = 0.4952\nsamples = 264\nvalue = [119, 145]"] ;
333 -> 337 ;
338 [label="gini = 0.4506\nsamples = 105\nvalue = [69, 36]"] ;
337 -> 338 ;
339 [label="gini = 0.4312\nsamples = 159\nvalue = [50, 109]"] ;
337 -> 339 ;
340 [label="total_episode <= 2.5\ngini = 0.4977\nsamples = 3079\nvalue = [1436, 1643]"] ;
332 -> 340 ;
341 [label="total_session <= 387.5\ngini = 0.4868\nsamples = 2126\nvalue = [890, 1236]"] ;
340 -> 341 ;
342 [label="gini = 0.489\nsamples = 2029\nvalue = [864, 1165]"] ;
341 -> 342 ;
343 [label="gini = 0.3924\nsamples = 97\nvalue = [26, 71]"] ;
341 -> 343 ;
344 [label="total_session <= 460.5\ngini = 0.4894\nsamples = 953\nvalue = [546, 407]"] ;
340 -> 344 ;
345 [label="gini = 0.485\nsamples = 907\nvalue = [532, 375]"] ;
344 -> 345 ;
346 [label="gini = 0.4234\nsamples = 46\nvalue = [14, 32]"] ;
344 -> 346 ;
347 [label="total_episode <= 0.5\ngini = 0.486\nsamples = 20061\nvalue = [11707, 8354]"] ;
315 -> 347 ;
348 [label="total_session <= 123.5\ngini = 0.2811\nsamples = 2631\nvalue = [2186, 445]"] ;
347 -> 348 ;
349 [label="plat_C <= 0.5\ngini = 0.236\nsamples = 1705\nvalue = [1472, 233]"] ;
348 -> 349 ;
350 [label="purchasing_power <= 2.5\ngini = 0.2053\nsamples = 1197\nvalue = [1058, 139]"] ;
349 -> 350 ;
351 [label="gini = 0.1706\nsamples = 478\nvalue = [433, 45]"] ;
350 -> 351 ;
352 [label="gini = 0.2273\nsamples = 719\nvalue = [625, 94]"] ;
350 -> 352 ;
353 [label="purchasing_power <= 3.5\ngini = 0.3016\nsamples = 508\nvalue = [414, 94]"] ;
349 -> 353 ;
354 [label="gini = 0.312\nsamples = 455\nvalue = [367, 88]"] ;
353 -> 354 ;
355 [label="gini = 0.2008\nsamples = 53\nvalue = [47, 6]"] ;
353 -> 355 ;
356 [label="total_session <= 823.0\ngini = 0.3531\nsamples = 926\nvalue = [714, 212]"] ;
348 -> 356 ;
357 [label="total_session <= 224.5\ngini = 0.348\nsamples = 914\nvalue = [709, 205]"] ;
356 -> 357 ;
358 [label="gini = 0.3191\nsamples = 507\nvalue = [406, 101]"] ;
357 -> 358 ;
359 [label="gini = 0.3805\nsamples = 407\nvalue = [303, 104]"] ;
357 -> 359 ;
360 [label="plat_C <= 0.5\ngini = 0.4861\nsamples = 12\nvalue = [5, 7]"] ;
356 -> 360 ;
361 [label="gini = 0.4082\nsamples = 7\nvalue = [5, 2]"] ;
360 -> 361 ;
362 [label="gini = 0.0\nsamples = 5\nvalue = [0, 5]"] ;
360 -> 362 ;
363 [label="genre1 <= 0.5\ngini = 0.4957\nsamples = 17430\nvalue = [9521, 7909]"] ;
347 -> 363 ;
364 [label="comic_tag4 <= 0.5\ngini = 0.4922\nsamples = 16299\nvalue = [9170, 7129]"] ;
363 -> 364 ;
365 [label="total_episode <= 4.5\ngini = 0.4771\nsamples = 11907\nvalue = [7228, 4679]"] ;
364 -> 365 ;
366 [label="gini = 0.4515\nsamples = 4892\nvalue = [3208, 1684]"] ;
365 -> 366 ;
367 [label="gini = 0.4893\nsamples = 7015\nvalue = [4020, 2995]"] ;
365 -> 367 ;
368 [label="total_session <= 29.5\ngini = 0.4933\nsamples = 4392\nvalue = [1942, 2450]"] ;
364 -> 368 ;
369 [label="gini = 0.457\nsamples = 1709\nvalue = [604, 1105]"] ;
368 -> 369 ;
370 [label="gini = 0.5\nsamples = 2683\nvalue = [1338, 1345]"] ;
368 -> 370 ;
371 [label="total_session <= 3.5\ngini = 0.4281\nsamples = 1131\nvalue = [351, 780]"] ;
363 -> 371 ;
372 [label="purchasing_power <= 1.5\ngini = 0.4844\nsamples = 34\nvalue = [20, 14]"] ;
371 -> 372 ;
373 [label="gini = 0.4444\nsamples = 3\nvalue = [1, 2]"] ;
372 -> 373 ;
374 [label="gini = 0.4745\nsamples = 31\nvalue = [19, 12]"] ;
372 -> 374 ;
375 [label="plat_C <= 0.5\ngini = 0.4214\nsamples = 1097\nvalue = [331, 766]"] ;
371 -> 375 ;
376 [label="gini = 0.4027\nsamples = 773\nvalue = [216, 557]"] ;
375 -> 376 ;
377 [label="gini = 0.4579\nsamples = 324\nvalue = [115, 209]"] ;
375 -> 377 ;
378 [label="total_episode <= 5.5\ngini = 0.4392\nsamples = 44518\nvalue = [30018, 14500]"] ;
252 -> 378 ;
379 [label="last_episode <= 17.5\ngini = 0.4269\nsamples = 41788\nvalue = [28883, 12905]"] ;
378 -> 379 ;
380 [label="comic_tag7 <= 0.5\ngini = 0.3423\nsamples = 11850\nvalue = [9252, 2598]"] ;
379 -> 380 ;
381 [label="genre3 <= 0.5\ngini = 0.3309\nsamples = 11395\nvalue = [9011, 2384]"] ;
380 -> 381 ;
382 [label="genre8 <= 0.5\ngini = 0.2709\nsamples = 6814\nvalue = [5713, 1101]"] ;
381 -> 382 ;
383 [label="comic_start <= 13.5\ngini = 0.2566\nsamples = 6478\nvalue = [5499, 979]"] ;
382 -> 383 ;
384 [label="gini = 0.1579\nsamples = 1898\nvalue = [1734, 164]"] ;
383 -> 384 ;
385 [label="gini = 0.2926\nsamples = 4580\nvalue = [3765, 815]"] ;
383 -> 385 ;
386 [label="total_session <= 166.5\ngini = 0.4625\nsamples = 336\nvalue = [214, 122]"] ;
382 -> 386 ;
387 [label="gini = 0.4225\nsamples = 221\nvalue = [154, 67]"] ;
386 -> 387 ;
388 [label="gini = 0.4991\nsamples = 115\nvalue = [60, 55]"] ;
386 -> 388 ;
389 [label="total_episode <= 3.5\ngini = 0.4033\nsamples = 4581\nvalue = [3298, 1283]"] ;
381 -> 389 ;
390 [label="comic_start <= 15.5\ngini = 0.3948\nsamples = 4441\nvalue = [3239, 1202]"] ;
389 -> 390 ;
391 [label="gini = 0.3692\nsamples = 3156\nvalue = [2385, 771]"] ;
390 -> 391 ;
392 [label="gini = 0.4458\nsamples = 1285\nvalue = [854, 431]"] ;
390 -> 392 ;
393 [label="plat_C <= 0.5\ngini = 0.4877\nsamples = 140\nvalue = [59, 81]"] ;
389 -> 393 ;
394 [label="gini = 0.4565\nsamples = 122\nvalue = [43, 79]"] ;
393 -> 394 ;
395 [label="gini = 0.1975\nsamples = 18\nvalue = [16, 2]"] ;
393 -> 395 ;
396 [label="total_session <= 50.5\ngini = 0.4982\nsamples = 455\nvalue = [241, 214]"] ;
380 -> 396 ;
397 [label="total_session <= 23.5\ngini = 0.4684\nsamples = 163\nvalue = [102, 61]"] ;
396 -> 397 ;
398 [label="last_episode <= 12.5\ngini = 0.494\nsamples = 110\nvalue = [61, 49]"] ;
397 -> 398 ;
399 [label="gini = 0.0\nsamples = 5\nvalue = [5, 0]"] ;
398 -> 399 ;
400 [label="gini = 0.4978\nsamples = 105\nvalue = [56, 49]"] ;
398 -> 400 ;
401 [label="total_session <= 36.5\ngini = 0.3503\nsamples = 53\nvalue = [41, 12]"] ;
397 -> 401 ;
402 [label="gini = 0.2112\nsamples = 25\nvalue = [22, 3]"] ;
401 -> 402 ;
403 [label="gini = 0.4362\nsamples = 28\nvalue = [19, 9]"] ;
401 -> 403 ;
404 [label="total_session <= 61.5\ngini = 0.4989\nsamples = 292\nvalue = [139, 153]"] ;
396 -> 404 ;
405 [label="purchasing_power <= 2.5\ngini = 0.42\nsamples = 40\nvalue = [12, 28]"] ;
404 -> 405 ;
406 [label="gini = 0.5\nsamples = 20\nvalue = [10, 10]"] ;
405 -> 406 ;
407 [label="gini = 0.18\nsamples = 20\nvalue = [2, 18]"] ;
405 -> 407 ;
408 [label="total_session <= 260.5\ngini = 0.5\nsamples = 252\nvalue = [127, 125]"] ;
404 -> 408 ;
409 [label="gini = 0.4951\nsamples = 191\nvalue = [105, 86]"] ;
408 -> 409 ;
410 [label="gini = 0.4612\nsamples = 61\nvalue = [22, 39]"] ;
408 -> 410 ;
411 [label="comic_start <= 18.5\ngini = 0.4515\nsamples = 29938\nvalue = [19631, 10307]"] ;
379 -> 411 ;
412 [label="genre15 <= 0.5\ngini = 0.4766\nsamples = 17433\nvalue = [10601, 6832]"] ;
411 -> 412 ;
413 [label="genre2 <= 0.5\ngini = 0.4649\nsamples = 14990\nvalue = [9482, 5508]"] ;
412 -> 413 ;
414 [label="total_episode <= 0.5\ngini = 0.4842\nsamples = 7868\nvalue = [4633, 3235]"] ;
413 -> 414 ;
415 [label="gini = 0.3891\nsamples = 945\nvalue = [695, 250]"] ;
414 -> 415 ;
416 [label="gini = 0.4905\nsamples = 6923\nvalue = [3938, 2985]"] ;
414 -> 416 ;
417 [label="total_episode <= 3.5\ngini = 0.4346\nsamples = 7122\nvalue = [4849, 2273]"] ;
413 -> 417 ;
418 [label="gini = 0.4161\nsamples = 6165\nvalue = [4345, 1820]"] ;
417 -> 418 ;
419 [label="gini = 0.4986\nsamples = 957\nvalue = [504, 453]"] ;
417 -> 419 ;
420 [label="total_episode <= 1.5\ngini = 0.4965\nsamples = 2443\nvalue = [1119, 1324]"] ;
412 -> 420 ;
421 [label="total_session <= 606.0\ngini = 0.355\nsamples = 130\nvalue = [100, 30]"] ;
420 -> 421 ;
422 [label="gini = 0.3367\nsamples = 126\nvalue = [99, 27]"] ;
421 -> 422 ;
423 [label="gini = 0.375\nsamples = 4\nvalue = [1, 3]"] ;
421 -> 423 ;
424 [label="total_session <= 211.5\ngini = 0.4929\nsamples = 2313\nvalue = [1019, 1294]"] ;
420 -> 424 ;
425 [label="gini = 0.4968\nsamples = 1907\nvalue = [877, 1030]"] ;
424 -> 425 ;
426 [label="gini = 0.4549\nsamples = 406\nvalue = [142, 264]"] ;
424 -> 426 ;
427 [label="genre9 <= 0.5\ngini = 0.4013\nsamples = 12505\nvalue = [9030, 3475]"] ;
411 -> 427 ;
428 [label="coin_needed <= 4.5\ngini = 0.3893\nsamples = 11646\nvalue = [8563, 3083]"] ;
427 -> 428 ;
429 [label="total_session <= 213.5\ngini = 0.3747\nsamples = 10704\nvalue = [8031, 2673]"] ;
428 -> 429 ;
430 [label="gini = 0.3497\nsamples = 8260\nvalue = [6394, 1866]"] ;
429 -> 430 ;
431 [label="gini = 0.4423\nsamples = 2444\nvalue = [1637, 807]"] ;
429 -> 431 ;
432 [label="total_session <= 189.5\ngini = 0.4916\nsamples = 942\nvalue = [532, 410]"] ;
428 -> 432 ;
433 [label="gini = 0.4777\nsamples = 649\nvalue = [393, 256]"] ;
432 -> 433 ;
434 [label="gini = 0.4987\nsamples = 293\nvalue = [139, 154]"] ;
432 -> 434 ;
435 [label="coin_needed <= 3.5\ngini = 0.4962\nsamples = 859\nvalue = [467, 392]"] ;
427 -> 435 ;
436 [label="total_session <= 102.0\ngini = 0.4365\nsamples = 376\nvalue = [255, 121]"] ;
435 -> 436 ;
437 [label="gini = 0.3512\nsamples = 198\nvalue = [153, 45]"] ;
436 -> 437 ;
438 [label="gini = 0.4893\nsamples = 178\nvalue = [102, 76]"] ;
436 -> 438 ;
439 [label="plat_D <= 0.5\ngini = 0.4925\nsamples = 483\nvalue = [212, 271]"] ;
435 -> 439 ;
440 [label="gini = 0.4978\nsamples = 137\nvalue = [73, 64]"] ;
439 -> 440 ;
441 [label="gini = 0.4807\nsamples = 346\nvalue = [139, 207]"] ;
439 -> 441 ;
442 [label="coin_needed <= 2.5\ngini = 0.4858\nsamples = 2730\nvalue = [1135, 1595]"] ;
378 -> 442 ;
443 [label="end <= 0.5\ngini = 0.479\nsamples = 1200\nvalue = [723, 477]"] ;
442 -> 443 ;
444 [label="total_session <= 93.5\ngini = 0.4462\nsamples = 753\nvalue = [500, 253]"] ;
443 -> 444 ;
445 [label="total_session <= 33.5\ngini = 0.3885\nsamples = 360\nvalue = [265, 95]"] ;
444 -> 445 ;
446 [label="total_session <= 22.5\ngini = 0.464\nsamples = 205\nvalue = [130, 75]"] ;
445 -> 446 ;
447 [label="gini = 0.4177\nsamples = 138\nvalue = [97, 41]"] ;
446 -> 447 ;
448 [label="gini = 0.4999\nsamples = 67\nvalue = [33, 34]"] ;
446 -> 448 ;
449 [label="total_session <= 80.5\ngini = 0.2248\nsamples = 155\nvalue = [135, 20]"] ;
445 -> 449 ;
450 [label="gini = 0.1864\nsamples = 125\nvalue = [112, 13]"] ;
449 -> 450 ;
451 [label="gini = 0.3578\nsamples = 30\nvalue = [23, 7]"] ;
449 -> 451 ;
452 [label="total_session <= 121.5\ngini = 0.4808\nsamples = 393\nvalue = [235, 158]"] ;
444 -> 452 ;
453 [label="purchasing_power <= 2.5\ngini = 0.4916\nsamples = 85\nvalue = [37, 48]"] ;
452 -> 453 ;
454 [label="gini = 0.4032\nsamples = 25\nvalue = [18, 7]"] ;
453 -> 454 ;
455 [label="gini = 0.4328\nsamples = 60\nvalue = [19, 41]"] ;
453 -> 455 ;
456 [label="total_session <= 276.5\ngini = 0.4592\nsamples = 308\nvalue = [198, 110]"] ;
452 -> 456 ;
457 [label="gini = 0.4028\nsamples = 186\nvalue = [134, 52]"] ;
456 -> 457 ;
458 [label="gini = 0.4988\nsamples = 122\nvalue = [64, 58]"] ;
456 -> 458 ;
459 [label="total_episode <= 13.0\ngini = 0.5\nsamples = 447\nvalue = [223, 224]"] ;
443 -> 459 ;
460 [label="total_session <= 45.5\ngini = 0.4977\nsamples = 416\nvalue = [222, 194]"] ;
459 -> 460 ;
461 [label="purchasing_power <= 1.5\ngini = 0.3917\nsamples = 101\nvalue = [74, 27]"] ;
460 -> 461 ;
462 [label="gini = 0.0\nsamples = 16\nvalue = [16, 0]"] ;
461 -> 462 ;
463 [label="gini = 0.4335\nsamples = 85\nvalue = [58, 27]"] ;
461 -> 463 ;
464 [label="last_episode <= 11.0\ngini = 0.4982\nsamples = 315\nvalue = [148, 167]"] ;
460 -> 464 ;
465 [label="gini = 0.4936\nsamples = 300\nvalue = [133, 167]"] ;
464 -> 465 ;
466 [label="gini = 0.0\nsamples = 15\nvalue = [15, 0]"] ;
464 -> 466 ;
467 [label="purchasing_power <= 3.5\ngini = 0.0624\nsamples = 31\nvalue = [1, 30]"] ;
459 -> 467 ;
468 [label="gini = 0.0\nsamples = 30\nvalue = [0, 30]"] ;
467 -> 468 ;
469 [label="gini = 0.0\nsamples = 1\nvalue = [1, 0]"] ;
467 -> 469 ;
470 [label="coin_needed <= 4.5\ngini = 0.3935\nsamples = 1530\nvalue = [412, 1118]"] ;
442 -> 470 ;
471 [label="end <= 0.5\ngini = 0.3888\nsamples = 1518\nvalue = [401, 1117]"] ;
470 -> 471 ;
472 [label="plat_D <= 0.5\ngini = 0.3789\nsamples = 1469\nvalue = [373, 1096]"] ;
471 -> 472 ;
473 [label="purchasing_power <= 2.5\ngini = 0.4372\nsamples = 477\nvalue = [154, 323]"] ;
472 -> 473 ;
474 [label="gini = 0.487\nsamples = 124\nvalue = [52, 72]"] ;
473 -> 474 ;
475 [label="gini = 0.4109\nsamples = 353\nvalue = [102, 251]"] ;
473 -> 475 ;
476 [label="purchasing_power <= 1.5\ngini = 0.3441\nsamples = 992\nvalue = [219, 773]"] ;
472 -> 476 ;
477 [label="gini = 0.4576\nsamples = 158\nvalue = [56, 102]"] ;
476 -> 477 ;
478 [label="gini = 0.3145\nsamples = 834\nvalue = [163, 671]"] ;
476 -> 478 ;
479 [label="total_session <= 1.5\ngini = 0.4898\nsamples = 49\nvalue = [28, 21]"] ;
471 -> 479 ;
480 [label="gini = 0.0\nsamples = 5\nvalue = [0, 5]"] ;
479 -> 480 ;
481 [label="genre2 <= 0.5\ngini = 0.4628\nsamples = 44\nvalue = [28, 16]"] ;
479 -> 481 ;
482 [label="gini = 0.4875\nsamples = 38\nvalue = [22, 16]"] ;
481 -> 482 ;
483 [label="gini = 0.0\nsamples = 6\nvalue = [6, 0]"] ;
481 -> 483 ;
484 [label="total_session <= 423.5\ngini = 0.1528\nsamples = 12\nvalue = [11, 1]"] ;
470 -> 484 ;
485 [label="gini = 0.0\nsamples = 11\nvalue = [11, 0]"] ;
484 -> 485 ;
486 [label="gini = 0.0\nsamples = 1\nvalue = [0, 1]"] ;
484 -> 486 ;
}