digraph Tree {
node [shape=box] ;
0 [label="user_tendency2 <= 0.0016\ngini = 0.4493\nsamples = 650965\nvalue = [429172, 221793]"] ;
1 [label="last_episode <= 16.5\ngini = 0.2413\nsamples = 187889\nvalue = [161514, 26375]"] ;
0 -> 1 [labeldistance=2.5, labelangle=45, headlabel="True"] ;
2 [label="user_tendency6 <= 0.006\ngini = 0.459\nsamples = 20622\nvalue = [13265, 7357]"] ;
1 -> 2 ;
3 [label="user_tendency5 <= 0.0144\ngini = 0.3928\nsamples = 12442\nvalue = [9102, 3340]"] ;
2 -> 3 ;
4 [label="user_tendency1 <= 0.6383\ngini = 0.3115\nsamples = 7332\nvalue = [5917, 1415]"] ;
3 -> 4 ;
5 [label="total_episode <= 6.5\ngini = 0.2856\nsamples = 7099\nvalue = [5874, 1225]"] ;
4 -> 5 ;
6 [label="user_tendency4 <= 0.0486\ngini = 0.2069\nsamples = 4361\nvalue = [3850, 511]"] ;
5 -> 6 ;
7 [label="comic_start <= 8.5\ngini = 0.1837\nsamples = 4213\nvalue = [3782, 431]"] ;
6 -> 7 ;
8 [label="last_episode <= 11.5\ngini = 0.288\nsamples = 1611\nvalue = [1330, 281]"] ;
7 -> 8 ;
9 [label="total_session <= 1.5\ngini = 0.2167\nsamples = 1205\nvalue = [1056, 149]"] ;
8 -> 9 ;
10 [label="user_tendency14 <= 0.2088\ngini = 0.4688\nsamples = 64\nvalue = [40, 24]"] ;
9 -> 10 ;
11 [label="schedule7 <= 0.5\ngini = 0.0868\nsamples = 22\nvalue = [21, 1]"] ;
10 -> 11 ;
12 [label="gini = 0.0\nsamples = 19\nvalue = [19, 0]"] ;
11 -> 12 ;
13 [label="genre16 <= 0.5\ngini = 0.4444\nsamples = 3\nvalue = [2, 1]"] ;
11 -> 13 ;
14 [label="user_tendency13 <= 0.425\ngini = 0.5\nsamples = 2\nvalue = [1, 1]"] ;
13 -> 14 ;
15 [label="gini = 0.0\nsamples = 1\nvalue = [1, 0]"] ;
14 -> 15 ;
16 [label="gini = 0.0\nsamples = 1\nvalue = [0, 1]"] ;
14 -> 16 ;
17 [label="gini = 0.0\nsamples = 1\nvalue = [1, 0]"] ;
13 -> 17 ;
18 [label="last_episode <= 6.5\ngini = 0.4955\nsamples = 42\nvalue = [19, 23]"] ;
10 -> 18 ;
19 [label="genre16 <= 0.5\ngini = 0.2449\nsamples = 21\nvalue = [3, 18]"] ;
18 -> 19 ;
20 [label="last_episode <= 3.5\ngini = 0.18\nsamples = 20\nvalue = [2, 18]"] ;
19 -> 20 ;
21 [label="gini = 0.0\nsamples = 1\nvalue = [1, 0]"] ;
20 -> 21 ;
22 [label="user_tendency13 <= 0.7521\ngini = 0.0997\nsamples = 19\nvalue = [1, 18]"] ;
20 -> 22 ;
23 [label="gini = 0.0\nsamples = 18\nvalue = [0, 18]"] ;
22 -> 23 ;
24 [label="gini = 0.0\nsamples = 1\nvalue = [1, 0]"] ;
22 -> 24 ;
25 [label="gini = 0.0\nsamples = 1\nvalue = [1, 0]"] ;
19 -> 25 ;
26 [label="user_tendency14 <= 0.3831\ngini = 0.3628\nsamples = 21\nvalue = [16, 5]"] ;
18 -> 26 ;
27 [label="purchasing_power <= 7.5\ngini = 0.1172\nsamples = 16\nvalue = [15, 1]"] ;
26 -> 27 ;
28 [label="gini = 0.0\nsamples = 15\nvalue = [15, 0]"] ;
27 -> 28 ;
29 [label="gini = 0.0\nsamples = 1\nvalue = [0, 1]"] ;
27 -> 29 ;
30 [label="genre14 <= 0.5\ngini = 0.32\nsamples = 5\nvalue = [1, 4]"] ;
26 -> 30 ;
31 [label="gini = 0.0\nsamples = 4\nvalue = [0, 4]"] ;
30 -> 31 ;
32 [label="gini = 0.0\nsamples = 1\nvalue = [1, 0]"] ;
30 -> 32 ;
33 [label="total_episode <= 5.5\ngini = 0.1951\nsamples = 1141\nvalue = [1016, 125]"] ;
9 -> 33 ;
34 [label="schedule7 <= 0.5\ngini = 0.1726\nsamples = 1069\nvalue = [967, 102]"] ;
33 -> 34 ;
35 [label="user_tendency1 <= 0.5782\ngini = 0.1443\nsamples = 984\nvalue = [907, 77]"] ;
34 -> 35 ;
36 [label="user_tendency14 <= 0.3874\ngini = 0.1315\nsamples = 961\nvalue = [893, 68]"] ;
35 -> 36 ;
37 [label="genre16 <= 0.5\ngini = 0.1047\nsamples = 866\nvalue = [818, 48]"] ;
36 -> 37 ;
38 [label="purchasing_power <= 2.5\ngini = 0.0618\nsamples = 658\nvalue = [637, 21]"] ;
37 -> 38 ;
39 [label="last_episode <= 3.5\ngini = 0.42\nsamples = 20\nvalue = [14, 6]"] ;
38 -> 39 ;
40 [label="total_session <= 4.0\ngini = 0.2449\nsamples = 7\nvalue = [1, 6]"] ;
39 -> 40 ;
41 [label="gini = 0.0\nsamples = 1\nvalue = [1, 0]"] ;
40 -> 41 ;
42 [label="gini = 0.0\nsamples = 6\nvalue = [0, 6]"] ;
40 -> 42 ;
43 [label="gini = 0.0\nsamples = 13\nvalue = [13, 0]"] ;
39 -> 43 ;
44 [label="user_tendency8 <= 0.6683\ngini = 0.0459\nsamples = 638\nvalue = [623, 15]"] ;
38 -> 44 ;
45 [label="user_tendency11 <= 0.105\ngini = 0.0431\nsamples = 636\nvalue = [622, 14]"] ;
44 -> 45 ;
46 [label="gini = 0.0402\nsamples = 633\nvalue = [620, 13]"] ;
45 -> 46 ;
47 [label="gini = 0.4444\nsamples = 3\nvalue = [2, 1]"] ;
45 -> 47 ;
48 [label="total_episode <= 2.5\ngini = 0.5\nsamples = 2\nvalue = [1, 1]"] ;
44 -> 48 ;
49 [label="gini = 0.0\nsamples = 1\nvalue = [1, 0]"] ;
48 -> 49 ;
50 [label="gini = 0.0\nsamples = 1\nvalue = [0, 1]"] ;
48 -> 50 ;
51 [label="total_session <= 445.5\ngini = 0.2259\nsamples = 208\nvalue = [181, 27]"] ;
37 -> 51 ;
52 [label="purchasing_power <= 8.5\ngini = 0.1863\nsamples = 202\nvalue = [181, 21]"] ;
51 -> 52 ;
53 [label="user_tendency3 <= 0.1916\ngini = 0.1577\nsamples = 197\nvalue = [180, 17]"] ;
52 -> 53 ;
54 [label="gini = 0.0997\nsamples = 152\nvalue = [144, 8]"] ;
53 -> 54 ;
55 [label="gini = 0.32\nsamples = 45\nvalue = [36, 9]"] ;
53 -> 55 ;
56 [label="comic_start <= 2.5\ngini = 0.32\nsamples = 5\nvalue = [1, 4]"] ;
52 -> 56 ;
57 [label="gini = 0.0\nsamples = 4\nvalue = [0, 4]"] ;
56 -> 57 ;
58 [label="gini = 0.0\nsamples = 1\nvalue = [1, 0]"] ;
56 -> 58 ;
59 [label="gini = 0.0\nsamples = 6\nvalue = [0, 6]"] ;
51 -> 59 ;
60 [label="schedule6 <= 0.5\ngini = 0.3324\nsamples = 95\nvalue = [75, 20]"] ;
36 -> 60 ;
61 [label="schedule3 <= 0.5\ngini = 0.2591\nsamples = 85\nvalue = [72, 13]"] ;
60 -> 61 ;
62 [label="gini = 0.0\nsamples = 53\nvalue = [53, 0]"] ;
61 -> 62 ;
63 [label="user_tendency8 <= 0.5433\ngini = 0.4824\nsamples = 32\nvalue = [19, 13]"] ;
61 -> 63 ;
64 [label="comic_start <= 4.5\ngini = 0.3403\nsamples = 23\nvalue = [18, 5]"] ;
63 -> 64 ;
65 [label="gini = 0.0\nsamples = 11\nvalue = [11, 0]"] ;
64 -> 65 ;
66 [label="gini = 0.4861\nsamples = 12\nvalue = [7, 5]"] ;
64 -> 66 ;
67 [label="user_tendency14 <= 0.4363\ngini = 0.1975\nsamples = 9\nvalue = [1, 8]"] ;
63 -> 67 ;
68 [label="gini = 0.0\nsamples = 1\nvalue = [1, 0]"] ;
67 -> 68 ;
69 [label="gini = 0.0\nsamples = 8\nvalue = [0, 8]"] ;
67 -> 69 ;
70 [label="purchasing_power <= 5.5\ngini = 0.42\nsamples = 10\nvalue = [3, 7]"] ;
60 -> 70 ;
71 [label="gini = 0.0\nsamples = 2\nvalue = [2, 0]"] ;
70 -> 71 ;
72 [label="total_session <= 21.0\ngini = 0.2188\nsamples = 8\nvalue = [1, 7]"] ;
70 -> 72 ;
73 [label="gini = 0.0\nsamples = 1\nvalue = [1, 0]"] ;
72 -> 73 ;
74 [label="gini = 0.0\nsamples = 7\nvalue = [0, 7]"] ;
72 -> 74 ;
75 [label="user_tendency1 <= 0.6226\ngini = 0.4764\nsamples = 23\nvalue = [14, 9]"] ;
35 -> 75 ;
76 [label="genre16 <= 0.5\ngini = 0.18\nsamples = 10\nvalue = [1, 9]"] ;
75 -> 76 ;
77 [label="gini = 0.0\nsamples = 1\nvalue = [1, 0]"] ;
76 -> 77 ;
78 [label="gini = 0.0\nsamples = 9\nvalue = [0, 9]"] ;
76 -> 78 ;
79 [label="gini = 0.0\nsamples = 13\nvalue = [13, 0]"] ;
75 -> 79 ;
80 [label="user_tendency14 <= 0.2031\ngini = 0.4152\nsamples = 85\nvalue = [60, 25]"] ;
34 -> 80 ;
81 [label="user_tendency1 <= 0.0947\ngini = 0.4925\nsamples = 57\nvalue = [32, 25]"] ;
80 -> 81 ;
82 [label="last_episode <= 6.5\ngini = 0.498\nsamples = 47\nvalue = [22, 25]"] ;
81 -> 82 ;
83 [label="gini = 0.0\nsamples = 5\nvalue = [5, 0]"] ;
82 -> 83 ;
84 [label="total_session <= 154.0\ngini = 0.4819\nsamples = 42\nvalue = [17, 25]"] ;
82 -> 84 ;
85 [label="user_tendency13 <= 0.1953\ngini = 0.4501\nsamples = 38\nvalue = [13, 25]"] ;
84 -> 85 ;
86 [label="gini = 0.0\nsamples = 3\nvalue = [3, 0]"] ;
85 -> 86 ;
87 [label="total_session <= 20.0\ngini = 0.4082\nsamples = 35\nvalue = [10, 25]"] ;
85 -> 87 ;
88 [label="gini = 0.1528\nsamples = 12\nvalue = [1, 11]"] ;
87 -> 88 ;
89 [label="gini = 0.4764\nsamples = 23\nvalue = [9, 14]"] ;
87 -> 89 ;
90 [label="gini = 0.0\nsamples = 4\nvalue = [4, 0]"] ;
84 -> 90 ;
91 [label="gini = 0.0\nsamples = 10\nvalue = [10, 0]"] ;
81 -> 91 ;
92 [label="gini = 0.0\nsamples = 28\nvalue = [28, 0]"] ;
80 -> 92 ;
93 [label="user_tendency13 <= 0.7564\ngini = 0.4348\nsamples = 72\nvalue = [49, 23]"] ;
33 -> 93 ;
94 [label="schedule2 <= 0.5\ngini = 0.3034\nsamples = 59\nvalue = [48, 11]"] ;
93 -> 94 ;
95 [label="user_tendency14 <= 0.46\ngini = 0.2008\nsamples = 53\nvalue = [47, 6]"] ;
94 -> 95 ;
96 [label="user_tendency3 <= 0.2396\ngini = 0.1172\nsamples = 48\nvalue = [45, 3]"] ;
95 -> 96 ;
97 [label="gini = 0.0\nsamples = 39\nvalue = [39, 0]"] ;
96 -> 97 ;
98 [label="user_tendency14 <= 0.1067\ngini = 0.4444\nsamples = 9\nvalue = [6, 3]"] ;
96 -> 98 ;
99 [label="gini = 0.0\nsamples = 6\nvalue = [6, 0]"] ;
98 -> 99 ;
100 [label="gini = 0.0\nsamples = 3\nvalue = [0, 3]"] ;
98 -> 100 ;
101 [label="privacy_2 <= 0.5\ngini = 0.48\nsamples = 5\nvalue = [2, 3]"] ;
95 -> 101 ;
102 [label="gini = 0.0\nsamples = 2\nvalue = [2, 0]"] ;
101 -> 102 ;
103 [label="gini = 0.0\nsamples = 3\nvalue = [0, 3]"] ;
101 -> 103 ;
104 [label="user_tendency13 <= 0.4571\ngini = 0.2778\nsamples = 6\nvalue = [1, 5]"] ;
94 -> 104 ;
105 [label="gini = 0.0\nsamples = 5\nvalue = [0, 5]"] ;
104 -> 105 ;
106 [label="gini = 0.0\nsamples = 1\nvalue = [1, 0]"] ;
104 -> 106 ;
107 [label="purchasing_power <= 4.5\ngini = 0.142\nsamples = 13\nvalue = [1, 12]"] ;
93 -> 107 ;
108 [label="plat_A <= 0.5\ngini = 0.5\nsamples = 2\nvalue = [1, 1]"] ;
107 -> 108 ;
109 [label="gini = 0.0\nsamples = 1\nvalue = [1, 0]"] ;
108 -> 109 ;
110 [label="gini = 0.0\nsamples = 1\nvalue = [0, 1]"] ;
108 -> 110 ;
111 [label="gini = 0.0\nsamples = 11\nvalue = [0, 11]"] ;
107 -> 111 ;
112 [label="user_tendency14 <= 0.288\ngini = 0.4388\nsamples = 406\nvalue = [274, 132]"] ;
8 -> 112 ;
113 [label="schedule4 <= 0.5\ngini = 0.2254\nsamples = 224\nvalue = [195, 29]"] ;
112 -> 113 ;
114 [label="total_session <= 28.5\ngini = 0.1528\nsamples = 180\nvalue = [165, 15]"] ;
113 -> 114 ;
115 [label="total_session <= 26.5\ngini = 0.3011\nsamples = 65\nvalue = [53, 12]"] ;
114 -> 115 ;
116 [label="user_tendency14 <= 0.1234\ngini = 0.2671\nsamples = 63\nvalue = [53, 10]"] ;
115 -> 116 ;
117 [label="gini = 0.0\nsamples = 24\nvalue = [24, 0]"] ;
116 -> 117 ;
118 [label="user_tendency14 <= 0.1325\ngini = 0.3813\nsamples = 39\nvalue = [29, 10]"] ;
116 -> 118 ;
119 [label="gini = 0.0\nsamples = 3\nvalue = [0, 3]"] ;
118 -> 119 ;
120 [label="book <= 0.5\ngini = 0.3133\nsamples = 36\nvalue = [29, 7]"] ;
118 -> 120 ;
121 [label="user_tendency13 <= 0.7293\ngini = 0.2509\nsamples = 34\nvalue = [29, 5]"] ;
120 -> 121 ;
122 [label="total_session <= 23.5\ngini = 0.375\nsamples = 20\nvalue = [15, 5]"] ;
121 -> 122 ;
123 [label="gini = 0.2778\nsamples = 18\nvalue = [15, 3]"] ;
122 -> 123 ;
124 [label="gini = 0.0\nsamples = 2\nvalue = [0, 2]"] ;
122 -> 124 ;
125 [label="gini = 0.0\nsamples = 14\nvalue = [14, 0]"] ;
121 -> 125 ;
126 [label="gini = 0.0\nsamples = 2\nvalue = [0, 2]"] ;
120 -> 126 ;
127 [label="gini = 0.0\nsamples = 2\nvalue = [0, 2]"] ;
115 -> 127 ;
128 [label="total_session <= 101.5\ngini = 0.0508\nsamples = 115\nvalue = [112, 3]"] ;
114 -> 128 ;
129 [label="gini = 0.0\nsamples = 71\nvalue = [71, 0]"] ;
128 -> 129 ;
130 [label="total_session <= 104.0\ngini = 0.1271\nsamples = 44\nvalue = [41, 3]"] ;
128 -> 130 ;
131 [label="gini = 0.0\nsamples = 1\nvalue = [0, 1]"] ;
130 -> 131 ;
132 [label="user_tendency13 <= 0.4922\ngini = 0.0887\nsamples = 43\nvalue = [41, 2]"] ;
130 -> 132 ;
133 [label="user_tendency13 <= 0.4827\ngini = 0.1975\nsamples = 18\nvalue = [16, 2]"] ;
132 -> 133 ;
134 [label="comic_start <= 6.5\ngini = 0.1107\nsamples = 17\nvalue = [16, 1]"] ;
133 -> 134 ;
135 [label="user_tendency14 <= 0.1427\ngini = 0.4444\nsamples = 3\nvalue = [2, 1]"] ;
134 -> 135 ;
136 [label="gini = 0.0\nsamples = 2\nvalue = [2, 0]"] ;
135 -> 136 ;
137 [label="gini = 0.0\nsamples = 1\nvalue = [0, 1]"] ;
135 -> 137 ;
138 [label="gini = 0.0\nsamples = 14\nvalue = [14, 0]"] ;
134 -> 138 ;
139 [label="gini = 0.0\nsamples = 1\nvalue = [0, 1]"] ;
133 -> 139 ;
140 [label="gini = 0.0\nsamples = 25\nvalue = [25, 0]"] ;
132 -> 140 ;
141 [label="total_session <= 71.5\ngini = 0.4339\nsamples = 44\nvalue = [30, 14]"] ;
113 -> 141 ;
142 [label="user_tendency13 <= 0.7731\ngini = 0.4911\nsamples = 30\nvalue = [17, 13]"] ;
141 -> 142 ;
143 [label="user_tendency14 <= 0.0382\ngini = 0.4965\nsamples = 24\nvalue = [11, 13]"] ;
142 -> 143 ;
144 [label="gini = 0.0\nsamples = 5\nvalue = [5, 0]"] ;
143 -> 144 ;
145 [label="user_tendency14 <= 0.2563\ngini = 0.4321\nsamples = 19\nvalue = [6, 13]"] ;
143 -> 145 ;
146 [label="user_tendency1 <= 0.0631\ngini = 0.2449\nsamples = 14\nvalue = [2, 12]"] ;
145 -> 146 ;
147 [label="user_tendency14 <= 0.0791\ngini = 0.142\nsamples = 13\nvalue = [1, 12]"] ;
146 -> 147 ;
148 [label="total_session <= 65.5\ngini = 0.375\nsamples = 4\nvalue = [1, 3]"] ;
147 -> 148 ;
149 [label="gini = 0.0\nsamples = 1\nvalue = [1, 0]"] ;
148 -> 149 ;
150 [label="gini = 0.0\nsamples = 3\nvalue = [0, 3]"] ;
148 -> 150 ;
151 [label="gini = 0.0\nsamples = 9\nvalue = [0, 9]"] ;
147 -> 151 ;
152 [label="gini = 0.0\nsamples = 1\nvalue = [1, 0]"] ;
146 -> 152 ;
153 [label="plat_A <= 0.5\ngini = 0.32\nsamples = 5\nvalue = [4, 1]"] ;
145 -> 153 ;
154 [label="gini = 0.0\nsamples = 4\nvalue = [4, 0]"] ;
153 -> 154 ;
155 [label="gini = 0.0\nsamples = 1\nvalue = [0, 1]"] ;
153 -> 155 ;
156 [label="gini = 0.0\nsamples = 6\nvalue = [6, 0]"] ;
142 -> 156 ;
157 [label="total_session <= 170.5\ngini = 0.1327\nsamples = 14\nvalue = [13, 1]"] ;
141 -> 157 ;
158 [label="gini = 0.0\nsamples = 11\nvalue = [11, 0]"] ;
157 -> 158 ;
159 [label="purchasing_power <= 5.0\ngini = 0.4444\nsamples = 3\nvalue = [2, 1]"] ;
157 -> 159 ;
160 [label="gini = 0.0\nsamples = 2\nvalue = [2, 0]"] ;
159 -> 160 ;
161 [label="gini = 0.0\nsamples = 1\nvalue = [0, 1]"] ;
159 -> 161 ;
162 [label="user_tendency14 <= 0.302\ngini = 0.4913\nsamples = 182\nvalue = [79, 103]"] ;
112 -> 162 ;
163 [label="privacy_2 <= 0.5\ngini = 0.3141\nsamples = 82\nvalue = [16, 66]"] ;
162 -> 163 ;
164 [label="purchasing_power <= 4.5\ngini = 0.4286\nsamples = 45\nvalue = [14, 31]"] ;
163 -> 164 ;
165 [label="user_tendency13 <= 0.4925\ngini = 0.1327\nsamples = 14\nvalue = [1, 13]"] ;
164 -> 165 ;
166 [label="gini = 0.0\nsamples = 1\nvalue = [1, 0]"] ;
165 -> 166 ;
167 [label="gini = 0.0\nsamples = 13\nvalue = [0, 13]"] ;
165 -> 167 ;
168 [label="total_session <= 64.0\ngini = 0.487\nsamples = 31\nvalue = [13, 18]"] ;
164 -> 168 ;
169 [label="total_session <= 9.0\ngini = 0.4444\nsamples = 18\nvalue = [12, 6]"] ;
168 -> 169 ;
170 [label="total_session <= 5.5\ngini = 0.4688\nsamples = 8\nvalue = [3, 5]"] ;
169 -> 170 ;
171 [label="genre6 <= 0.5\ngini = 0.375\nsamples = 4\nvalue = [3, 1]"] ;
170 -> 171 ;
172 [label="gini = 0.0\nsamples = 1\nvalue = [0, 1]"] ;
171 -> 172 ;
173 [label="gini = 0.0\nsamples = 3\nvalue = [3, 0]"] ;
171 -> 173 ;
174 [label="gini = 0.0\nsamples = 4\nvalue = [0, 4]"] ;
170 -> 174 ;
175 [label="purchasing_power <= 5.5\ngini = 0.18\nsamples = 10\nvalue = [9, 1]"] ;
169 -> 175 ;
176 [label="plat_A <= 0.5\ngini = 0.4444\nsamples = 3\nvalue = [2, 1]"] ;
175 -> 176 ;
177 [label="gini = 0.0\nsamples = 1\nvalue = [0, 1]"] ;
176 -> 177 ;
178 [label="gini = 0.0\nsamples = 2\nvalue = [2, 0]"] ;
176 -> 178 ;
179 [label="gini = 0.0\nsamples = 7\nvalue = [7, 0]"] ;
175 -> 179 ;
180 [label="purchasing_power <= 5.5\ngini = 0.142\nsamples = 13\nvalue = [1, 12]"] ;
168 -> 180 ;
181 [label="gini = 0.0\nsamples = 1\nvalue = [1, 0]"] ;
180 -> 181 ;
182 [label="gini = 0.0\nsamples = 12\nvalue = [0, 12]"] ;
180 -> 182 ;
183 [label="total_session <= 29.5\ngini = 0.1023\nsamples = 37\nvalue = [2, 35]"] ;
163 -> 183 ;
184 [label="total_session <= 10.5\ngini = 0.2188\nsamples = 16\nvalue = [2, 14]"] ;
183 -> 184 ;
185 [label="gini = 0.0\nsamples = 14\nvalue = [0, 14]"] ;
184 -> 185 ;
186 [label="gini = 0.0\nsamples = 2\nvalue = [2, 0]"] ;
184 -> 186 ;
187 [label="gini = 0.0\nsamples = 21\nvalue = [0, 21]"] ;
183 -> 187 ;
188 [label="user_tendency14 <= 0.5206\ngini = 0.4662\nsamples = 100\nvalue = [63, 37]"] ;
162 -> 188 ;
189 [label="total_session <= 1.5\ngini = 0.4068\nsamples = 88\nvalue = [63, 25]"] ;
188 -> 189 ;
190 [label="user_tendency13 <= 0.6019\ngini = 0.375\nsamples = 16\nvalue = [4, 12]"] ;
189 -> 190 ;
191 [label="gini = 0.0\nsamples = 3\nvalue = [3, 0]"] ;
190 -> 191 ;
192 [label="privacy_2 <= 0.5\ngini = 0.142\nsamples = 13\nvalue = [1, 12]"] ;
190 -> 192 ;
193 [label="gini = 0.0\nsamples = 12\nvalue = [0, 12]"] ;
192 -> 193 ;
194 [label="gini = 0.0\nsamples = 1\nvalue = [1, 0]"] ;
192 -> 194 ;
195 [label="user_tendency13 <= 0.6826\ngini = 0.2959\nsamples = 72\nvalue = [59, 13]"] ;
189 -> 195 ;
196 [label="total_session <= 127.5\ngini = 0.1528\nsamples = 60\nvalue = [55, 5]"] ;
195 -> 196 ;
197 [label="gini = 0.0\nsamples = 45\nvalue = [45, 0]"] ;
196 -> 197 ;
198 [label="total_session <= 132.5\ngini = 0.4444\nsamples = 15\nvalue = [10, 5]"] ;
196 -> 198 ;
199 [label="gini = 0.0\nsamples = 4\nvalue = [0, 4]"] ;
198 -> 199 ;
200 [label="total_session <= 346.5\ngini = 0.1653\nsamples = 11\nvalue = [10, 1]"] ;
198 -> 200 ;
201 [label="gini = 0.0\nsamples = 9\nvalue = [9, 0]"] ;
200 -> 201 ;
202 [label="genre6 <= 0.5\ngini = 0.5\nsamples = 2\nvalue = [1, 1]"] ;
200 -> 202 ;
203 [label="gini = 0.0\nsamples = 1\nvalue = [0, 1]"] ;
202 -> 203 ;
204 [label="gini = 0.0\nsamples = 1\nvalue = [1, 0]"] ;
202 -> 204 ;
205 [label="user_tendency14 <= 0.312\ngini = 0.4444\nsamples = 12\nvalue = [4, 8]"] ;
195 -> 205 ;
206 [label="gini = 0.0\nsamples = 4\nvalue = [4, 0]"] ;
205 -> 206 ;
207 [label="gini = 0.0\nsamples = 8\nvalue = [0, 8]"] ;
205 -> 207 ;
208 [label="gini = 0.0\nsamples = 12\nvalue = [0, 12]"] ;
188 -> 208 ;
209 [label="user_tendency11 <= 0.0815\ngini = 0.1086\nsamples = 2602\nvalue = [2452, 150]"] ;
7 -> 209 ;
210 [label="genre18 <= 0.5\ngini = 0.1061\nsamples = 2597\nvalue = [2451, 146]"] ;
209 -> 210 ;
211 [label="user_tendency9 <= 0.7644\ngini = 0.0988\nsamples = 2552\nvalue = [2419, 133]"] ;
210 -> 211 ;
212 [label="total_session <= 3.5\ngini = 0.0962\nsamples = 2545\nvalue = [2416, 129]"] ;
211 -> 212 ;
213 [label="genre8 <= 0.5\ngini = 0.2287\nsamples = 243\nvalue = [211, 32]"] ;
212 -> 213 ;
214 [label="user_tendency1 <= 0.5529\ngini = 0.1639\nsamples = 211\nvalue = [192, 19]"] ;
213 -> 214 ;
215 [label="user_tendency14 <= 0.2153\ngini = 0.1433\nsamples = 206\nvalue = [190, 16]"] ;
214 -> 215 ;
216 [label="schedule2 <= 0.5\ngini = 0.2012\nsamples = 141\nvalue = [125, 16]"] ;
215 -> 216 ;
217 [label="user_tendency14 <= 0.2121\ngini = 0.1812\nsamples = 139\nvalue = [125, 14]"] ;
216 -> 217 ;
218 [label="schedule4 <= 0.5\ngini = 0.1707\nsamples = 138\nvalue = [125, 13]"] ;
217 -> 218 ;
219 [label="gini = 0.1254\nsamples = 119\nvalue = [111, 8]"] ;
218 -> 219 ;
220 [label="gini = 0.3878\nsamples = 19\nvalue = [14, 5]"] ;
218 -> 220 ;
221 [label="gini = 0.0\nsamples = 1\nvalue = [0, 1]"] ;
217 -> 221 ;
222 [label="gini = 0.0\nsamples = 2\nvalue = [0, 2]"] ;
216 -> 222 ;
223 [label="gini = 0.0\nsamples = 65\nvalue = [65, 0]"] ;
215 -> 223 ;
224 [label="book <= 0.5\ngini = 0.48\nsamples = 5\nvalue = [2, 3]"] ;
214 -> 224 ;
225 [label="gini = 0.0\nsamples = 2\nvalue = [2, 0]"] ;
224 -> 225 ;
226 [label="gini = 0.0\nsamples = 3\nvalue = [0, 3]"] ;
224 -> 226 ;
227 [label="user_tendency3 <= 0.078\ngini = 0.4824\nsamples = 32\nvalue = [19, 13]"] ;
213 -> 227 ;
228 [label="user_tendency13 <= 0.0861\ngini = 0.2975\nsamples = 22\nvalue = [18, 4]"] ;
227 -> 228 ;
229 [label="user_tendency8 <= 0.5973\ngini = 0.4938\nsamples = 9\nvalue = [5, 4]"] ;
228 -> 229 ;
230 [label="genre4 <= 0.5\ngini = 0.32\nsamples = 5\nvalue = [1, 4]"] ;
229 -> 230 ;
231 [label="gini = 0.0\nsamples = 4\nvalue = [0, 4]"] ;
230 -> 231 ;
232 [label="gini = 0.0\nsamples = 1\nvalue = [1, 0]"] ;
230 -> 232 ;
233 [label="gini = 0.0\nsamples = 4\nvalue = [4, 0]"] ;
229 -> 233 ;
234 [label="gini = 0.0\nsamples = 13\nvalue = [13, 0]"] ;
228 -> 234 ;
235 [label="last_episode <= 13.5\ngini = 0.18\nsamples = 10\nvalue = [1, 9]"] ;
227 -> 235 ;
236 [label="gini = 0.0\nsamples = 1\nvalue = [1, 0]"] ;
235 -> 236 ;
237 [label="gini = 0.0\nsamples = 9\nvalue = [0, 9]"] ;
235 -> 237 ;
238 [label="user_tendency3 <= 0.8893\ngini = 0.0807\nsamples = 2302\nvalue = [2205, 97]"] ;
212 -> 238 ;
239 [label="user_tendency13 <= 0.8099\ngini = 0.0751\nsamples = 2279\nvalue = [2190, 89]"] ;
238 -> 239 ;
240 [label="user_tendency9 <= 0.0258\ngini = 0.0677\nsamples = 2196\nvalue = [2119, 77]"] ;
239 -> 240 ;
241 [label="schedule6 <= 0.5\ngini = 0.0605\nsamples = 2114\nvalue = [2048, 66]"] ;
240 -> 241 ;
242 [label="user_tendency3 <= 0.4898\ngini = 0.0516\nsamples = 1964\nvalue = [1912, 52]"] ;
241 -> 242 ;
243 [label="user_tendency8 <= 0.5661\ngini = 0.0372\nsamples = 1740\nvalue = [1707, 33]"] ;
242 -> 243 ;
244 [label="gini = 0.027\nsamples = 1461\nvalue = [1441, 20]"] ;
243 -> 244 ;
245 [label="gini = 0.0888\nsamples = 279\nvalue = [266, 13]"] ;
243 -> 245 ;
246 [label="purchasing_power <= 8.5\ngini = 0.1553\nsamples = 224\nvalue = [205, 19]"] ;
242 -> 246 ;
247 [label="gini = 0.1276\nsamples = 219\nvalue = [204, 15]"] ;
246 -> 247 ;
248 [label="gini = 0.32\nsamples = 5\nvalue = [1, 4]"] ;
246 -> 248 ;
249 [label="genre8 <= 0.5\ngini = 0.1692\nsamples = 150\nvalue = [136, 14]"] ;
241 -> 249 ;
250 [label="user_tendency13 <= 0.7986\ngini = 0.0855\nsamples = 134\nvalue = [128, 6]"] ;
249 -> 250 ;
251 [label="gini = 0.0724\nsamples = 133\nvalue = [128, 5]"] ;
250 -> 251 ;
252 [label="gini = 0.0\nsamples = 1\nvalue = [0, 1]"] ;
250 -> 252 ;
253 [label="privacy_2 <= 0.5\ngini = 0.5\nsamples = 16\nvalue = [8, 8]"] ;
249 -> 253 ;
254 [label="gini = 0.0\nsamples = 8\nvalue = [8, 0]"] ;
253 -> 254 ;
255 [label="gini = 0.0\nsamples = 8\nvalue = [0, 8]"] ;
253 -> 255 ;
256 [label="user_tendency1 <= 0.5305\ngini = 0.2323\nsamples = 82\nvalue = [71, 11]"] ;
240 -> 256 ;
257 [label="genre9 <= 0.5\ngini = 0.182\nsamples = 79\nvalue = [71, 8]"] ;
256 -> 257 ;
258 [label="gini = 0.0\nsamples = 41\nvalue = [41, 0]"] ;
257 -> 258 ;
259 [label="privacy_2 <= 0.5\ngini = 0.3324\nsamples = 38\nvalue = [30, 8]"] ;
257 -> 259 ;
260 [label="gini = 0.2378\nsamples = 29\nvalue = [25, 4]"] ;
259 -> 260 ;
261 [label="gini = 0.4938\nsamples = 9\nvalue = [5, 4]"] ;
259 -> 261 ;
262 [label="gini = 0.0\nsamples = 3\nvalue = [0, 3]"] ;
256 -> 262 ;
263 [label="last_episode <= 15.5\ngini = 0.2474\nsamples = 83\nvalue = [71, 12]"] ;
239 -> 263 ;
264 [label="comic_start <= 14.5\ngini = 0.0351\nsamples = 56\nvalue = [55, 1]"] ;
263 -> 264 ;
265 [label="gini = 0.0\nsamples = 47\nvalue = [47, 0]"] ;
264 -> 265 ;
266 [label="schedule7 <= 0.5\ngini = 0.1975\nsamples = 9\nvalue = [8, 1]"] ;
264 -> 266 ;
267 [label="gini = 0.0\nsamples = 6\nvalue = [6, 0]"] ;
266 -> 267 ;
268 [label="total_session <= 36.5\ngini = 0.4444\nsamples = 3\nvalue = [2, 1]"] ;
266 -> 268 ;
269 [label="gini = 0.0\nsamples = 1\nvalue = [0, 1]"] ;
268 -> 269 ;
270 [label="gini = 0.0\nsamples = 2\nvalue = [2, 0]"] ;
268 -> 270 ;
271 [label="user_tendency13 <= 0.8147\ngini = 0.4829\nsamples = 27\nvalue = [16, 11]"] ;
263 -> 271 ;
272 [label="purchasing_power <= 3.5\ngini = 0.2449\nsamples = 7\nvalue = [1, 6]"] ;
271 -> 272 ;
273 [label="gini = 0.0\nsamples = 1\nvalue = [1, 0]"] ;
272 -> 273 ;
274 [label="gini = 0.0\nsamples = 6\nvalue = [0, 6]"] ;
272 -> 274 ;
275 [label="genre16 <= 0.5\ngini = 0.375\nsamples = 20\nvalue = [15, 5]"] ;
271 -> 275 ;
276 [label="gini = 0.0\nsamples = 10\nvalue = [10, 0]"] ;
275 -> 276 ;
277 [label="total_session <= 58.0\ngini = 0.5\nsamples = 10\nvalue = [5, 5]"] ;
275 -> 277 ;
278 [label="gini = 0.4444\nsamples = 6\nvalue = [4, 2]"] ;
277 -> 278 ;
279 [label="gini = 0.375\nsamples = 4\nvalue = [1, 3]"] ;
277 -> 279 ;
280 [label="schedule7 <= 0.5\ngini = 0.4537\nsamples = 23\nvalue = [15, 8]"] ;
238 -> 280 ;
281 [label="total_session <= 99.5\ngini = 0.2076\nsamples = 17\nvalue = [15, 2]"] ;
280 -> 281 ;
282 [label="schedule4 <= 0.5\ngini = 0.1172\nsamples = 16\nvalue = [15, 1]"] ;
281 -> 282 ;
283 [label="gini = 0.0\nsamples = 14\nvalue = [14, 0]"] ;
282 -> 283 ;
284 [label="plat_B <= 0.5\ngini = 0.5\nsamples = 2\nvalue = [1, 1]"] ;
282 -> 284 ;
285 [label="gini = 0.0\nsamples = 1\nvalue = [0, 1]"] ;
284 -> 285 ;
286 [label="gini = 0.0\nsamples = 1\nvalue = [1, 0]"] ;
284 -> 286 ;
287 [label="gini = 0.0\nsamples = 1\nvalue = [0, 1]"] ;
281 -> 287 ;
288 [label="gini = 0.0\nsamples = 6\nvalue = [0, 6]"] ;
280 -> 288 ;
289 [label="comic_start <= 12.5\ngini = 0.4898\nsamples = 7\nvalue = [3, 4]"] ;
211 -> 289 ;
290 [label="gini = 0.0\nsamples = 4\nvalue = [0, 4]"] ;
289 -> 290 ;
291 [label="gini = 0.0\nsamples = 3\nvalue = [3, 0]"] ;
289 -> 291 ;
292 [label="user_tendency1 <= 0.0883\ngini = 0.4109\nsamples = 45\nvalue = [32, 13]"] ;
210 -> 292 ;
293 [label="gini = 0.0\nsamples = 20\nvalue = [20, 0]"] ;
292 -> 293 ;
294 [label="total_session <= 68.5\ngini = 0.4992\nsamples = 25\nvalue = [12, 13]"] ;
292 -> 294 ;
295 [label="plat_C <= 0.5\ngini = 0.4321\nsamples = 19\nvalue = [6, 13]"] ;
294 -> 295 ;
296 [label="genre14 <= 0.5\ngini = 0.3599\nsamples = 17\nvalue = [4, 13]"] ;
295 -> 296 ;
297 [label="total_session <= 1.5\ngini = 0.4444\nsamples = 3\nvalue = [2, 1]"] ;
296 -> 297 ;
298 [label="gini = 0.0\nsamples = 1\nvalue = [0, 1]"] ;
297 -> 298 ;
299 [label="gini = 0.0\nsamples = 2\nvalue = [2, 0]"] ;
297 -> 299 ;
300 [label="purchasing_power <= 4.0\ngini = 0.2449\nsamples = 14\nvalue = [2, 12]"] ;
296 -> 300 ;
301 [label="gini = 0.0\nsamples = 5\nvalue = [0, 5]"] ;
300 -> 301 ;
302 [label="user_tendency1 <= 0.4609\ngini = 0.3457\nsamples = 9\nvalue = [2, 7]"] ;
300 -> 302 ;
303 [label="plat_B <= 0.5\ngini = 0.2188\nsamples = 8\nvalue = [1, 7]"] ;
302 -> 303 ;
304 [label="purchasing_power <= 6.5\ngini = 0.5\nsamples = 2\nvalue = [1, 1]"] ;
303 -> 304 ;
305 [label="gini = 0.0\nsamples = 1\nvalue = [1, 0]"] ;
304 -> 305 ;
306 [label="gini = 0.0\nsamples = 1\nvalue = [0, 1]"] ;
304 -> 306 ;
307 [label="gini = 0.0\nsamples = 6\nvalue = [0, 6]"] ;
303 -> 307 ;
308 [label="gini = 0.0\nsamples = 1\nvalue = [1, 0]"] ;
302 -> 308 ;
309 [label="gini = 0.0\nsamples = 2\nvalue = [2, 0]"] ;
295 -> 309 ;
310 [label="gini = 0.0\nsamples = 6\nvalue = [6, 0]"] ;
294 -> 310 ;
311 [label="gini = 0.32\nsamples = 5\nvalue = [1, 4]"] ;
209 -> 311 ;
312 [label="genre6 <= 0.5\ngini = 0.4967\nsamples = 148\nvalue = [68, 80]"] ;
6 -> 312 ;
313 [label="schedule4 <= 0.5\ngini = 0.4648\nsamples = 98\nvalue = [62, 36]"] ;
312 -> 313 ;
314 [label="schedule5 <= 0.5\ngini = 0.3589\nsamples = 64\nvalue = [49, 15]"] ;
313 -> 314 ;
315 [label="last_episode <= 15.5\ngini = 0.162\nsamples = 45\nvalue = [41, 4]"] ;
314 -> 315 ;
316 [label="gini = 0.0\nsamples = 31\nvalue = [31, 0]"] ;
315 -> 316 ;
317 [label="user_tendency4 <= 0.3636\ngini = 0.4082\nsamples = 14\nvalue = [10, 4]"] ;
315 -> 317 ;
318 [label="gini = 0.0\nsamples = 5\nvalue = [5, 0]"] ;
317 -> 318 ;
319 [label="user_tendency14 <= 0.0223\ngini = 0.4938\nsamples = 9\nvalue = [5, 4]"] ;
317 -> 319 ;
320 [label="total_session <= 9.5\ngini = 0.4688\nsamples = 8\nvalue = [5, 3]"] ;
319 -> 320 ;
321 [label="gini = 0.0\nsamples = 1\nvalue = [0, 1]"] ;
320 -> 321 ;
322 [label="coin_needed <= 3.5\ngini = 0.4082\nsamples = 7\nvalue = [5, 2]"] ;
320 -> 322 ;
323 [label="gini = 0.0\nsamples = 4\nvalue = [4, 0]"] ;
322 -> 323 ;
324 [label="gini = 0.4444\nsamples = 3\nvalue = [1, 2]"] ;
322 -> 324 ;
325 [label="gini = 0.0\nsamples = 1\nvalue = [0, 1]"] ;
319 -> 325 ;
326 [label="total_episode <= 2.5\ngini = 0.4875\nsamples = 19\nvalue = [8, 11]"] ;
314 -> 326 ;
327 [label="user_tendency8 <= 0.5331\ngini = 0.3911\nsamples = 15\nvalue = [4, 11]"] ;
326 -> 327 ;
328 [label="user_tendency3 <= 0.1895\ngini = 0.2604\nsamples = 13\nvalue = [2, 11]"] ;
327 -> 328 ;
329 [label="user_tendency4 <= 0.3182\ngini = 0.1528\nsamples = 12\nvalue = [1, 11]"] ;
328 -> 329 ;
330 [label="gini = 0.0\nsamples = 7\nvalue = [0, 7]"] ;
329 -> 330 ;
331 [label="total_session <= 85.5\ngini = 0.32\nsamples = 5\nvalue = [1, 4]"] ;
329 -> 331 ;
332 [label="user_tendency4 <= 0.5033\ngini = 0.5\nsamples = 2\nvalue = [1, 1]"] ;
331 -> 332 ;
333 [label="gini = 0.0\nsamples = 1\nvalue = [1, 0]"] ;
332 -> 333 ;
334 [label="gini = 0.0\nsamples = 1\nvalue = [0, 1]"] ;
332 -> 334 ;
335 [label="gini = 0.0\nsamples = 3\nvalue = [0, 3]"] ;
331 -> 335 ;
336 [label="gini = 0.0\nsamples = 1\nvalue = [1, 0]"] ;
328 -> 336 ;
337 [label="gini = 0.0\nsamples = 2\nvalue = [2, 0]"] ;
327 -> 337 ;
338 [label="gini = 0.0\nsamples = 4\nvalue = [4, 0]"] ;
326 -> 338 ;
339 [label="user_tendency4 <= 0.1675\ngini = 0.4723\nsamples = 34\nvalue = [13, 21]"] ;
313 -> 339 ;
340 [label="total_session <= 158.5\ngini = 0.2449\nsamples = 7\nvalue = [6, 1]"] ;
339 -> 340 ;
341 [label="gini = 0.0\nsamples = 6\nvalue = [6, 0]"] ;
340 -> 341 ;
342 [label="gini = 0.0\nsamples = 1\nvalue = [0, 1]"] ;
340 -> 342 ;
343 [label="total_episode <= 2.5\ngini = 0.3841\nsamples = 27\nvalue = [7, 20]"] ;
339 -> 343 ;
344 [label="gini = 0.0\nsamples = 2\nvalue = [2, 0]"] ;
343 -> 344 ;
345 [label="last_episode <= 12.5\ngini = 0.32\nsamples = 25\nvalue = [5, 20]"] ;
343 -> 345 ;
346 [label="user_tendency13 <= 0.2277\ngini = 0.5\nsamples = 6\nvalue = [3, 3]"] ;
345 -> 346 ;
347 [label="gini = 0.0\nsamples = 3\nvalue = [3, 0]"] ;
346 -> 347 ;
348 [label="gini = 0.0\nsamples = 3\nvalue = [0, 3]"] ;
346 -> 348 ;
349 [label="total_session <= 35.5\ngini = 0.1884\nsamples = 19\nvalue = [2, 17]"] ;
345 -> 349 ;
350 [label="purchasing_power <= 3.5\ngini = 0.1172\nsamples = 16\nvalue = [1, 15]"] ;
349 -> 350 ;
351 [label="gini = 0.0\nsamples = 1\nvalue = [1, 0]"] ;
350 -> 351 ;
352 [label="gini = 0.0\nsamples = 15\nvalue = [0, 15]"] ;
350 -> 352 ;
353 [label="user_tendency4 <= 0.2552\ngini = 0.4444\nsamples = 3\nvalue = [1, 2]"] ;
349 -> 353 ;
354 [label="gini = 0.0\nsamples = 2\nvalue = [0, 2]"] ;
353 -> 354 ;
355 [label="gini = 0.0\nsamples = 1\nvalue = [1, 0]"] ;
353 -> 355 ;
356 [label="comic_start <= 7.5\ngini = 0.2112\nsamples = 50\nvalue = [6, 44]"] ;
312 -> 356 ;
357 [label="gini = 0.0\nsamples = 3\nvalue = [3, 0]"] ;
356 -> 357 ;
358 [label="coin_needed <= 1.0\ngini = 0.1195\nsamples = 47\nvalue = [3, 44]"] ;
356 -> 358 ;
359 [label="genre8 <= 0.5\ngini = 0.0832\nsamples = 46\nvalue = [2, 44]"] ;
358 -> 359 ;
360 [label="plat_A <= 0.5\ngini = 0.0435\nsamples = 45\nvalue = [1, 44]"] ;
359 -> 360 ;
361 [label="gini = 0.0\nsamples = 43\nvalue = [0, 43]"] ;
360 -> 361 ;
362 [label="privacy_2 <= 0.5\ngini = 0.5\nsamples = 2\nvalue = [1, 1]"] ;
360 -> 362 ;
363 [label="gini = 0.0\nsamples = 1\nvalue = [1, 0]"] ;
362 -> 363 ;
364 [label="gini = 0.0\nsamples = 1\nvalue = [0, 1]"] ;
362 -> 364 ;
365 [label="gini = 0.0\nsamples = 1\nvalue = [1, 0]"] ;
359 -> 365 ;
366 [label="gini = 0.0\nsamples = 1\nvalue = [1, 0]"] ;
358 -> 366 ;
367 [label="user_tendency3 <= 0.7436\ngini = 0.3855\nsamples = 2738\nvalue = [2024, 714]"] ;
5 -> 367 ;
368 [label="user_tendency14 <= 0.4566\ngini = 0.3495\nsamples = 2504\nvalue = [1939, 565]"] ;
367 -> 368 ;
369 [label="user_tendency13 <= 0.6545\ngini = 0.3036\nsamples = 2277\nvalue = [1852, 425]"] ;
368 -> 369 ;
370 [label="genre8 <= 0.5\ngini = 0.3564\nsamples = 1750\nvalue = [1344, 406]"] ;
369 -> 370 ;
371 [label="user_tendency8 <= 0.2883\ngini = 0.3075\nsamples = 1423\nvalue = [1153, 270]"] ;
370 -> 371 ;
372 [label="comic_start <= 6.5\ngini = 0.4206\nsamples = 695\nvalue = [486, 209]"] ;
371 -> 372 ;
373 [label="genre5 <= 0.5\ngini = 0.3102\nsamples = 422\nvalue = [341, 81]"] ;
372 -> 373 ;
374 [label="user_tendency13 <= 0.2681\ngini = 0.2744\nsamples = 402\nvalue = [336, 66]"] ;
373 -> 374 ;
375 [label="user_tendency3 <= 0.3571\ngini = 0.4841\nsamples = 56\nvalue = [33, 23]"] ;
374 -> 375 ;
376 [label="comic_tag5 <= 0.5\ngini = 0.2975\nsamples = 33\nvalue = [27, 6]"] ;
375 -> 376 ;
377 [label="gini = 0.0\nsamples = 24\nvalue = [24, 0]"] ;
376 -> 377 ;
378 [label="user_tendency13 <= 0.1522\ngini = 0.4444\nsamples = 9\nvalue = [3, 6]"] ;
376 -> 378 ;
379 [label="gini = 0.0\nsamples = 2\nvalue = [2, 0]"] ;
378 -> 379 ;
380 [label="total_session <= 101.5\ngini = 0.2449\nsamples = 7\nvalue = [1, 6]"] ;
378 -> 380 ;
381 [label="gini = 0.0\nsamples = 4\nvalue = [0, 4]"] ;
380 -> 381 ;
382 [label="gini = 0.4444\nsamples = 3\nvalue = [1, 2]"] ;
380 -> 382 ;
383 [label="user_tendency3 <= 0.6186\ngini = 0.3856\nsamples = 23\nvalue = [6, 17]"] ;
375 -> 383 ;
384 [label="last_episode <= 14.5\ngini = 0.1884\nsamples = 19\nvalue = [2, 17]"] ;
383 -> 384 ;
385 [label="gini = 0.0\nsamples = 17\nvalue = [0, 17]"] ;
384 -> 385 ;
386 [label="gini = 0.0\nsamples = 2\nvalue = [2, 0]"] ;
384 -> 386 ;
387 [label="gini = 0.0\nsamples = 4\nvalue = [4, 0]"] ;
383 -> 387 ;
388 [label="total_episode <= 13.5\ngini = 0.2177\nsamples = 346\nvalue = [303, 43]"] ;
374 -> 388 ;
389 [label="purchasing_power <= 7.5\ngini = 0.1346\nsamples = 248\nvalue = [230, 18]"] ;
388 -> 389 ;
390 [label="user_tendency3 <= 0.4219\ngini = 0.0683\nsamples = 226\nvalue = [218, 8]"] ;
389 -> 390 ;
391 [label="total_episode <= 7.5\ngini = 0.0161\nsamples = 123\nvalue = [122, 1]"] ;
390 -> 391 ;
392 [label="gini = 0.375\nsamples = 4\nvalue = [3, 1]"] ;
391 -> 392 ;
393 [label="gini = 0.0\nsamples = 119\nvalue = [119, 0]"] ;
391 -> 393 ;
394 [label="user_tendency3 <= 0.4904\ngini = 0.1267\nsamples = 103\nvalue = [96, 7]"] ;
390 -> 394 ;
395 [label="gini = 0.497\nsamples = 13\nvalue = [7, 6]"] ;
394 -> 395 ;
396 [label="gini = 0.022\nsamples = 90\nvalue = [89, 1]"] ;
394 -> 396 ;
397 [label="user_tendency8 <= 0.0853\ngini = 0.4959\nsamples = 22\nvalue = [12, 10]"] ;
389 -> 397 ;
398 [label="gini = 0.0\nsamples = 9\nvalue = [9, 0]"] ;
397 -> 398 ;
399 [label="genre3 <= 0.5\ngini = 0.355\nsamples = 13\nvalue = [3, 10]"] ;
397 -> 399 ;
400 [label="gini = 0.0\nsamples = 2\nvalue = [2, 0]"] ;
399 -> 400 ;
401 [label="gini = 0.1653\nsamples = 11\nvalue = [1, 10]"] ;
399 -> 401 ;
402 [label="total_session <= 20.5\ngini = 0.38\nsamples = 98\nvalue = [73, 25]"] ;
388 -> 402 ;
403 [label="user_tendency14 <= 0.1609\ngini = 0.4224\nsamples = 33\nvalue = [10, 23]"] ;
402 -> 403 ;
404 [label="gini = 0.0\nsamples = 5\nvalue = [5, 0]"] ;
403 -> 404 ;
405 [label="user_tendency14 <= 0.3137\ngini = 0.2934\nsamples = 28\nvalue = [5, 23]"] ;
403 -> 405 ;
406 [label="gini = 0.0\nsamples = 19\nvalue = [0, 19]"] ;
405 -> 406 ;
407 [label="gini = 0.4938\nsamples = 9\nvalue = [5, 4]"] ;
405 -> 407 ;
408 [label="purchasing_power <= 8.5\ngini = 0.0596\nsamples = 65\nvalue = [63, 2]"] ;
402 -> 408 ;
409 [label="genre1 <= 0.5\ngini = 0.0317\nsamples = 62\nvalue = [61, 1]"] ;
408 -> 409 ;
410 [label="gini = 0.0\nsamples = 58\nvalue = [58, 0]"] ;
409 -> 410 ;
411 [label="gini = 0.375\nsamples = 4\nvalue = [3, 1]"] ;
409 -> 411 ;
412 [label="total_session <= 71.5\ngini = 0.4444\nsamples = 3\nvalue = [2, 1]"] ;
408 -> 412 ;
413 [label="gini = 0.0\nsamples = 2\nvalue = [2, 0]"] ;
412 -> 413 ;
414 [label="gini = 0.0\nsamples = 1\nvalue = [0, 1]"] ;
412 -> 414 ;
415 [label="user_tendency14 <= 0.281\ngini = 0.375\nsamples = 20\nvalue = [5, 15]"] ;
373 -> 415 ;
416 [label="gini = 0.0\nsamples = 3\nvalue = [3, 0]"] ;
415 -> 416 ;
417 [label="purchasing_power <= 6.0\ngini = 0.2076\nsamples = 17\nvalue = [2, 15]"] ;
415 -> 417 ;
418 [label="total_session <= 152.5\ngini = 0.1172\nsamples = 16\nvalue = [1, 15]"] ;
417 -> 418 ;
419 [label="gini = 0.0\nsamples = 15\nvalue = [0, 15]"] ;
418 -> 419 ;
420 [label="gini = 0.0\nsamples = 1\nvalue = [1, 0]"] ;
418 -> 420 ;
421 [label="gini = 0.0\nsamples = 1\nvalue = [1, 0]"] ;
417 -> 421 ;
422 [label="user_tendency3 <= 0.2422\ngini = 0.4981\nsamples = 273\nvalue = [145, 128]"] ;
372 -> 422 ;
423 [label="total_episode <= 7.5\ngini = 0.4937\nsamples = 223\nvalue = [99, 124]"] ;
422 -> 423 ;
424 [label="total_session <= 113.0\ngini = 0.3096\nsamples = 47\nvalue = [38, 9]"] ;
423 -> 424 ;
425 [label="purchasing_power <= 2.0\ngini = 0.0526\nsamples = 37\nvalue = [36, 1]"] ;
424 -> 425 ;
426 [label="last_episode <= 15.5\ngini = 0.5\nsamples = 2\nvalue = [1, 1]"] ;
425 -> 426 ;
427 [label="gini = 0.0\nsamples = 1\nvalue = [1, 0]"] ;
426 -> 427 ;
428 [label="gini = 0.0\nsamples = 1\nvalue = [0, 1]"] ;
426 -> 428 ;
429 [label="gini = 0.0\nsamples = 35\nvalue = [35, 0]"] ;
425 -> 429 ;
430 [label="genre14 <= 0.5\ngini = 0.32\nsamples = 10\nvalue = [2, 8]"] ;
424 -> 430 ;
431 [label="gini = 0.0\nsamples = 2\nvalue = [2, 0]"] ;
430 -> 431 ;
432 [label="gini = 0.0\nsamples = 8\nvalue = [0, 8]"] ;
430 -> 432 ;
433 [label="plat_B <= 0.5\ngini = 0.4529\nsamples = 176\nvalue = [61, 115]"] ;
423 -> 433 ;
434 [label="total_episode <= 19.0\ngini = 0.3389\nsamples = 37\nvalue = [29, 8]"] ;
433 -> 434 ;
435 [label="total_session <= 1.5\ngini = 0.2509\nsamples = 34\nvalue = [29, 5]"] ;
434 -> 435 ;
436 [label="genre6 <= 0.5\ngini = 0.5\nsamples = 6\nvalue = [3, 3]"] ;
435 -> 436 ;
437 [label="gini = 0.0\nsamples = 3\nvalue = [0, 3]"] ;
436 -> 437 ;
438 [label="gini = 0.0\nsamples = 3\nvalue = [3, 0]"] ;
436 -> 438 ;
439 [label="user_tendency14 <= 0.4248\ngini = 0.1327\nsamples = 28\nvalue = [26, 2]"] ;
435 -> 439 ;
440 [label="gini = 0.0\nsamples = 21\nvalue = [21, 0]"] ;
439 -> 440 ;
441 [label="gini = 0.4082\nsamples = 7\nvalue = [5, 2]"] ;
439 -> 441 ;
442 [label="gini = 0.0\nsamples = 3\nvalue = [0, 3]"] ;
434 -> 442 ;
443 [label="user_tendency14 <= 0.383\ngini = 0.3544\nsamples = 139\nvalue = [32, 107]"] ;
433 -> 443 ;
444 [label="user_tendency8 <= 0.2524\ngini = 0.2832\nsamples = 123\nvalue = [21, 102]"] ;
443 -> 444 ;
445 [label="total_session <= 249.0\ngini = 0.2647\nsamples = 121\nvalue = [19, 102]"] ;
444 -> 445 ;
446 [label="gini = 0.2449\nsamples = 119\nvalue = [17, 102]"] ;
445 -> 446 ;
447 [label="gini = 0.0\nsamples = 2\nvalue = [2, 0]"] ;
445 -> 447 ;
448 [label="gini = 0.0\nsamples = 2\nvalue = [2, 0]"] ;
444 -> 448 ;
449 [label="user_tendency13 <= 0.4984\ngini = 0.4297\nsamples = 16\nvalue = [11, 5]"] ;
443 -> 449 ;
450 [label="genre6 <= 0.5\ngini = 0.4082\nsamples = 7\nvalue = [2, 5]"] ;
449 -> 450 ;
451 [label="gini = 0.2778\nsamples = 6\nvalue = [1, 5]"] ;
450 -> 451 ;
452 [label="gini = 0.0\nsamples = 1\nvalue = [1, 0]"] ;
450 -> 452 ;
453 [label="gini = 0.0\nsamples = 9\nvalue = [9, 0]"] ;
449 -> 453 ;
454 [label="user_tendency14 <= 0.1236\ngini = 0.1472\nsamples = 50\nvalue = [46, 4]"] ;
422 -> 454 ;
455 [label="total_session <= 111.0\ngini = 0.05\nsamples = 39\nvalue = [38, 1]"] ;
454 -> 455 ;
456 [label="gini = 0.0\nsamples = 32\nvalue = [32, 0]"] ;
455 -> 456 ;
457 [label="privacy_2 <= 0.5\ngini = 0.2449\nsamples = 7\nvalue = [6, 1]"] ;
455 -> 457 ;
458 [label="gini = 0.0\nsamples = 6\nvalue = [6, 0]"] ;
457 -> 458 ;
459 [label="gini = 0.0\nsamples = 1\nvalue = [0, 1]"] ;
457 -> 459 ;
460 [label="total_session <= 25.5\ngini = 0.3967\nsamples = 11\nvalue = [8, 3]"] ;
454 -> 460 ;
461 [label="user_tendency3 <= 0.3397\ngini = 0.375\nsamples = 4\nvalue = [1, 3]"] ;
460 -> 461 ;
462 [label="gini = 0.0\nsamples = 1\nvalue = [1, 0]"] ;
461 -> 462 ;
463 [label="gini = 0.0\nsamples = 3\nvalue = [0, 3]"] ;
461 -> 463 ;
464 [label="gini = 0.0\nsamples = 7\nvalue = [7, 0]"] ;
460 -> 464 ;
465 [label="total_session <= 1.5\ngini = 0.1535\nsamples = 728\nvalue = [667, 61]"] ;
371 -> 465 ;
466 [label="schedule8 <= 0.5\ngini = 0.48\nsamples = 40\nvalue = [24, 16]"] ;
465 -> 466 ;
467 [label="user_tendency14 <= 0.4441\ngini = 0.1472\nsamples = 25\nvalue = [23, 2]"] ;
466 -> 467 ;
468 [label="gini = 0.0\nsamples = 23\nvalue = [23, 0]"] ;
467 -> 468 ;
469 [label="gini = 0.0\nsamples = 2\nvalue = [0, 2]"] ;
467 -> 469 ;
470 [label="total_episode <= 8.0\ngini = 0.1244\nsamples = 15\nvalue = [1, 14]"] ;
466 -> 470 ;
471 [label="gini = 0.0\nsamples = 1\nvalue = [1, 0]"] ;
470 -> 471 ;
472 [label="gini = 0.0\nsamples = 14\nvalue = [0, 14]"] ;
470 -> 472 ;
473 [label="schedule3 <= 0.5\ngini = 0.1223\nsamples = 688\nvalue = [643, 45]"] ;
465 -> 473 ;
474 [label="user_tendency8 <= 0.4156\ngini = 0.0987\nsamples = 653\nvalue = [619, 34]"] ;
473 -> 474 ;
475 [label="user_tendency8 <= 0.415\ngini = 0.2695\nsamples = 162\nvalue = [136, 26]"] ;
474 -> 475 ;
476 [label="total_episode <= 12.5\ngini = 0.2064\nsamples = 154\nvalue = [136, 18]"] ;
475 -> 476 ;
477 [label="last_episode <= 8.5\ngini = 0.0208\nsamples = 95\nvalue = [94, 1]"] ;
476 -> 477 ;
478 [label="purchasing_power <= 7.5\ngini = 0.4444\nsamples = 3\nvalue = [2, 1]"] ;
477 -> 478 ;
479 [label="gini = 0.0\nsamples = 2\nvalue = [2, 0]"] ;
478 -> 479 ;
480 [label="gini = 0.0\nsamples = 1\nvalue = [0, 1]"] ;
478 -> 480 ;
481 [label="gini = 0.0\nsamples = 92\nvalue = [92, 0]"] ;
477 -> 481 ;
482 [label="purchasing_power <= 3.5\ngini = 0.4102\nsamples = 59\nvalue = [42, 17]"] ;
476 -> 482 ;
483 [label="total_session <= 23.5\ngini = 0.4592\nsamples = 14\nvalue = [5, 9]"] ;
482 -> 483 ;
484 [label="gini = 0.0\nsamples = 8\nvalue = [0, 8]"] ;
483 -> 484 ;
485 [label="gini = 0.2778\nsamples = 6\nvalue = [5, 1]"] ;
483 -> 485 ;
486 [label="user_tendency14 <= 0.2954\ngini = 0.2923\nsamples = 45\nvalue = [37, 8]"] ;
482 -> 486 ;
487 [label="gini = 0.1107\nsamples = 34\nvalue = [32, 2]"] ;
486 -> 487 ;
488 [label="gini = 0.4959\nsamples = 11\nvalue = [5, 6]"] ;
486 -> 488 ;
489 [label="gini = 0.0\nsamples = 8\nvalue = [0, 8]"] ;
475 -> 489 ;
490 [label="purchasing_power <= 2.5\ngini = 0.0321\nsamples = 491\nvalue = [483, 8]"] ;
474 -> 490 ;
491 [label="user_tendency14 <= 0.3105\ngini = 0.3047\nsamples = 16\nvalue = [13, 3]"] ;
490 -> 491 ;
492 [label="gini = 0.0\nsamples = 11\nvalue = [11, 0]"] ;
491 -> 492 ;
493 [label="total_session <= 36.5\ngini = 0.48\nsamples = 5\nvalue = [2, 3]"] ;
491 -> 493 ;
494 [label="gini = 0.0\nsamples = 2\nvalue = [2, 0]"] ;
493 -> 494 ;
495 [label="gini = 0.0\nsamples = 3\nvalue = [0, 3]"] ;
493 -> 495 ;
496 [label="genre10 <= 0.5\ngini = 0.0208\nsamples = 475\nvalue = [470, 5]"] ;
490 -> 496 ;
497 [label="last_episode <= 11.5\ngini = 0.0168\nsamples = 472\nvalue = [468, 4]"] ;
496 -> 497 ;
498 [label="total_session <= 73.5\ngini = 0.0754\nsamples = 102\nvalue = [98, 4]"] ;
497 -> 498 ;
499 [label="gini = 0.0278\nsamples = 71\nvalue = [70, 1]"] ;
498 -> 499 ;
500 [label="gini = 0.1748\nsamples = 31\nvalue = [28, 3]"] ;
498 -> 500 ;
501 [label="gini = 0.0\nsamples = 370\nvalue = [370, 0]"] ;
497 -> 501 ;
502 [label="plat_A <= 0.5\ngini = 0.4444\nsamples = 3\nvalue = [2, 1]"] ;
496 -> 502 ;
503 [label="gini = 0.0\nsamples = 2\nvalue = [2, 0]"] ;
502 -> 503 ;
504 [label="gini = 0.0\nsamples = 1\nvalue = [0, 1]"] ;
502 -> 504 ;
505 [label="plat_D <= 0.5\ngini = 0.431\nsamples = 35\nvalue = [24, 11]"] ;
473 -> 505 ;
506 [label="user_tendency4 <= 0.0247\ngini = 0.3496\nsamples = 31\nvalue = [24, 7]"] ;
505 -> 506 ;
507 [label="user_tendency8 <= 0.3405\ngini = 0.1528\nsamples = 24\nvalue = [22, 2]"] ;
506 -> 507 ;
508 [label="user_tendency13 <= 0.3055\ngini = 0.5\nsamples = 2\nvalue = [1, 1]"] ;
507 -> 508 ;
509 [label="gini = 0.0\nsamples = 1\nvalue = [1, 0]"] ;
508 -> 509 ;
510 [label="gini = 0.0\nsamples = 1\nvalue = [0, 1]"] ;
508 -> 510 ;
511 [label="user_tendency14 <= 0.4214\ngini = 0.0868\nsamples = 22\nvalue = [21, 1]"] ;
507 -> 511 ;
512 [label="gini = 0.0\nsamples = 19\nvalue = [19, 0]"] ;
511 -> 512 ;
513 [label="total_session <= 22.0\ngini = 0.4444\nsamples = 3\nvalue = [2, 1]"] ;
511 -> 513 ;
514 [label="gini = 0.0\nsamples = 2\nvalue = [2, 0]"] ;
513 -> 514 ;
515 [label="gini = 0.0\nsamples = 1\nvalue = [0, 1]"] ;
513 -> 515 ;
516 [label="total_session <= 37.5\ngini = 0.4082\nsamples = 7\nvalue = [2, 5]"] ;
506 -> 516 ;
517 [label="gini = 0.0\nsamples = 4\nvalue = [0, 4]"] ;
516 -> 517 ;
518 [label="user_tendency8 <= 0.5661\ngini = 0.4444\nsamples = 3\nvalue = [2, 1]"] ;
516 -> 518 ;
519 [label="gini = 0.0\nsamples = 2\nvalue = [2, 0]"] ;
518 -> 519 ;
520 [label="gini = 0.0\nsamples = 1\nvalue = [0, 1]"] ;
518 -> 520 ;
521 [label="gini = 0.0\nsamples = 4\nvalue = [0, 4]"] ;
505 -> 521 ;
522 [label="user_tendency8 <= 0.1998\ngini = 0.4859\nsamples = 327\nvalue = [191, 136]"] ;
370 -> 522 ;
523 [label="user_tendency13 <= 0.2602\ngini = 0.1049\nsamples = 72\nvalue = [68, 4]"] ;
522 -> 523 ;
524 [label="user_tendency8 <= 0.1113\ngini = 0.48\nsamples = 5\nvalue = [3, 2]"] ;
523 -> 524 ;
525 [label="gini = 0.0\nsamples = 3\nvalue = [3, 0]"] ;
524 -> 525 ;
526 [label="gini = 0.0\nsamples = 2\nvalue = [0, 2]"] ;
524 -> 526 ;
527 [label="user_tendency13 <= 0.651\ngini = 0.0579\nsamples = 67\nvalue = [65, 2]"] ;
523 -> 527 ;
528 [label="comic_start <= 4.5\ngini = 0.0303\nsamples = 65\nvalue = [64, 1]"] ;
527 -> 528 ;
529 [label="purchasing_power <= 6.5\ngini = 0.4444\nsamples = 3\nvalue = [2, 1]"] ;
528 -> 529 ;
530 [label="gini = 0.0\nsamples = 2\nvalue = [2, 0]"] ;
529 -> 530 ;
531 [label="gini = 0.0\nsamples = 1\nvalue = [0, 1]"] ;
529 -> 531 ;
532 [label="gini = 0.0\nsamples = 62\nvalue = [62, 0]"] ;
528 -> 532 ;
533 [label="schedule2 <= 0.5\ngini = 0.5\nsamples = 2\nvalue = [1, 1]"] ;
527 -> 533 ;
534 [label="gini = 0.0\nsamples = 1\nvalue = [0, 1]"] ;
533 -> 534 ;
535 [label="gini = 0.0\nsamples = 1\nvalue = [1, 0]"] ;
533 -> 535 ;
536 [label="user_tendency14 <= 0.2961\ngini = 0.4994\nsamples = 255\nvalue = [123, 132]"] ;
522 -> 536 ;
537 [label="user_tendency8 <= 0.5324\ngini = 0.4859\nsamples = 226\nvalue = [94, 132]"] ;
536 -> 537 ;
538 [label="user_tendency14 <= 0.0755\ngini = 0.483\nsamples = 103\nvalue = [61, 42]"] ;
537 -> 538 ;
539 [label="purchasing_power <= 2.5\ngini = 0.2778\nsamples = 54\nvalue = [45, 9]"] ;
538 -> 539 ;
540 [label="gini = 0.0\nsamples = 2\nvalue = [0, 2]"] ;
539 -> 540 ;
541 [label="user_tendency9 <= 0.0891\ngini = 0.233\nsamples = 52\nvalue = [45, 7]"] ;
539 -> 541 ;
542 [label="total_session <= 593.5\ngini = 0.18\nsamples = 50\nvalue = [45, 5]"] ;
541 -> 542 ;
543 [label="user_tendency4 <= 0.2354\ngini = 0.1172\nsamples = 48\nvalue = [45, 3]"] ;
542 -> 543 ;
544 [label="gini = 0.0832\nsamples = 46\nvalue = [44, 2]"] ;
543 -> 544 ;
545 [label="gini = 0.5\nsamples = 2\nvalue = [1, 1]"] ;
543 -> 545 ;
546 [label="gini = 0.0\nsamples = 2\nvalue = [0, 2]"] ;
542 -> 546 ;
547 [label="gini = 0.0\nsamples = 2\nvalue = [0, 2]"] ;
541 -> 547 ;
548 [label="schedule3 <= 0.5\ngini = 0.4398\nsamples = 49\nvalue = [16, 33]"] ;
538 -> 548 ;
549 [label="user_tendency8 <= 0.2129\ngini = 0.48\nsamples = 20\nvalue = [12, 8]"] ;
548 -> 549 ;
550 [label="gini = 0.0\nsamples = 3\nvalue = [0, 3]"] ;
549 -> 550 ;
551 [label="user_tendency4 <= 0.2014\ngini = 0.4152\nsamples = 17\nvalue = [12, 5]"] ;
549 -> 551 ;
552 [label="total_session <= 165.0\ngini = 0.32\nsamples = 15\nvalue = [12, 3]"] ;
551 -> 552 ;
553 [label="gini = 0.2449\nsamples = 14\nvalue = [12, 2]"] ;
552 -> 553 ;
554 [label="gini = 0.0\nsamples = 1\nvalue = [0, 1]"] ;
552 -> 554 ;
555 [label="gini = 0.0\nsamples = 2\nvalue = [0, 2]"] ;
551 -> 555 ;
556 [label="total_session <= 319.5\ngini = 0.2378\nsamples = 29\nvalue = [4, 25]"] ;
548 -> 556 ;
557 [label="user_tendency13 <= 0.5902\ngini = 0.1913\nsamples = 28\nvalue = [3, 25]"] ;
556 -> 557 ;
558 [label="user_tendency8 <= 0.2424\ngini = 0.355\nsamples = 13\nvalue = [3, 10]"] ;
557 -> 558 ;
559 [label="gini = 0.0\nsamples = 1\nvalue = [1, 0]"] ;
558 -> 559 ;
560 [label="gini = 0.2778\nsamples = 12\nvalue = [2, 10]"] ;
558 -> 560 ;
561 [label="gini = 0.0\nsamples = 15\nvalue = [0, 15]"] ;
557 -> 561 ;
562 [label="gini = 0.0\nsamples = 1\nvalue = [1, 0]"] ;
556 -> 562 ;
563 [label="user_tendency8 <= 0.6158\ngini = 0.3926\nsamples = 123\nvalue = [33, 90]"] ;
537 -> 563 ;
564 [label="user_tendency1 <= 0.2524\ngini = 0.32\nsamples = 110\nvalue = [22, 88]"] ;
563 -> 564 ;
565 [label="user_tendency8 <= 0.6055\ngini = 0.2921\nsamples = 107\nvalue = [19, 88]"] ;
564 -> 565 ;
566 [label="user_tendency8 <= 0.575\ngini = 0.3851\nsamples = 73\nvalue = [19, 54]"] ;
565 -> 566 ;
567 [label="plat_B <= 0.5\ngini = 0.3163\nsamples = 66\nvalue = [13, 53]"] ;
566 -> 567 ;
568 [label="gini = 0.48\nsamples = 15\nvalue = [6, 9]"] ;
567 -> 568 ;
569 [label="gini = 0.2368\nsamples = 51\nvalue = [7, 44]"] ;
567 -> 569 ;
570 [label="total_session <= 86.0\ngini = 0.2449\nsamples = 7\nvalue = [6, 1]"] ;
566 -> 570 ;
571 [label="gini = 0.0\nsamples = 5\nvalue = [5, 0]"] ;
570 -> 571 ;
572 [label="gini = 0.5\nsamples = 2\nvalue = [1, 1]"] ;
570 -> 572 ;
573 [label="gini = 0.0\nsamples = 34\nvalue = [0, 34]"] ;
565 -> 573 ;
574 [label="gini = 0.0\nsamples = 3\nvalue = [3, 0]"] ;
564 -> 574 ;
575 [label="purchasing_power <= 7.5\ngini = 0.2604\nsamples = 13\nvalue = [11, 2]"] ;
563 -> 575 ;
576 [label="gini = 0.0\nsamples = 11\nvalue = [11, 0]"] ;
575 -> 576 ;
577 [label="gini = 0.0\nsamples = 2\nvalue = [0, 2]"] ;
575 -> 577 ;
578 [label="gini = 0.0\nsamples = 29\nvalue = [29, 0]"] ;
536 -> 578 ;
579 [label="schedule3 <= 0.5\ngini = 0.0695\nsamples = 527\nvalue = [508, 19]"] ;
369 -> 579 ;
580 [label="plat_C <= 0.5\ngini = 0.052\nsamples = 487\nvalue = [474, 13]"] ;
579 -> 580 ;
581 [label="comic_start <= 15.5\ngini = 0.045\nsamples = 478\nvalue = [467, 11]"] ;
580 -> 581 ;
582 [label="genre15 <= 0.5\ngini = 0.0376\nsamples = 469\nvalue = [460, 9]"] ;
581 -> 582 ;
583 [label="user_tendency14 <= 0.3184\ngini = 0.012\nsamples = 330\nvalue = [328, 2]"] ;
582 -> 583 ;
584 [label="schedule8 <= 0.5\ngini = 0.0064\nsamples = 312\nvalue = [311, 1]"] ;
583 -> 584 ;
585 [label="gini = 0.0\nsamples = 281\nvalue = [281, 0]"] ;
584 -> 585 ;
586 [label="privacy_2 <= 0.5\ngini = 0.0624\nsamples = 31\nvalue = [30, 1]"] ;
584 -> 586 ;
587 [label="gini = 0.0\nsamples = 24\nvalue = [24, 0]"] ;
586 -> 587 ;
588 [label="purchasing_power <= 5.5\ngini = 0.2449\nsamples = 7\nvalue = [6, 1]"] ;
586 -> 588 ;
589 [label="purchasing_power <= 4.0\ngini = 0.4444\nsamples = 3\nvalue = [2, 1]"] ;
588 -> 589 ;
590 [label="gini = 0.0\nsamples = 2\nvalue = [2, 0]"] ;
589 -> 590 ;
591 [label="gini = 0.0\nsamples = 1\nvalue = [0, 1]"] ;
589 -> 591 ;
592 [label="gini = 0.0\nsamples = 4\nvalue = [4, 0]"] ;
588 -> 592 ;
593 [label="total_session <= 136.5\ngini = 0.1049\nsamples = 18\nvalue = [17, 1]"] ;
583 -> 593 ;
594 [label="gini = 0.0\nsamples = 16\nvalue = [16, 0]"] ;
593 -> 594 ;
595 [label="total_session <= 192.5\ngini = 0.5\nsamples = 2\nvalue = [1, 1]"] ;
593 -> 595 ;
596 [label="gini = 0.0\nsamples = 1\nvalue = [0, 1]"] ;
595 -> 596 ;
597 [label="gini = 0.0\nsamples = 1\nvalue = [1, 0]"] ;
595 -> 597 ;
598 [label="purchasing_power <= 6.5\ngini = 0.0956\nsamples = 139\nvalue = [132, 7]"] ;
582 -> 598 ;
599 [label="user_tendency13 <= 0.7658\ngini = 0.037\nsamples = 106\nvalue = [104, 2]"] ;
598 -> 599 ;
600 [label="gini = 0.0\nsamples = 76\nvalue = [76, 0]"] ;
599 -> 600 ;
601 [label="user_tendency13 <= 0.7706\ngini = 0.1244\nsamples = 30\nvalue = [28, 2]"] ;
599 -> 601 ;
602 [label="coin_needed <= 1.0\ngini = 0.4444\nsamples = 3\nvalue = [1, 2]"] ;
601 -> 602 ;
603 [label="gini = 0.0\nsamples = 1\nvalue = [1, 0]"] ;
602 -> 603 ;
604 [label="gini = 0.0\nsamples = 2\nvalue = [0, 2]"] ;
602 -> 604 ;
605 [label="gini = 0.0\nsamples = 27\nvalue = [27, 0]"] ;
601 -> 605 ;
606 [label="user_tendency14 <= 0.3086\ngini = 0.2571\nsamples = 33\nvalue = [28, 5]"] ;
598 -> 606 ;
607 [label="plat_D <= 0.5\ngini = 0.18\nsamples = 30\nvalue = [27, 3]"] ;
606 -> 607 ;
608 [label="plat_B <= 0.5\ngini = 0.1284\nsamples = 29\nvalue = [27, 2]"] ;
607 -> 608 ;
609 [label="total_episode <= 11.5\ngini = 0.2449\nsamples = 14\nvalue = [12, 2]"] ;
608 -> 609 ;
610 [label="gini = 0.0\nsamples = 8\nvalue = [8, 0]"] ;
609 -> 610 ;
611 [label="gini = 0.4444\nsamples = 6\nvalue = [4, 2]"] ;
609 -> 611 ;
612 [label="gini = 0.0\nsamples = 15\nvalue = [15, 0]"] ;
608 -> 612 ;
613 [label="gini = 0.0\nsamples = 1\nvalue = [0, 1]"] ;
607 -> 613 ;
614 [label="last_episode <= 12.0\ngini = 0.4444\nsamples = 3\nvalue = [1, 2]"] ;
606 -> 614 ;
615 [label="gini = 0.0\nsamples = 1\nvalue = [1, 0]"] ;
614 -> 615 ;
616 [label="gini = 0.0\nsamples = 2\nvalue = [0, 2]"] ;
614 -> 616 ;
617 [label="user_tendency13 <= 0.7312\ngini = 0.3457\nsamples = 9\nvalue = [7, 2]"] ;
581 -> 617 ;
618 [label="user_tendency13 <= 0.6849\ngini = 0.5\nsamples = 4\nvalue = [2, 2]"] ;
617 -> 618 ;
619 [label="gini = 0.0\nsamples = 1\nvalue = [1, 0]"] ;
618 -> 619 ;
620 [label="total_session <= 26.0\ngini = 0.4444\nsamples = 3\nvalue = [1, 2]"] ;
618 -> 620 ;
621 [label="gini = 0.0\nsamples = 1\nvalue = [1, 0]"] ;
620 -> 621 ;
622 [label="gini = 0.0\nsamples = 2\nvalue = [0, 2]"] ;
620 -> 622 ;
623 [label="gini = 0.0\nsamples = 5\nvalue = [5, 0]"] ;
617 -> 623 ;
624 [label="user_tendency13 <= 0.6943\ngini = 0.3457\nsamples = 9\nvalue = [7, 2]"] ;
580 -> 624 ;
625 [label="gini = 0.0\nsamples = 2\nvalue = [0, 2]"] ;
624 -> 625 ;
626 [label="gini = 0.0\nsamples = 7\nvalue = [7, 0]"] ;
624 -> 626 ;
627 [label="user_tendency14 <= 0.2079\ngini = 0.255\nsamples = 40\nvalue = [34, 6]"] ;
579 -> 627 ;
628 [label="purchasing_power <= 6.5\ngini = 0.48\nsamples = 15\nvalue = [9, 6]"] ;
627 -> 628 ;
629 [label="user_tendency8 <= 0.1658\ngini = 0.2188\nsamples = 8\nvalue = [7, 1]"] ;
628 -> 629 ;
630 [label="gini = 0.0\nsamples = 7\nvalue = [7, 0]"] ;
629 -> 630 ;
631 [label="gini = 0.0\nsamples = 1\nvalue = [0, 1]"] ;
629 -> 631 ;
632 [label="genre7 <= 0.5\ngini = 0.4082\nsamples = 7\nvalue = [2, 5]"] ;
628 -> 632 ;
633 [label="gini = 0.0\nsamples = 4\nvalue = [0, 4]"] ;
632 -> 633 ;
634 [label="total_session <= 32.5\ngini = 0.4444\nsamples = 3\nvalue = [2, 1]"] ;
632 -> 634 ;
635 [label="gini = 0.0\nsamples = 1\nvalue = [1, 0]"] ;
634 -> 635 ;
636 [label="user_tendency14 <= 0.1777\ngini = 0.5\nsamples = 2\nvalue = [1, 1]"] ;
634 -> 636 ;
637 [label="gini = 0.0\nsamples = 1\nvalue = [1, 0]"] ;
636 -> 637 ;
638 [label="gini = 0.0\nsamples = 1\nvalue = [0, 1]"] ;
636 -> 638 ;
639 [label="gini = 0.0\nsamples = 25\nvalue = [25, 0]"] ;
627 -> 639 ;
640 [label="user_tendency13 <= 0.5346\ngini = 0.4727\nsamples = 227\nvalue = [87, 140]"] ;
368 -> 640 ;
641 [label="schedule7 <= 0.5\ngini = 0.3783\nsamples = 75\nvalue = [56, 19]"] ;
640 -> 641 ;
642 [label="gini = 0.0\nsamples = 50\nvalue = [50, 0]"] ;
641 -> 642 ;
643 [label="user_tendency14 <= 0.4794\ngini = 0.3648\nsamples = 25\nvalue = [6, 19]"] ;
641 -> 643 ;
644 [label="gini = 0.0\nsamples = 3\nvalue = [3, 0]"] ;
643 -> 644 ;
645 [label="total_session <= 107.5\ngini = 0.2355\nsamples = 22\nvalue = [3, 19]"] ;
643 -> 645 ;
646 [label="purchasing_power <= 3.5\ngini = 0.095\nsamples = 20\nvalue = [1, 19]"] ;
645 -> 646 ;
647 [label="total_session <= 9.0\ngini = 0.4444\nsamples = 3\nvalue = [1, 2]"] ;
646 -> 647 ;
648 [label="gini = 0.0\nsamples = 1\nvalue = [1, 0]"] ;
647 -> 648 ;
649 [label="gini = 0.0\nsamples = 2\nvalue = [0, 2]"] ;
647 -> 649 ;
650 [label="gini = 0.0\nsamples = 17\nvalue = [0, 17]"] ;
646 -> 650 ;
651 [label="gini = 0.0\nsamples = 2\nvalue = [2, 0]"] ;
645 -> 651 ;
652 [label="plat_D <= 0.5\ngini = 0.3247\nsamples = 152\nvalue = [31, 121]"] ;
640 -> 652 ;
653 [label="purchasing_power <= 7.5\ngini = 0.3052\nsamples = 149\nvalue = [28, 121]"] ;
652 -> 653 ;
654 [label="total_session <= 100.5\ngini = 0.2778\nsamples = 144\nvalue = [24, 120]"] ;
653 -> 654 ;
655 [label="genre16 <= 0.5\ngini = 0.2232\nsamples = 125\nvalue = [16, 109]"] ;
654 -> 655 ;
656 [label="genre13 <= 0.5\ngini = 0.2017\nsamples = 123\nvalue = [14, 109]"] ;
655 -> 656 ;
657 [label="comic_tag1 <= 0.5\ngini = 0.1787\nsamples = 121\nvalue = [12, 109]"] ;
656 -> 657 ;
658 [label="schedule3 <= 0.5\ngini = 0.1665\nsamples = 120\nvalue = [11, 109]"] ;
657 -> 658 ;
659 [label="plat_A <= 0.5\ngini = 0.1539\nsamples = 119\nvalue = [10, 109]"] ;
658 -> 659 ;
660 [label="total_session <= 25.5\ngini = 0.0731\nsamples = 79\nvalue = [3, 76]"] ;
659 -> 660 ;
661 [label="gini = 0.0\nsamples = 34\nvalue = [0, 34]"] ;
660 -> 661 ;
662 [label="gini = 0.1244\nsamples = 45\nvalue = [3, 42]"] ;
660 -> 662 ;
663 [label="total_session <= 20.0\ngini = 0.2887\nsamples = 40\nvalue = [7, 33]"] ;
659 -> 663 ;
664 [label="gini = 0.1975\nsamples = 36\nvalue = [4, 32]"] ;
663 -> 664 ;
665 [label="gini = 0.375\nsamples = 4\nvalue = [3, 1]"] ;
663 -> 665 ;
666 [label="gini = 0.0\nsamples = 1\nvalue = [1, 0]"] ;
658 -> 666 ;
667 [label="gini = 0.0\nsamples = 1\nvalue = [1, 0]"] ;
657 -> 667 ;
668 [label="gini = 0.0\nsamples = 2\nvalue = [2, 0]"] ;
656 -> 668 ;
669 [label="gini = 0.0\nsamples = 2\nvalue = [2, 0]"] ;
655 -> 669 ;
670 [label="total_session <= 245.5\ngini = 0.4875\nsamples = 19\nvalue = [8, 11]"] ;
654 -> 670 ;
671 [label="purchasing_power <= 4.5\ngini = 0.3967\nsamples = 11\nvalue = [8, 3]"] ;
670 -> 671 ;
672 [label="purchasing_power <= 3.5\ngini = 0.4444\nsamples = 3\nvalue = [1, 2]"] ;
671 -> 672 ;
673 [label="gini = 0.0\nsamples = 1\nvalue = [1, 0]"] ;
672 -> 673 ;
674 [label="gini = 0.0\nsamples = 2\nvalue = [0, 2]"] ;
672 -> 674 ;
675 [label="total_session <= 214.5\ngini = 0.2188\nsamples = 8\nvalue = [7, 1]"] ;
671 -> 675 ;
676 [label="gini = 0.0\nsamples = 6\nvalue = [6, 0]"] ;
675 -> 676 ;
677 [label="plat_C <= 0.5\ngini = 0.5\nsamples = 2\nvalue = [1, 1]"] ;
675 -> 677 ;
678 [label="gini = 0.0\nsamples = 1\nvalue = [0, 1]"] ;
677 -> 678 ;
679 [label="gini = 0.0\nsamples = 1\nvalue = [1, 0]"] ;
677 -> 679 ;
680 [label="gini = 0.0\nsamples = 8\nvalue = [0, 8]"] ;
670 -> 680 ;
681 [label="total_session <= 108.0\ngini = 0.32\nsamples = 5\nvalue = [4, 1]"] ;
653 -> 681 ;
682 [label="gini = 0.0\nsamples = 4\nvalue = [4, 0]"] ;
681 -> 682 ;
683 [label="gini = 0.0\nsamples = 1\nvalue = [0, 1]"] ;
681 -> 683 ;
684 [label="gini = 0.0\nsamples = 3\nvalue = [3, 0]"] ;
652 -> 684 ;
685 [label="genre3 <= 0.5\ngini = 0.4626\nsamples = 234\nvalue = [85, 149]"] ;
367 -> 685 ;
686 [label="gini = 0.0\nsamples = 30\nvalue = [30, 0]"] ;
685 -> 686 ;
687 [label="total_session <= 16.5\ngini = 0.3938\nsamples = 204\nvalue = [55, 149]"] ;
685 -> 687 ;
688 [label="comic_start <= 5.0\ngini = 0.2596\nsamples = 137\nvalue = [21, 116]"] ;
687 -> 688 ;
689 [label="plat_C <= 0.5\ngini = 0.2419\nsamples = 135\nvalue = [19, 116]"] ;
688 -> 689 ;
690 [label="user_tendency13 <= 0.106\ngini = 0.2326\nsamples = 134\nvalue = [18, 116]"] ;
689 -> 690 ;
691 [label="gini = 0.0\nsamples = 1\nvalue = [1, 0]"] ;
690 -> 691 ;
692 [label="purchasing_power <= 5.5\ngini = 0.223\nsamples = 133\nvalue = [17, 116]"] ;
690 -> 692 ;
693 [label="total_session <= 6.0\ngini = 0.3047\nsamples = 64\nvalue = [12, 52]"] ;
692 -> 693 ;
694 [label="user_tendency3 <= 0.8439\ngini = 0.162\nsamples = 45\nvalue = [4, 41]"] ;
693 -> 694 ;
695 [label="purchasing_power <= 4.5\ngini = 0.1271\nsamples = 44\nvalue = [3, 41]"] ;
694 -> 695 ;
696 [label="privacy_2 <= 0.5\ngini = 0.0973\nsamples = 39\nvalue = [2, 37]"] ;
695 -> 696 ;
697 [label="comic_start <= 3.5\ngini = 0.1284\nsamples = 29\nvalue = [2, 27]"] ;
696 -> 697 ;
698 [label="gini = 0.375\nsamples = 4\nvalue = [1, 3]"] ;
697 -> 698 ;
699 [label="gini = 0.0768\nsamples = 25\nvalue = [1, 24]"] ;
697 -> 699 ;
700 [label="gini = 0.0\nsamples = 10\nvalue = [0, 10]"] ;
696 -> 700 ;
701 [label="plat_B <= 0.5\ngini = 0.32\nsamples = 5\nvalue = [1, 4]"] ;
695 -> 701 ;
702 [label="gini = 0.0\nsamples = 1\nvalue = [0, 1]"] ;
701 -> 702 ;
703 [label="gini = 0.375\nsamples = 4\nvalue = [1, 3]"] ;
701 -> 703 ;
704 [label="gini = 0.0\nsamples = 1\nvalue = [1, 0]"] ;
694 -> 704 ;
705 [label="total_session <= 15.0\ngini = 0.4875\nsamples = 19\nvalue = [8, 11]"] ;
693 -> 705 ;
706 [label="total_episode <= 8.5\ngini = 0.2188\nsamples = 8\nvalue = [7, 1]"] ;
705 -> 706 ;
707 [label="gini = 0.0\nsamples = 6\nvalue = [6, 0]"] ;
706 -> 707 ;
708 [label="gini = 0.5\nsamples = 2\nvalue = [1, 1]"] ;
706 -> 708 ;
709 [label="plat_B <= 0.5\ngini = 0.1653\nsamples = 11\nvalue = [1, 10]"] ;
705 -> 709 ;
710 [label="gini = 0.0\nsamples = 1\nvalue = [1, 0]"] ;
709 -> 710 ;
711 [label="gini = 0.0\nsamples = 10\nvalue = [0, 10]"] ;
709 -> 711 ;
712 [label="total_session <= 1.5\ngini = 0.1344\nsamples = 69\nvalue = [5, 64]"] ;
692 -> 712 ;
713 [label="privacy_2 <= 0.5\ngini = 0.5\nsamples = 6\nvalue = [3, 3]"] ;
712 -> 713 ;
714 [label="gini = 0.0\nsamples = 1\nvalue = [1, 0]"] ;
713 -> 714 ;
715 [label="last_episode <= 11.5\ngini = 0.48\nsamples = 5\nvalue = [2, 3]"] ;
713 -> 715 ;
716 [label="gini = 0.4444\nsamples = 3\nvalue = [1, 2]"] ;
715 -> 716 ;
717 [label="gini = 0.5\nsamples = 2\nvalue = [1, 1]"] ;
715 -> 717 ;
718 [label="user_tendency3 <= 0.8751\ngini = 0.0615\nsamples = 63\nvalue = [2, 61]"] ;
712 -> 718 ;
719 [label="user_tendency3 <= 0.8246\ngini = 0.0317\nsamples = 62\nvalue = [1, 61]"] ;
718 -> 719 ;
720 [label="purchasing_power <= 7.5\ngini = 0.32\nsamples = 5\nvalue = [1, 4]"] ;
719 -> 720 ;
721 [label="gini = 0.0\nsamples = 1\nvalue = [1, 0]"] ;
720 -> 721 ;
722 [label="gini = 0.0\nsamples = 4\nvalue = [0, 4]"] ;
720 -> 722 ;
723 [label="gini = 0.0\nsamples = 57\nvalue = [0, 57]"] ;
719 -> 723 ;
724 [label="gini = 0.0\nsamples = 1\nvalue = [1, 0]"] ;
718 -> 724 ;
725 [label="gini = 0.0\nsamples = 1\nvalue = [1, 0]"] ;
689 -> 725 ;
726 [label="gini = 0.0\nsamples = 2\nvalue = [2, 0]"] ;
688 -> 726 ;
727 [label="schedule8 <= 0.5\ngini = 0.4999\nsamples = 67\nvalue = [34, 33]"] ;
687 -> 727 ;
728 [label="user_tendency13 <= 0.1734\ngini = 0.3299\nsamples = 24\nvalue = [19, 5]"] ;
727 -> 728 ;
729 [label="total_session <= 26.5\ngini = 0.4152\nsamples = 17\nvalue = [12, 5]"] ;
728 -> 729 ;
730 [label="privacy_2 <= 0.5\ngini = 0.48\nsamples = 5\nvalue = [2, 3]"] ;
729 -> 730 ;
731 [label="total_session <= 18.5\ngini = 0.4444\nsamples = 3\nvalue = [2, 1]"] ;
730 -> 731 ;
732 [label="user_tendency13 <= 0.0822\ngini = 0.5\nsamples = 2\nvalue = [1, 1]"] ;
731 -> 732 ;
733 [label="gini = 0.0\nsamples = 1\nvalue = [1, 0]"] ;
732 -> 733 ;
734 [label="gini = 0.0\nsamples = 1\nvalue = [0, 1]"] ;
732 -> 734 ;
735 [label="gini = 0.0\nsamples = 1\nvalue = [1, 0]"] ;
731 -> 735 ;
736 [label="gini = 0.0\nsamples = 2\nvalue = [0, 2]"] ;
730 -> 736 ;
737 [label="total_session <= 68.5\ngini = 0.2778\nsamples = 12\nvalue = [10, 2]"] ;
729 -> 737 ;
738 [label="gini = 0.0\nsamples = 5\nvalue = [5, 0]"] ;
737 -> 738 ;
739 [label="total_session <= 85.0\ngini = 0.4082\nsamples = 7\nvalue = [5, 2]"] ;
737 -> 739 ;
740 [label="purchasing_power <= 4.5\ngini = 0.4444\nsamples = 3\nvalue = [1, 2]"] ;
739 -> 740 ;
741 [label="gini = 0.0\nsamples = 1\nvalue = [0, 1]"] ;
740 -> 741 ;
742 [label="purchasing_power <= 5.5\ngini = 0.5\nsamples = 2\nvalue = [1, 1]"] ;
740 -> 742 ;
743 [label="gini = 0.0\nsamples = 1\nvalue = [1, 0]"] ;
742 -> 743 ;
744 [label="gini = 0.0\nsamples = 1\nvalue = [0, 1]"] ;
742 -> 744 ;
745 [label="gini = 0.0\nsamples = 4\nvalue = [4, 0]"] ;
739 -> 745 ;
746 [label="gini = 0.0\nsamples = 7\nvalue = [7, 0]"] ;
728 -> 746 ;
747 [label="user_tendency3 <= 0.8485\ngini = 0.4543\nsamples = 43\nvalue = [15, 28]"] ;
727 -> 747 ;
748 [label="user_tendency13 <= 0.1953\ngini = 0.3878\nsamples = 38\nvalue = [10, 28]"] ;
747 -> 748 ;
749 [label="total_session <= 18.0\ngini = 0.3682\nsamples = 37\nvalue = [9, 28]"] ;
748 -> 749 ;
750 [label="gini = 0.0\nsamples = 1\nvalue = [1, 0]"] ;
749 -> 750 ;
751 [label="total_session <= 51.0\ngini = 0.3457\nsamples = 36\nvalue = [8, 28]"] ;
749 -> 751 ;
752 [label="purchasing_power <= 4.5\ngini = 0.1884\nsamples = 19\nvalue = [2, 17]"] ;
751 -> 752 ;
753 [label="total_session <= 28.5\ngini = 0.4082\nsamples = 7\nvalue = [2, 5]"] ;
752 -> 753 ;
754 [label="gini = 0.0\nsamples = 5\nvalue = [0, 5]"] ;
753 -> 754 ;
755 [label="gini = 0.0\nsamples = 2\nvalue = [2, 0]"] ;
753 -> 755 ;
756 [label="gini = 0.0\nsamples = 12\nvalue = [0, 12]"] ;
752 -> 756 ;
757 [label="total_session <= 221.0\ngini = 0.4567\nsamples = 17\nvalue = [6, 11]"] ;
751 -> 757 ;
758 [label="total_session <= 70.0\ngini = 0.4959\nsamples = 11\nvalue = [6, 5]"] ;
757 -> 758 ;
759 [label="total_session <= 54.5\ngini = 0.4444\nsamples = 6\nvalue = [2, 4]"] ;
758 -> 759 ;
760 [label="gini = 0.0\nsamples = 1\nvalue = [1, 0]"] ;
759 -> 760 ;
761 [label="total_session <= 63.5\ngini = 0.32\nsamples = 5\nvalue = [1, 4]"] ;
759 -> 761 ;
762 [label="gini = 0.0\nsamples = 2\nvalue = [0, 2]"] ;
761 -> 762 ;
763 [label="gini = 0.4444\nsamples = 3\nvalue = [1, 2]"] ;
761 -> 763 ;
764 [label="total_session <= 144.0\ngini = 0.32\nsamples = 5\nvalue = [4, 1]"] ;
758 -> 764 ;
765 [label="gini = 0.0\nsamples = 3\nvalue = [3, 0]"] ;
764 -> 765 ;
766 [label="total_session <= 182.0\ngini = 0.5\nsamples = 2\nvalue = [1, 1]"] ;
764 -> 766 ;
767 [label="gini = 0.0\nsamples = 1\nvalue = [0, 1]"] ;
766 -> 767 ;
768 [label="gini = 0.0\nsamples = 1\nvalue = [1, 0]"] ;
766 -> 768 ;
769 [label="gini = 0.0\nsamples = 6\nvalue = [0, 6]"] ;
757 -> 769 ;
770 [label="gini = 0.0\nsamples = 1\nvalue = [1, 0]"] ;
748 -> 770 ;
771 [label="gini = 0.0\nsamples = 5\nvalue = [5, 0]"] ;
747 -> 771 ;
772 [label="genre1 <= 0.5\ngini = 0.301\nsamples = 233\nvalue = [43, 190]"] ;
4 -> 772 ;
773 [label="gini = 0.0\nsamples = 18\nvalue = [18, 0]"] ;
772 -> 773 ;
774 [label="total_session <= 47.5\ngini = 0.2055\nsamples = 215\nvalue = [25, 190]"] ;
772 -> 774 ;
775 [label="total_episode <= 2.5\ngini = 0.1352\nsamples = 192\nvalue = [14, 178]"] ;
774 -> 775 ;
776 [label="gini = 0.0\nsamples = 3\nvalue = [3, 0]"] ;
775 -> 776 ;
777 [label="book <= 0.5\ngini = 0.1096\nsamples = 189\nvalue = [11, 178]"] ;
775 -> 777 ;
778 [label="user_tendency1 <= 0.7162\ngini = 0.4959\nsamples = 11\nvalue = [5, 6]"] ;
777 -> 778 ;
779 [label="gini = 0.0\nsamples = 3\nvalue = [3, 0]"] ;
778 -> 779 ;
780 [label="plat_B <= 0.5\ngini = 0.375\nsamples = 8\nvalue = [2, 6]"] ;
778 -> 780 ;
781 [label="gini = 0.0\nsamples = 1\nvalue = [1, 0]"] ;
780 -> 781 ;
782 [label="privacy_2 <= 0.5\ngini = 0.2449\nsamples = 7\nvalue = [1, 6]"] ;
780 -> 782 ;
783 [label="gini = 0.0\nsamples = 4\nvalue = [0, 4]"] ;
782 -> 783 ;
784 [label="gini = 0.4444\nsamples = 3\nvalue = [1, 2]"] ;
782 -> 784 ;
785 [label="user_tendency1 <= 0.7576\ngini = 0.0651\nsamples = 178\nvalue = [6, 172]"] ;
777 -> 785 ;
786 [label="user_tendency8 <= 0.1961\ngini = 0.0454\nsamples = 172\nvalue = [4, 168]"] ;
785 -> 786 ;
787 [label="user_tendency1 <= 0.745\ngini = 0.0355\nsamples = 166\nvalue = [3, 163]"] ;
786 -> 787 ;
788 [label="total_session <= 1.5\ngini = 0.026\nsamples = 152\nvalue = [2, 150]"] ;
787 -> 788 ;
789 [label="genre5 <= 0.5\ngini = 0.095\nsamples = 20\nvalue = [1, 19]"] ;
788 -> 789 ;
790 [label="gini = 0.0\nsamples = 19\nvalue = [0, 19]"] ;
789 -> 790 ;
791 [label="gini = 0.0\nsamples = 1\nvalue = [1, 0]"] ;
789 -> 791 ;
792 [label="comic_start <= 12.5\ngini = 0.015\nsamples = 132\nvalue = [1, 131]"] ;
788 -> 792 ;
793 [label="user_tendency1 <= 0.6802\ngini = 0.0435\nsamples = 45\nvalue = [1, 44]"] ;
792 -> 793 ;
794 [label="end <= 0.5\ngini = 0.1975\nsamples = 9\nvalue = [1, 8]"] ;
793 -> 794 ;
795 [label="gini = 0.0\nsamples = 3\nvalue = [0, 3]"] ;
794 -> 795 ;
796 [label="gini = 0.2778\nsamples = 6\nvalue = [1, 5]"] ;
794 -> 796 ;
797 [label="gini = 0.0\nsamples = 36\nvalue = [0, 36]"] ;
793 -> 797 ;
798 [label="gini = 0.0\nsamples = 87\nvalue = [0, 87]"] ;
792 -> 798 ;
799 [label="total_session <= 4.0\ngini = 0.1327\nsamples = 14\nvalue = [1, 13]"] ;
787 -> 799 ;
800 [label="gini = 0.0\nsamples = 13\nvalue = [0, 13]"] ;
799 -> 800 ;
801 [label="gini = 0.0\nsamples = 1\nvalue = [1, 0]"] ;
799 -> 801 ;
802 [label="total_session <= 35.0\ngini = 0.2778\nsamples = 6\nvalue = [1, 5]"] ;
786 -> 802 ;
803 [label="gini = 0.0\nsamples = 5\nvalue = [0, 5]"] ;
802 -> 803 ;
804 [label="gini = 0.0\nsamples = 1\nvalue = [1, 0]"] ;
802 -> 804 ;
805 [label="total_episode <= 5.0\ngini = 0.4444\nsamples = 6\nvalue = [2, 4]"] ;
785 -> 805 ;
806 [label="gini = 0.0\nsamples = 1\nvalue = [1, 0]"] ;
805 -> 806 ;
807 [label="total_session <= 1.5\ngini = 0.32\nsamples = 5\nvalue = [1, 4]"] ;
805 -> 807 ;
808 [label="gini = 0.0\nsamples = 2\nvalue = [0, 2]"] ;
807 -> 808 ;
809 [label="plat_B <= 0.5\ngini = 0.4444\nsamples = 3\nvalue = [1, 2]"] ;
807 -> 809 ;
810 [label="gini = 0.0\nsamples = 2\nvalue = [0, 2]"] ;
809 -> 810 ;
811 [label="gini = 0.0\nsamples = 1\nvalue = [1, 0]"] ;
809 -> 811 ;
812 [label="total_session <= 118.5\ngini = 0.4991\nsamples = 23\nvalue = [11, 12]"] ;
774 -> 812 ;
813 [label="plat_A <= 0.5\ngini = 0.3367\nsamples = 14\nvalue = [11, 3]"] ;
812 -> 813 ;
814 [label="last_episode <= 13.0\ngini = 0.2604\nsamples = 13\nvalue = [11, 2]"] ;
813 -> 814 ;
815 [label="purchasing_power <= 3.5\ngini = 0.4082\nsamples = 7\nvalue = [5, 2]"] ;
814 -> 815 ;
816 [label="gini = 0.0\nsamples = 1\nvalue = [0, 1]"] ;
815 -> 816 ;
817 [label="total_session <= 75.5\ngini = 0.2778\nsamples = 6\nvalue = [5, 1]"] ;
815 -> 817 ;
818 [label="user_tendency1 <= 0.7382\ngini = 0.5\nsamples = 2\nvalue = [1, 1]"] ;
817 -> 818 ;
819 [label="gini = 0.0\nsamples = 1\nvalue = [0, 1]"] ;
818 -> 819 ;
820 [label="gini = 0.0\nsamples = 1\nvalue = [1, 0]"] ;
818 -> 820 ;
821 [label="gini = 0.0\nsamples = 4\nvalue = [4, 0]"] ;
817 -> 821 ;
822 [label="gini = 0.0\nsamples = 6\nvalue = [6, 0]"] ;
814 -> 822 ;
823 [label="gini = 0.0\nsamples = 1\nvalue = [0, 1]"] ;
813 -> 823 ;
824 [label="gini = 0.0\nsamples = 9\nvalue = [0, 9]"] ;
812 -> 824 ;
825 [label="total_episode <= 3.5\ngini = 0.4696\nsamples = 5110\nvalue = [3185, 1925]"] ;
3 -> 825 ;
826 [label="schedule2 <= 0.5\ngini = 0.3589\nsamples = 1476\nvalue = [1130, 346]"] ;
825 -> 826 ;
827 [label="last_episode <= 10.5\ngini = 0.3154\nsamples = 1218\nvalue = [979, 239]"] ;
826 -> 827 ;
828 [label="user_tendency8 <= 0.1691\ngini = 0.4114\nsamples = 570\nvalue = [405, 165]"] ;
827 -> 828 ;
829 [label="user_tendency13 <= 0.8528\ngini = 0.346\nsamples = 409\nvalue = [318, 91]"] ;
828 -> 829 ;
830 [label="user_tendency12 <= 0.0626\ngini = 0.3341\nsamples = 401\nvalue = [316, 85]"] ;
829 -> 830 ;
831 [label="genre14 <= 0.5\ngini = 0.315\nsamples = 383\nvalue = [308, 75]"] ;
830 -> 831 ;
832 [label="user_tendency13 <= 0.7059\ngini = 0.3579\nsamples = 317\nvalue = [243, 74]"] ;
831 -> 832 ;
833 [label="user_tendency13 <= 0.651\ngini = 0.4166\nsamples = 213\nvalue = [150, 63]"] ;
832 -> 833 ;
834 [label="total_session <= 277.5\ngini = 0.2952\nsamples = 150\nvalue = [123, 27]"] ;
833 -> 834 ;
835 [label="schedule1 <= 0.5\ngini = 0.2346\nsamples = 140\nvalue = [121, 19]"] ;
834 -> 835 ;
836 [label="purchasing_power <= 1.5\ngini = 0.1626\nsamples = 112\nvalue = [102, 10]"] ;
835 -> 836 ;
837 [label="gini = 0.0\nsamples = 1\nvalue = [0, 1]"] ;
836 -> 837 ;
838 [label="user_tendency9 <= 0.4582\ngini = 0.149\nsamples = 111\nvalue = [102, 9]"] ;
836 -> 838 ;
839 [label="user_tendency3 <= 0.8982\ngini = 0.1349\nsamples = 110\nvalue = [102, 8]"] ;
838 -> 839 ;
840 [label="gini = 0.1202\nsamples = 109\nvalue = [102, 7]"] ;
839 -> 840 ;
841 [label="gini = 0.0\nsamples = 1\nvalue = [0, 1]"] ;
839 -> 841 ;
842 [label="gini = 0.0\nsamples = 1\nvalue = [0, 1]"] ;
838 -> 842 ;
843 [label="purchasing_power <= 3.5\ngini = 0.4362\nsamples = 28\nvalue = [19, 9]"] ;
835 -> 843 ;
844 [label="user_tendency5 <= 0.353\ngini = 0.4444\nsamples = 9\nvalue = [3, 6]"] ;
843 -> 844 ;
845 [label="user_tendency3 <= 0.2145\ngini = 0.48\nsamples = 5\nvalue = [3, 2]"] ;
844 -> 845 ;
846 [label="gini = 0.0\nsamples = 2\nvalue = [2, 0]"] ;
845 -> 846 ;
847 [label="gini = 0.4444\nsamples = 3\nvalue = [1, 2]"] ;
845 -> 847 ;
848 [label="gini = 0.0\nsamples = 4\nvalue = [0, 4]"] ;
844 -> 848 ;
849 [label="purchasing_power <= 8.5\ngini = 0.2659\nsamples = 19\nvalue = [16, 3]"] ;
843 -> 849 ;
850 [label="plat_A <= 0.5\ngini = 0.1975\nsamples = 18\nvalue = [16, 2]"] ;
849 -> 850 ;
851 [label="gini = 0.0\nsamples = 13\nvalue = [13, 0]"] ;
850 -> 851 ;
852 [label="gini = 0.48\nsamples = 5\nvalue = [3, 2]"] ;
850 -> 852 ;
853 [label="gini = 0.0\nsamples = 1\nvalue = [0, 1]"] ;
849 -> 853 ;
854 [label="user_tendency13 <= 0.5425\ngini = 0.32\nsamples = 10\nvalue = [2, 8]"] ;
834 -> 854 ;
855 [label="gini = 0.0\nsamples = 8\nvalue = [0, 8]"] ;
854 -> 855 ;
856 [label="gini = 0.0\nsamples = 2\nvalue = [2, 0]"] ;
854 -> 856 ;
857 [label="user_tendency13 <= 0.673\ngini = 0.4898\nsamples = 63\nvalue = [27, 36]"] ;
833 -> 857 ;
858 [label="user_tendency5 <= 0.1087\ngini = 0.2355\nsamples = 22\nvalue = [3, 19]"] ;
857 -> 858 ;
859 [label="gini = 0.0\nsamples = 2\nvalue = [2, 0]"] ;
858 -> 859 ;
860 [label="genre2 <= 0.5\ngini = 0.095\nsamples = 20\nvalue = [1, 19]"] ;
858 -> 860 ;
861 [label="gini = 0.0\nsamples = 19\nvalue = [0, 19]"] ;
860 -> 861 ;
862 [label="gini = 0.0\nsamples = 1\nvalue = [1, 0]"] ;
860 -> 862 ;
863 [label="plat_D <= 0.5\ngini = 0.4854\nsamples = 41\nvalue = [24, 17]"] ;
857 -> 863 ;
864 [label="total_session <= 4.0\ngini = 0.375\nsamples = 32\nvalue = [24, 8]"] ;
863 -> 864 ;
865 [label="user_tendency13 <= 0.6868\ngini = 0.375\nsamples = 8\nvalue = [2, 6]"] ;
864 -> 865 ;
866 [label="gini = 0.0\nsamples = 2\nvalue = [2, 0]"] ;
865 -> 866 ;
867 [label="gini = 0.0\nsamples = 6\nvalue = [0, 6]"] ;
865 -> 867 ;
868 [label="genre6 <= 0.5\ngini = 0.1528\nsamples = 24\nvalue = [22, 2]"] ;
864 -> 868 ;
869 [label="schedule7 <= 0.5\ngini = 0.0868\nsamples = 22\nvalue = [21, 1]"] ;
868 -> 869 ;
870 [label="gini = 0.0\nsamples = 18\nvalue = [18, 0]"] ;
869 -> 870 ;
871 [label="gini = 0.375\nsamples = 4\nvalue = [3, 1]"] ;
869 -> 871 ;
872 [label="user_tendency14 <= 0.0653\ngini = 0.5\nsamples = 2\nvalue = [1, 1]"] ;
868 -> 872 ;
873 [label="gini = 0.0\nsamples = 1\nvalue = [1, 0]"] ;
872 -> 873 ;
874 [label="gini = 0.0\nsamples = 1\nvalue = [0, 1]"] ;
872 -> 874 ;
875 [label="gini = 0.0\nsamples = 9\nvalue = [0, 9]"] ;
863 -> 875 ;
876 [label="user_tendency14 <= 0.1695\ngini = 0.1892\nsamples = 104\nvalue = [93, 11]"] ;
832 -> 876 ;
877 [label="schedule3 <= 0.5\ngini = 0.0482\nsamples = 81\nvalue = [79, 2]"] ;
876 -> 877 ;
878 [label="gini = 0.0\nsamples = 75\nvalue = [75, 0]"] ;
877 -> 878 ;
879 [label="privacy_2 <= 0.5\ngini = 0.4444\nsamples = 6\nvalue = [4, 2]"] ;
877 -> 879 ;
880 [label="gini = 0.0\nsamples = 4\nvalue = [4, 0]"] ;
879 -> 880 ;
881 [label="gini = 0.0\nsamples = 2\nvalue = [0, 2]"] ;
879 -> 881 ;
882 [label="total_session <= 84.0\ngini = 0.4764\nsamples = 23\nvalue = [14, 9]"] ;
876 -> 882 ;
883 [label="user_tendency13 <= 0.7332\ngini = 0.4922\nsamples = 16\nvalue = [7, 9]"] ;
882 -> 883 ;
884 [label="gini = 0.0\nsamples = 5\nvalue = [5, 0]"] ;
883 -> 884 ;
885 [label="total_session <= 27.5\ngini = 0.2975\nsamples = 11\nvalue = [2, 9]"] ;
883 -> 885 ;
886 [label="gini = 0.0\nsamples = 1\nvalue = [1, 0]"] ;
885 -> 886 ;
887 [label="total_session <= 46.5\ngini = 0.18\nsamples = 10\nvalue = [1, 9]"] ;
885 -> 887 ;
888 [label="genre8 <= 0.5\ngini = 0.375\nsamples = 4\nvalue = [1, 3]"] ;
887 -> 888 ;
889 [label="gini = 0.0\nsamples = 1\nvalue = [1, 0]"] ;
888 -> 889 ;
890 [label="gini = 0.0\nsamples = 3\nvalue = [0, 3]"] ;
888 -> 890 ;
891 [label="gini = 0.0\nsamples = 6\nvalue = [0, 6]"] ;
887 -> 891 ;
892 [label="gini = 0.0\nsamples = 7\nvalue = [7, 0]"] ;
882 -> 892 ;
893 [label="comic_tag1 <= 0.5\ngini = 0.0298\nsamples = 66\nvalue = [65, 1]"] ;
831 -> 893 ;
894 [label="gini = 0.0\nsamples = 64\nvalue = [64, 0]"] ;
893 -> 894 ;
895 [label="total_session <= 8.0\ngini = 0.5\nsamples = 2\nvalue = [1, 1]"] ;
893 -> 895 ;
896 [label="gini = 0.0\nsamples = 1\nvalue = [0, 1]"] ;
895 -> 896 ;
897 [label="gini = 0.0\nsamples = 1\nvalue = [1, 0]"] ;
895 -> 897 ;
898 [label="user_tendency13 <= 0.2174\ngini = 0.4938\nsamples = 18\nvalue = [8, 10]"] ;
830 -> 898 ;
899 [label="user_tendency12 <= 0.4573\ngini = 0.375\nsamples = 12\nvalue = [3, 9]"] ;
898 -> 899 ;
900 [label="purchasing_power <= 2.5\ngini = 0.2975\nsamples = 11\nvalue = [2, 9]"] ;
899 -> 900 ;
901 [label="gini = 0.0\nsamples = 1\nvalue = [1, 0]"] ;
900 -> 901 ;
902 [label="comic_start <= 3.5\ngini = 0.18\nsamples = 10\nvalue = [1, 9]"] ;
900 -> 902 ;
903 [label="user_tendency5 <= 0.1356\ngini = 0.375\nsamples = 4\nvalue = [1, 3]"] ;
902 -> 903 ;
904 [label="gini = 0.0\nsamples = 1\nvalue = [1, 0]"] ;
903 -> 904 ;
905 [label="gini = 0.0\nsamples = 3\nvalue = [0, 3]"] ;
903 -> 905 ;
906 [label="gini = 0.0\nsamples = 6\nvalue = [0, 6]"] ;
902 -> 906 ;
907 [label="gini = 0.0\nsamples = 1\nvalue = [1, 0]"] ;
899 -> 907 ;
908 [label="genre15 <= 0.5\ngini = 0.2778\nsamples = 6\nvalue = [5, 1]"] ;
898 -> 908 ;
909 [label="gini = 0.0\nsamples = 5\nvalue = [5, 0]"] ;
908 -> 909 ;
910 [label="gini = 0.0\nsamples = 1\nvalue = [0, 1]"] ;
908 -> 910 ;
911 [label="last_episode <= 3.0\ngini = 0.375\nsamples = 8\nvalue = [2, 6]"] ;
829 -> 911 ;
912 [label="gini = 0.0\nsamples = 6\nvalue = [0, 6]"] ;
911 -> 912 ;
913 [label="gini = 0.0\nsamples = 2\nvalue = [2, 0]"] ;
911 -> 913 ;
914 [label="user_tendency14 <= 0.0242\ngini = 0.4967\nsamples = 161\nvalue = [87, 74]"] ;
828 -> 914 ;
915 [label="user_tendency5 <= 0.0909\ngini = 0.2627\nsamples = 45\nvalue = [38, 7]"] ;
914 -> 915 ;
916 [label="gini = 0.0\nsamples = 2\nvalue = [0, 2]"] ;
915 -> 916 ;
917 [label="schedule7 <= 0.5\ngini = 0.2055\nsamples = 43\nvalue = [38, 5]"] ;
915 -> 917 ;
918 [label="user_tendency3 <= 0.2183\ngini = 0.0997\nsamples = 38\nvalue = [36, 2]"] ;
917 -> 918 ;
919 [label="total_session <= 6.5\ngini = 0.054\nsamples = 36\nvalue = [35, 1]"] ;
918 -> 919 ;
920 [label="user_tendency5 <= 0.1833\ngini = 0.2778\nsamples = 6\nvalue = [5, 1]"] ;
919 -> 920 ;
921 [label="gini = 0.0\nsamples = 1\nvalue = [0, 1]"] ;
920 -> 921 ;
922 [label="gini = 0.0\nsamples = 5\nvalue = [5, 0]"] ;
920 -> 922 ;
923 [label="gini = 0.0\nsamples = 30\nvalue = [30, 0]"] ;
919 -> 923 ;
924 [label="total_session <= 53.5\ngini = 0.5\nsamples = 2\nvalue = [1, 1]"] ;
918 -> 924 ;
925 [label="gini = 0.0\nsamples = 1\nvalue = [1, 0]"] ;
924 -> 925 ;
926 [label="gini = 0.0\nsamples = 1\nvalue = [0, 1]"] ;
924 -> 926 ;
927 [label="genre8 <= 0.5\ngini = 0.48\nsamples = 5\nvalue = [2, 3]"] ;
917 -> 927 ;
928 [label="gini = 0.0\nsamples = 2\nvalue = [0, 2]"] ;
927 -> 928 ;
929 [label="privacy_2 <= 0.5\ngini = 0.4444\nsamples = 3\nvalue = [2, 1]"] ;
927 -> 929 ;
930 [label="gini = 0.5\nsamples = 2\nvalue = [1, 1]"] ;
929 -> 930 ;
931 [label="gini = 0.0\nsamples = 1\nvalue = [1, 0]"] ;
929 -> 931 ;
932 [label="genre8 <= 0.5\ngini = 0.488\nsamples = 116\nvalue = [49, 67]"] ;
914 -> 932 ;
933 [label="user_tendency14 <= 0.2539\ngini = 0.455\nsamples = 100\nvalue = [35, 65]"] ;
932 -> 933 ;
934 [label="user_tendency13 <= 0.5249\ngini = 0.4209\nsamples = 93\nvalue = [28, 65]"] ;
933 -> 934 ;
935 [label="total_session <= 138.0\ngini = 0.3939\nsamples = 89\nvalue = [24, 65]"] ;
934 -> 935 ;
936 [label="user_tendency4 <= 0.1671\ngini = 0.3409\nsamples = 78\nvalue = [17, 61]"] ;
935 -> 936 ;
937 [label="book <= 0.5\ngini = 0.3036\nsamples = 75\nvalue = [14, 61]"] ;
936 -> 937 ;
938 [label="total_episode <= 1.5\ngini = 0.2589\nsamples = 72\nvalue = [11, 61]"] ;
937 -> 938 ;
939 [label="total_session <= 7.0\ngini = 0.5\nsamples = 10\nvalue = [5, 5]"] ;
938 -> 939 ;
940 [label="plat_A <= 0.5\ngini = 0.2778\nsamples = 6\nvalue = [1, 5]"] ;
939 -> 940 ;
941 [label="gini = 0.0\nsamples = 4\nvalue = [0, 4]"] ;
940 -> 941 ;
942 [label="gini = 0.5\nsamples = 2\nvalue = [1, 1]"] ;
940 -> 942 ;
943 [label="gini = 0.0\nsamples = 4\nvalue = [4, 0]"] ;
939 -> 943 ;
944 [label="genre1 <= 0.5\ngini = 0.1748\nsamples = 62\nvalue = [6, 56]"] ;
938 -> 944 ;
945 [label="user_tendency5 <= 0.0627\ngini = 0.1049\nsamples = 54\nvalue = [3, 51]"] ;
944 -> 945 ;
946 [label="gini = 0.5\nsamples = 2\nvalue = [1, 1]"] ;
945 -> 946 ;
947 [label="gini = 0.074\nsamples = 52\nvalue = [2, 50]"] ;
945 -> 947 ;
948 [label="purchasing_power <= 4.5\ngini = 0.4688\nsamples = 8\nvalue = [3, 5]"] ;
944 -> 948 ;
949 [label="gini = 0.0\nsamples = 5\nvalue = [0, 5]"] ;
948 -> 949 ;
950 [label="gini = 0.0\nsamples = 3\nvalue = [3, 0]"] ;
948 -> 950 ;
951 [label="gini = 0.0\nsamples = 3\nvalue = [3, 0]"] ;
937 -> 951 ;
952 [label="gini = 0.0\nsamples = 3\nvalue = [3, 0]"] ;
936 -> 952 ;
953 [label="user_tendency4 <= 0.0399\ngini = 0.4628\nsamples = 11\nvalue = [7, 4]"] ;
935 -> 953 ;
954 [label="user_tendency8 <= 0.2054\ngini = 0.2188\nsamples = 8\nvalue = [7, 1]"] ;
953 -> 954 ;
955 [label="gini = 0.0\nsamples = 1\nvalue = [0, 1]"] ;
954 -> 955 ;
956 [label="gini = 0.0\nsamples = 7\nvalue = [7, 0]"] ;
954 -> 956 ;
957 [label="gini = 0.0\nsamples = 3\nvalue = [0, 3]"] ;
953 -> 957 ;
958 [label="gini = 0.0\nsamples = 4\nvalue = [4, 0]"] ;
934 -> 958 ;
959 [label="gini = 0.0\nsamples = 7\nvalue = [7, 0]"] ;
933 -> 959 ;
960 [label="purchasing_power <= 3.5\ngini = 0.2188\nsamples = 16\nvalue = [14, 2]"] ;
932 -> 960 ;
961 [label="gini = 0.0\nsamples = 1\nvalue = [0, 1]"] ;
960 -> 961 ;
962 [label="user_tendency13 <= 0.5757\ngini = 0.1244\nsamples = 15\nvalue = [14, 1]"] ;
960 -> 962 ;
963 [label="gini = 0.0\nsamples = 14\nvalue = [14, 0]"] ;
962 -> 963 ;
964 [label="gini = 0.0\nsamples = 1\nvalue = [0, 1]"] ;
962 -> 964 ;
965 [label="user_tendency5 <= 0.5565\ngini = 0.2023\nsamples = 648\nvalue = [574, 74]"] ;
827 -> 965 ;
966 [label="user_tendency9 <= 0.0945\ngini = 0.1916\nsamples = 643\nvalue = [574, 69]"] ;
965 -> 966 ;
967 [label="user_tendency4 <= 0.0622\ngini = 0.1658\nsamples = 614\nvalue = [558, 56]"] ;
966 -> 967 ;
968 [label="user_tendency5 <= 0.1214\ngini = 0.1363\nsamples = 571\nvalue = [529, 42]"] ;
967 -> 968 ;
969 [label="user_tendency5 <= 0.1208\ngini = 0.2637\nsamples = 192\nvalue = [162, 30]"] ;
968 -> 969 ;
970 [label="user_tendency13 <= 0.0626\ngini = 0.2383\nsamples = 188\nvalue = [162, 26]"] ;
969 -> 970 ;
971 [label="user_tendency14 <= 0.0229\ngini = 0.32\nsamples = 5\nvalue = [1, 4]"] ;
970 -> 971 ;
972 [label="gini = 0.0\nsamples = 1\nvalue = [1, 0]"] ;
971 -> 972 ;
973 [label="gini = 0.0\nsamples = 4\nvalue = [0, 4]"] ;
971 -> 973 ;
974 [label="total_session <= 7.5\ngini = 0.2115\nsamples = 183\nvalue = [161, 22]"] ;
970 -> 974 ;
975 [label="total_episode <= 2.5\ngini = 0.48\nsamples = 25\nvalue = [15, 10]"] ;
974 -> 975 ;
976 [label="comic_start <= 15.5\ngini = 0.142\nsamples = 13\nvalue = [12, 1]"] ;
975 -> 976 ;
977 [label="gini = 0.0\nsamples = 12\nvalue = [12, 0]"] ;
976 -> 977 ;
978 [label="gini = 0.0\nsamples = 1\nvalue = [0, 1]"] ;
976 -> 978 ;
979 [label="user_tendency13 <= 0.7063\ngini = 0.375\nsamples = 12\nvalue = [3, 9]"] ;
975 -> 979 ;
980 [label="gini = 0.0\nsamples = 3\nvalue = [3, 0]"] ;
979 -> 980 ;
981 [label="gini = 0.0\nsamples = 9\nvalue = [0, 9]"] ;
979 -> 981 ;
982 [label="user_tendency5 <= 0.0233\ngini = 0.1404\nsamples = 158\nvalue = [146, 12]"] ;
974 -> 982 ;
983 [label="last_episode <= 15.5\ngini = 0.5\nsamples = 8\nvalue = [4, 4]"] ;
982 -> 983 ;
984 [label="genre8 <= 0.5\ngini = 0.32\nsamples = 5\nvalue = [4, 1]"] ;
983 -> 984 ;
985 [label="gini = 0.0\nsamples = 4\nvalue = [4, 0]"] ;
984 -> 985 ;
986 [label="gini = 0.0\nsamples = 1\nvalue = [0, 1]"] ;
984 -> 986 ;
987 [label="gini = 0.0\nsamples = 3\nvalue = [0, 3]"] ;
983 -> 987 ;
988 [label="user_tendency14 <= 0.03\ngini = 0.101\nsamples = 150\nvalue = [142, 8]"] ;
982 -> 988 ;
989 [label="purchasing_power <= 7.5\ngini = 0.4444\nsamples = 12\nvalue = [8, 4]"] ;
988 -> 989 ;
990 [label="gini = 0.0\nsamples = 8\nvalue = [8, 0]"] ;
989 -> 990 ;
991 [label="gini = 0.0\nsamples = 4\nvalue = [0, 4]"] ;
989 -> 991 ;
992 [label="genre16 <= 0.5\ngini = 0.0563\nsamples = 138\nvalue = [134, 4]"] ;
988 -> 992 ;
993 [label="user_tendency13 <= 0.808\ngini = 0.0174\nsamples = 114\nvalue = [113, 1]"] ;
992 -> 993 ;
994 [label="gini = 0.0\nsamples = 107\nvalue = [107, 0]"] ;
993 -> 994 ;
995 [label="gini = 0.2449\nsamples = 7\nvalue = [6, 1]"] ;
993 -> 995 ;
996 [label="user_tendency5 <= 0.1167\ngini = 0.2188\nsamples = 24\nvalue = [21, 3]"] ;
992 -> 996 ;
997 [label="gini = 0.1588\nsamples = 23\nvalue = [21, 2]"] ;
996 -> 997 ;
998 [label="gini = 0.0\nsamples = 1\nvalue = [0, 1]"] ;
996 -> 998 ;
999 [label="gini = 0.0\nsamples = 4\nvalue = [0, 4]"] ;
969 -> 999 ;
1000 [label="user_tendency3 <= 0.5358\ngini = 0.0613\nsamples = 379\nvalue = [367, 12]"] ;
968 -> 1000 ;
1001 [label="total_session <= 652.5\ngini = 0.0426\nsamples = 367\nvalue = [359, 8]"] ;
1000 -> 1001 ;
1002 [label="user_tendency1 <= 0.026\ngini = 0.0325\nsamples = 363\nvalue = [357, 6]"] ;
1001 -> 1002 ;
1003 [label="genre1 <= 0.5\ngini = 0.0275\nsamples = 359\nvalue = [354, 5]"] ;
1002 -> 1003 ;
1004 [label="user_tendency14 <= 0.0988\ngini = 0.0226\nsamples = 350\nvalue = [346, 4]"] ;
1003 -> 1004 ;
1005 [label="gini = 0.0\nsamples = 233\nvalue = [233, 0]"] ;
1004 -> 1005 ;
1006 [label="user_tendency14 <= 0.0996\ngini = 0.066\nsamples = 117\nvalue = [113, 4]"] ;
1004 -> 1006 ;
1007 [label="gini = 0.0\nsamples = 2\nvalue = [0, 2]"] ;
1006 -> 1007 ;
1008 [label="user_tendency14 <= 0.1112\ngini = 0.0342\nsamples = 115\nvalue = [113, 2]"] ;
1006 -> 1008 ;
1009 [label="gini = 0.2076\nsamples = 17\nvalue = [15, 2]"] ;
1008 -> 1009 ;
1010 [label="gini = 0.0\nsamples = 98\nvalue = [98, 0]"] ;
1008 -> 1010 ;
1011 [label="genre14 <= 0.5\ngini = 0.1975\nsamples = 9\nvalue = [8, 1]"] ;
1003 -> 1011 ;
1012 [label="gini = 0.0\nsamples = 8\nvalue = [8, 0]"] ;
1011 -> 1012 ;
1013 [label="gini = 0.0\nsamples = 1\nvalue = [0, 1]"] ;
1011 -> 1013 ;
1014 [label="genre14 <= 0.5\ngini = 0.375\nsamples = 4\nvalue = [3, 1]"] ;
1002 -> 1014 ;
1015 [label="gini = 0.0\nsamples = 3\nvalue = [3, 0]"] ;
1014 -> 1015 ;
1016 [label="gini = 0.0\nsamples = 1\nvalue = [0, 1]"] ;
1014 -> 1016 ;
1017 [label="user_tendency13 <= 0.7014\ngini = 0.5\nsamples = 4\nvalue = [2, 2]"] ;
1001 -> 1017 ;
1018 [label="gini = 0.0\nsamples = 1\nvalue = [1, 0]"] ;
1017 -> 1018 ;
1019 [label="gini = 0.4444\nsamples = 3\nvalue = [1, 2]"] ;
1017 -> 1019 ;
1020 [label="user_tendency5 <= 0.169\ngini = 0.4444\nsamples = 12\nvalue = [8, 4]"] ;
1000 -> 1020 ;
1021 [label="gini = 0.0\nsamples = 8\nvalue = [8, 0]"] ;
1020 -> 1021 ;
1022 [label="gini = 0.0\nsamples = 4\nvalue = [0, 4]"] ;
1020 -> 1022 ;
1023 [label="last_episode <= 11.5\ngini = 0.4392\nsamples = 43\nvalue = [29, 14]"] ;
967 -> 1023 ;
1024 [label="user_tendency14 <= 0.0402\ngini = 0.48\nsamples = 20\nvalue = [8, 12]"] ;
1023 -> 1024 ;
1025 [label="user_tendency4 <= 0.0992\ngini = 0.2449\nsamples = 7\nvalue = [6, 1]"] ;
1024 -> 1025 ;
1026 [label="gini = 0.0\nsamples = 1\nvalue = [0, 1]"] ;
1025 -> 1026 ;
1027 [label="gini = 0.0\nsamples = 6\nvalue = [6, 0]"] ;
1025 -> 1027 ;
1028 [label="purchasing_power <= 3.5\ngini = 0.2604\nsamples = 13\nvalue = [2, 11]"] ;
1024 -> 1028 ;
1029 [label="plat_A <= 0.5\ngini = 0.4444\nsamples = 3\nvalue = [2, 1]"] ;
1028 -> 1029 ;
1030 [label="gini = 0.0\nsamples = 2\nvalue = [2, 0]"] ;
1029 -> 1030 ;
1031 [label="gini = 0.0\nsamples = 1\nvalue = [0, 1]"] ;
1029 -> 1031 ;
1032 [label="gini = 0.0\nsamples = 10\nvalue = [0, 10]"] ;
1028 -> 1032 ;
1033 [label="coin_needed <= 3.5\ngini = 0.1588\nsamples = 23\nvalue = [21, 2]"] ;
1023 -> 1033 ;
1034 [label="gini = 0.0\nsamples = 21\nvalue = [21, 0]"] ;
1033 -> 1034 ;
1035 [label="gini = 0.0\nsamples = 2\nvalue = [0, 2]"] ;
1033 -> 1035 ;
1036 [label="plat_B <= 0.5\ngini = 0.4946\nsamples = 29\nvalue = [16, 13]"] ;
966 -> 1036 ;
1037 [label="user_tendency5 <= 0.2481\ngini = 0.2449\nsamples = 14\nvalue = [2, 12]"] ;
1036 -> 1037 ;
1038 [label="gini = 0.0\nsamples = 2\nvalue = [2, 0]"] ;
1037 -> 1038 ;
1039 [label="gini = 0.0\nsamples = 12\nvalue = [0, 12]"] ;
1037 -> 1039 ;
1040 [label="total_session <= 314.0\ngini = 0.1244\nsamples = 15\nvalue = [14, 1]"] ;
1036 -> 1040 ;
1041 [label="gini = 0.0\nsamples = 14\nvalue = [14, 0]"] ;
1040 -> 1041 ;
1042 [label="gini = 0.0\nsamples = 1\nvalue = [0, 1]"] ;
1040 -> 1042 ;
1043 [label="gini = 0.0\nsamples = 5\nvalue = [0, 5]"] ;
965 -> 1043 ;
1044 [label="user_tendency13 <= 0.7559\ngini = 0.4855\nsamples = 258\nvalue = [151, 107]"] ;
826 -> 1044 ;
1045 [label="user_tendency4 <= 0.006\ngini = 0.4455\nsamples = 203\nvalue = [135, 68]"] ;
1044 -> 1045 ;
1046 [label="user_tendency3 <= 0.197\ngini = 0.42\nsamples = 190\nvalue = [133, 57]"] ;
1045 -> 1046 ;
1047 [label="privacy_2 <= 0.5\ngini = 0.3943\nsamples = 174\nvalue = [127, 47]"] ;
1046 -> 1047 ;
1048 [label="total_session <= 156.5\ngini = 0.304\nsamples = 107\nvalue = [87, 20]"] ;
1047 -> 1048 ;
1049 [label="purchasing_power <= 2.5\ngini = 0.2276\nsamples = 84\nvalue = [73, 11]"] ;
1048 -> 1049 ;
1050 [label="user_tendency13 <= 0.6396\ngini = 0.4898\nsamples = 7\nvalue = [3, 4]"] ;
1049 -> 1050 ;
1051 [label="gini = 0.0\nsamples = 4\nvalue = [0, 4]"] ;
1050 -> 1051 ;
1052 [label="gini = 0.0\nsamples = 3\nvalue = [3, 0]"] ;
1050 -> 1052 ;
1053 [label="user_tendency13 <= 0.742\ngini = 0.1653\nsamples = 77\nvalue = [70, 7]"] ;
1049 -> 1053 ;
1054 [label="total_session <= 123.0\ngini = 0.1078\nsamples = 70\nvalue = [66, 4]"] ;
1053 -> 1054 ;
1055 [label="user_tendency3 <= 0.1497\ngini = 0.0624\nsamples = 62\nvalue = [60, 2]"] ;
1054 -> 1055 ;
1056 [label="user_tendency8 <= 0.2483\ngini = 0.0333\nsamples = 59\nvalue = [58, 1]"] ;
1055 -> 1056 ;
1057 [label="gini = 0.0\nsamples = 54\nvalue = [54, 0]"] ;
1056 -> 1057 ;
1058 [label="user_tendency8 <= 0.311\ngini = 0.32\nsamples = 5\nvalue = [4, 1]"] ;
1056 -> 1058 ;
1059 [label="gini = 0.0\nsamples = 1\nvalue = [0, 1]"] ;
1058 -> 1059 ;
1060 [label="gini = 0.0\nsamples = 4\nvalue = [4, 0]"] ;
1058 -> 1060 ;
1061 [label="genre12 <= 0.5\ngini = 0.4444\nsamples = 3\nvalue = [2, 1]"] ;
1055 -> 1061 ;
1062 [label="gini = 0.0\nsamples = 2\nvalue = [2, 0]"] ;
1061 -> 1062 ;
1063 [label="gini = 0.0\nsamples = 1\nvalue = [0, 1]"] ;
1061 -> 1063 ;
1064 [label="user_tendency5 <= 0.1556\ngini = 0.375\nsamples = 8\nvalue = [6, 2]"] ;
1054 -> 1064 ;
1065 [label="user_tendency5 <= 0.0837\ngini = 0.4444\nsamples = 3\nvalue = [1, 2]"] ;
1064 -> 1065 ;
1066 [label="gini = 0.0\nsamples = 1\nvalue = [1, 0]"] ;
1065 -> 1066 ;
1067 [label="gini = 0.0\nsamples = 2\nvalue = [0, 2]"] ;
1065 -> 1067 ;
1068 [label="gini = 0.0\nsamples = 5\nvalue = [5, 0]"] ;
1064 -> 1068 ;
1069 [label="total_session <= 51.0\ngini = 0.4898\nsamples = 7\nvalue = [4, 3]"] ;
1053 -> 1069 ;
1070 [label="gini = 0.0\nsamples = 3\nvalue = [0, 3]"] ;
1069 -> 1070 ;
1071 [label="gini = 0.0\nsamples = 4\nvalue = [4, 0]"] ;
1069 -> 1071 ;
1072 [label="user_tendency5 <= 0.104\ngini = 0.4764\nsamples = 23\nvalue = [14, 9]"] ;
1048 -> 1072 ;
1073 [label="gini = 0.0\nsamples = 5\nvalue = [5, 0]"] ;
1072 -> 1073 ;
1074 [label="total_session <= 200.0\ngini = 0.5\nsamples = 18\nvalue = [9, 9]"] ;
1072 -> 1074 ;
1075 [label="total_session <= 171.5\ngini = 0.4444\nsamples = 12\nvalue = [4, 8]"] ;
1074 -> 1075 ;
1076 [label="total_session <= 160.5\ngini = 0.4444\nsamples = 6\nvalue = [4, 2]"] ;
1075 -> 1076 ;
1077 [label="genre5 <= 0.5\ngini = 0.4444\nsamples = 3\nvalue = [1, 2]"] ;
1076 -> 1077 ;
1078 [label="gini = 0.0\nsamples = 2\nvalue = [0, 2]"] ;
1077 -> 1078 ;
1079 [label="gini = 0.0\nsamples = 1\nvalue = [1, 0]"] ;
1077 -> 1079 ;
1080 [label="gini = 0.0\nsamples = 3\nvalue = [3, 0]"] ;
1076 -> 1080 ;
1081 [label="gini = 0.0\nsamples = 6\nvalue = [0, 6]"] ;
1075 -> 1081 ;
1082 [label="user_tendency5 <= 0.13\ngini = 0.2778\nsamples = 6\nvalue = [5, 1]"] ;
1074 -> 1082 ;
1083 [label="gini = 0.0\nsamples = 1\nvalue = [0, 1]"] ;
1082 -> 1083 ;
1084 [label="gini = 0.0\nsamples = 5\nvalue = [5, 0]"] ;
1082 -> 1084 ;
1085 [label="total_session <= 1.5\ngini = 0.4812\nsamples = 67\nvalue = [40, 27]"] ;
1047 -> 1085 ;
1086 [label="genre9 <= 0.5\ngini = 0.2449\nsamples = 7\nvalue = [1, 6]"] ;
1085 -> 1086 ;
1087 [label="gini = 0.0\nsamples = 6\nvalue = [0, 6]"] ;
1086 -> 1087 ;
1088 [label="gini = 0.0\nsamples = 1\nvalue = [1, 0]"] ;
1086 -> 1088 ;
1089 [label="total_session <= 29.5\ngini = 0.455\nsamples = 60\nvalue = [39, 21]"] ;
1085 -> 1089 ;
1090 [label="user_tendency8 <= 0.151\ngini = 0.2355\nsamples = 22\nvalue = [19, 3]"] ;
1089 -> 1090 ;
1091 [label="gini = 0.0\nsamples = 15\nvalue = [15, 0]"] ;
1090 -> 1091 ;
1092 [label="user_tendency5 <= 0.1251\ngini = 0.4898\nsamples = 7\nvalue = [4, 3]"] ;
1090 -> 1092 ;
1093 [label="gini = 0.0\nsamples = 2\nvalue = [2, 0]"] ;
1092 -> 1093 ;
1094 [label="coin_needed <= 1.0\ngini = 0.48\nsamples = 5\nvalue = [2, 3]"] ;
1092 -> 1094 ;
1095 [label="gini = 0.0\nsamples = 2\nvalue = [0, 2]"] ;
1094 -> 1095 ;
1096 [label="total_session <= 19.5\ngini = 0.4444\nsamples = 3\nvalue = [2, 1]"] ;
1094 -> 1096 ;
1097 [label="gini = 0.0\nsamples = 1\nvalue = [0, 1]"] ;
1096 -> 1097 ;
1098 [label="gini = 0.0\nsamples = 2\nvalue = [2, 0]"] ;
1096 -> 1098 ;
1099 [label="total_session <= 38.5\ngini = 0.4986\nsamples = 38\nvalue = [20, 18]"] ;
1089 -> 1099 ;
1100 [label="gini = 0.0\nsamples = 4\nvalue = [0, 4]"] ;
1099 -> 1100 ;
1101 [label="total_episode <= 1.5\ngini = 0.4844\nsamples = 34\nvalue = [20, 14]"] ;
1099 -> 1101 ;
1102 [label="user_tendency5 <= 0.1238\ngini = 0.48\nsamples = 20\nvalue = [8, 12]"] ;
1101 -> 1102 ;
1103 [label="user_tendency5 <= 0.0837\ngini = 0.1975\nsamples = 9\nvalue = [1, 8]"] ;
1102 -> 1103 ;
1104 [label="gini = 0.0\nsamples = 1\nvalue = [1, 0]"] ;
1103 -> 1104 ;
1105 [label="gini = 0.0\nsamples = 8\nvalue = [0, 8]"] ;
1103 -> 1105 ;
1106 [label="total_session <= 321.0\ngini = 0.4628\nsamples = 11\nvalue = [7, 4]"] ;
1102 -> 1106 ;
1107 [label="total_session <= 100.0\ngini = 0.3457\nsamples = 9\nvalue = [7, 2]"] ;
1106 -> 1107 ;
1108 [label="user_tendency5 <= 0.2375\ngini = 0.4444\nsamples = 3\nvalue = [1, 2]"] ;
1107 -> 1108 ;
1109 [label="gini = 0.0\nsamples = 1\nvalue = [1, 0]"] ;
1108 -> 1109 ;
1110 [label="gini = 0.0\nsamples = 2\nvalue = [0, 2]"] ;
1108 -> 1110 ;
1111 [label="gini = 0.0\nsamples = 6\nvalue = [6, 0]"] ;
1107 -> 1111 ;
1112 [label="gini = 0.0\nsamples = 2\nvalue = [0, 2]"] ;
1106 -> 1112 ;
1113 [label="total_session <= 603.5\ngini = 0.2449\nsamples = 14\nvalue = [12, 2]"] ;
1101 -> 1113 ;
1114 [label="user_tendency5 <= 0.3636\ngini = 0.142\nsamples = 13\nvalue = [12, 1]"] ;
1113 -> 1114 ;
1115 [label="gini = 0.0\nsamples = 12\nvalue = [12, 0]"] ;
1114 -> 1115 ;
1116 [label="gini = 0.0\nsamples = 1\nvalue = [0, 1]"] ;
1114 -> 1116 ;
1117 [label="gini = 0.0\nsamples = 1\nvalue = [0, 1]"] ;
1113 -> 1117 ;
1118 [label="user_tendency13 <= 0.4334\ngini = 0.4688\nsamples = 16\nvalue = [6, 10]"] ;
1046 -> 1118 ;
1119 [label="gini = 0.0\nsamples = 4\nvalue = [4, 0]"] ;
1118 -> 1119 ;
1120 [label="user_tendency13 <= 0.5365\ngini = 0.2778\nsamples = 12\nvalue = [2, 10]"] ;
1118 -> 1120 ;
1121 [label="gini = 0.0\nsamples = 8\nvalue = [0, 8]"] ;
1120 -> 1121 ;
1122 [label="user_tendency5 <= 0.0731\ngini = 0.5\nsamples = 4\nvalue = [2, 2]"] ;
1120 -> 1122 ;
1123 [label="gini = 0.0\nsamples = 2\nvalue = [0, 2]"] ;
1122 -> 1123 ;
1124 [label="gini = 0.0\nsamples = 2\nvalue = [2, 0]"] ;
1122 -> 1124 ;
1125 [label="user_tendency14 <= 0.0307\ngini = 0.2604\nsamples = 13\nvalue = [2, 11]"] ;
1045 -> 1125 ;
1126 [label="gini = 0.0\nsamples = 2\nvalue = [2, 0]"] ;
1125 -> 1126 ;
1127 [label="gini = 0.0\nsamples = 11\nvalue = [0, 11]"] ;
1125 -> 1127 ;
1128 [label="genre15 <= 0.5\ngini = 0.4126\nsamples = 55\nvalue = [16, 39]"] ;
1044 -> 1128 ;
1129 [label="gini = 0.0\nsamples = 7\nvalue = [7, 0]"] ;
1128 -> 1129 ;
1130 [label="total_session <= 237.0\ngini = 0.3047\nsamples = 48\nvalue = [9, 39]"] ;
1128 -> 1130 ;
1131 [label="user_tendency13 <= 0.8275\ngini = 0.2055\nsamples = 43\nvalue = [5, 38]"] ;
1130 -> 1131 ;
1132 [label="privacy_2 <= 0.5\ngini = 0.1356\nsamples = 41\nvalue = [3, 38]"] ;
1131 -> 1132 ;
1133 [label="purchasing_power <= 5.5\ngini = 0.2268\nsamples = 23\nvalue = [3, 20]"] ;
1132 -> 1133 ;
1134 [label="gini = 0.0\nsamples = 15\nvalue = [0, 15]"] ;
1133 -> 1134 ;
1135 [label="user_tendency14 <= 0.0513\ngini = 0.4688\nsamples = 8\nvalue = [3, 5]"] ;
1133 -> 1135 ;
1136 [label="total_session <= 71.0\ngini = 0.48\nsamples = 5\nvalue = [3, 2]"] ;
1135 -> 1136 ;
1137 [label="gini = 0.0\nsamples = 2\nvalue = [2, 0]"] ;
1136 -> 1137 ;
1138 [label="purchasing_power <= 7.5\ngini = 0.4444\nsamples = 3\nvalue = [1, 2]"] ;
1136 -> 1138 ;
1139 [label="user_tendency13 <= 0.7767\ngini = 0.5\nsamples = 2\nvalue = [1, 1]"] ;
1138 -> 1139 ;
1140 [label="gini = 0.0\nsamples = 1\nvalue = [0, 1]"] ;
1139 -> 1140 ;
1141 [label="gini = 0.0\nsamples = 1\nvalue = [1, 0]"] ;
1139 -> 1141 ;
1142 [label="gini = 0.0\nsamples = 1\nvalue = [0, 1]"] ;
1138 -> 1142 ;
1143 [label="gini = 0.0\nsamples = 3\nvalue = [0, 3]"] ;
1135 -> 1143 ;
1144 [label="gini = 0.0\nsamples = 18\nvalue = [0, 18]"] ;
1132 -> 1144 ;
1145 [label="gini = 0.0\nsamples = 2\nvalue = [2, 0]"] ;
1131 -> 1145 ;
1146 [label="user_tendency13 <= 0.7767\ngini = 0.32\nsamples = 5\nvalue = [4, 1]"] ;
1130 -> 1146 ;
1147 [label="gini = 0.0\nsamples = 3\nvalue = [3, 0]"] ;
1146 -> 1147 ;
1148 [label="purchasing_power <= 5.5\ngini = 0.5\nsamples = 2\nvalue = [1, 1]"] ;
1146 -> 1148 ;
1149 [label="gini = 0.0\nsamples = 1\nvalue = [1, 0]"] ;
1148 -> 1149 ;
1150 [label="gini = 0.0\nsamples = 1\nvalue = [0, 1]"] ;
1148 -> 1150 ;
1151 [label="total_session <= 6.5\ngini = 0.4914\nsamples = 3634\nvalue = [2055, 1579]"] ;
825 -> 1151 ;
1152 [label="user_tendency5 <= 0.4138\ngini = 0.462\nsamples = 704\nvalue = [255, 449]"] ;
1151 -> 1152 ;
1153 [label="user_tendency13 <= 0.7081\ngini = 0.4289\nsamples = 626\nvalue = [195, 431]"] ;
1152 -> 1153 ;
1154 [label="user_tendency3 <= 0.5803\ngini = 0.3839\nsamples = 525\nvalue = [136, 389]"] ;
1153 -> 1154 ;
1155 [label="user_tendency4 <= 0.3406\ngini = 0.3726\nsamples = 517\nvalue = [128, 389]"] ;
1154 -> 1155 ;
1156 [label="genre17 <= 0.5\ngini = 0.3592\nsamples = 507\nvalue = [119, 388]"] ;
1155 -> 1156 ;
1157 [label="user_tendency5 <= 0.0833\ngini = 0.3494\nsamples = 501\nvalue = [113, 388]"] ;
1156 -> 1157 ;
1158 [label="user_tendency5 <= 0.0422\ngini = 0.4989\nsamples = 42\nvalue = [20, 22]"] ;
1157 -> 1158 ;
1159 [label="last_episode <= 10.5\ngini = 0.1723\nsamples = 21\nvalue = [2, 19]"] ;
1158 -> 1159 ;
1160 [label="gini = 0.0\nsamples = 2\nvalue = [2, 0]"] ;
1159 -> 1160 ;
1161 [label="gini = 0.0\nsamples = 19\nvalue = [0, 19]"] ;
1159 -> 1161 ;
1162 [label="comic_start <= 12.0\ngini = 0.2449\nsamples = 21\nvalue = [18, 3]"] ;
1158 -> 1162 ;
1163 [label="genre6 <= 0.5\ngini = 0.18\nsamples = 20\nvalue = [18, 2]"] ;
1162 -> 1163 ;
1164 [label="gini = 0.0\nsamples = 16\nvalue = [16, 0]"] ;
1163 -> 1164 ;
1165 [label="total_episode <= 7.5\ngini = 0.5\nsamples = 4\nvalue = [2, 2]"] ;
1163 -> 1165 ;
1166 [label="schedule3 <= 0.5\ngini = 0.4444\nsamples = 3\nvalue = [1, 2]"] ;
1165 -> 1166 ;
1167 [label="gini = 0.5\nsamples = 2\nvalue = [1, 1]"] ;
1166 -> 1167 ;
1168 [label="gini = 0.0\nsamples = 1\nvalue = [0, 1]"] ;
1166 -> 1168 ;
1169 [label="gini = 0.0\nsamples = 1\nvalue = [1, 0]"] ;
1165 -> 1169 ;
1170 [label="gini = 0.0\nsamples = 1\nvalue = [0, 1]"] ;
1162 -> 1170 ;
1171 [label="genre3 <= 0.5\ngini = 0.3231\nsamples = 459\nvalue = [93, 366]"] ;
1157 -> 1171 ;
1172 [label="user_tendency13 <= 0.4104\ngini = 0.297\nsamples = 430\nvalue = [78, 352]"] ;
1171 -> 1172 ;
1173 [label="user_tendency12 <= 0.2111\ngini = 0.1965\nsamples = 172\nvalue = [19, 153]"] ;
1172 -> 1173 ;
1174 [label="genre12 <= 0.5\ngini = 0.1809\nsamples = 169\nvalue = [17, 152]"] ;
1173 -> 1174 ;
1175 [label="comic_tag1 <= 0.5\ngini = 0.1723\nsamples = 168\nvalue = [16, 152]"] ;
1174 -> 1175 ;
1176 [label="schedule1 <= 0.5\ngini = 0.1635\nsamples = 167\nvalue = [15, 152]"] ;
1175 -> 1176 ;
1177 [label="gini = 0.1544\nsamples = 166\nvalue = [14, 152]"] ;
1176 -> 1177 ;
1178 [label="gini = 0.0\nsamples = 1\nvalue = [1, 0]"] ;
1176 -> 1178 ;
1179 [label="gini = 0.0\nsamples = 1\nvalue = [1, 0]"] ;
1175 -> 1179 ;
1180 [label="gini = 0.0\nsamples = 1\nvalue = [1, 0]"] ;
1174 -> 1180 ;
1181 [label="total_session <= 5.5\ngini = 0.4444\nsamples = 3\nvalue = [2, 1]"] ;
1173 -> 1181 ;
1182 [label="gini = 0.0\nsamples = 2\nvalue = [2, 0]"] ;
1181 -> 1182 ;
1183 [label="gini = 0.0\nsamples = 1\nvalue = [0, 1]"] ;
1181 -> 1183 ;
1184 [label="comic_start <= 10.5\ngini = 0.3528\nsamples = 258\nvalue = [59, 199]"] ;
1172 -> 1184 ;
1185 [label="schedule7 <= 0.5\ngini = 0.3219\nsamples = 248\nvalue = [50, 198]"] ;
1184 -> 1185 ;
1186 [label="schedule4 <= 0.5\ngini = 0.3018\nsamples = 243\nvalue = [45, 198]"] ;
1185 -> 1186 ;
1187 [label="user_tendency8 <= 0.2085\ngini = 0.272\nsamples = 234\nvalue = [38, 196]"] ;
1186 -> 1187 ;
1188 [label="gini = 0.2519\nsamples = 230\nvalue = [34, 196]"] ;
1187 -> 1188 ;
1189 [label="gini = 0.0\nsamples = 4\nvalue = [4, 0]"] ;
1187 -> 1189 ;
1190 [label="user_tendency14 <= 0.1856\ngini = 0.3457\nsamples = 9\nvalue = [7, 2]"] ;
1186 -> 1190 ;
1191 [label="gini = 0.0\nsamples = 6\nvalue = [6, 0]"] ;
1190 -> 1191 ;
1192 [label="gini = 0.4444\nsamples = 3\nvalue = [1, 2]"] ;
1190 -> 1192 ;
1193 [label="gini = 0.0\nsamples = 5\nvalue = [5, 0]"] ;
1185 -> 1193 ;
