digraph Tree {
node [shape=box] ;
0 [label="comic_tag1 <= 0.5\ngini = 0.4493\nsamples = 650965\nvalue = [429172, 221793]"] ;
1 [label="last_episode <= 16.5\ngini = 0.3772\nsamples = 405882\nvalue = [303526, 102356]"] ;
0 -> 1 [labeldistance=2.5, labelangle=45, headlabel="True"] ;
2 [label="total_episode <= 3.5\ngini = 0.4991\nsamples = 55336\nvalue = [28871, 26465]"] ;
1 -> 2 ;
3 [label="total_episode <= 2.5\ngini = 0.4512\nsamples = 15509\nvalue = [10177, 5332]"] ;
2 -> 3 ;
4 [label="total_episode <= 0.5\ngini = 0.3868\nsamples = 6947\nvalue = [5126, 1821]"] ;
3 -> 4 ;
5 [label="last_episode <= 3.5\ngini = 0.1982\nsamples = 1327\nvalue = [1179, 148]"] ;
4 -> 5 ;
6 [label="total_session <= 67.0\ngini = 0.4918\nsamples = 39\nvalue = [22, 17]"] ;
5 -> 6 ;
7 [label="purchasing_power <= 3.5\ngini = 0.4688\nsamples = 24\nvalue = [9, 15]"] ;
6 -> 7 ;
8 [label="plat_A <= 0.5\ngini = 0.4339\nsamples = 22\nvalue = [7, 15]"] ;
7 -> 8 ;
9 [label="genre17 <= 0.5\ngini = 0.4844\nsamples = 17\nvalue = [7, 10]"] ;
8 -> 9 ;
10 [label="gini = 0.4688\nsamples = 16\nvalue = [6, 10]"] ;
9 -> 10 ;
11 [label="gini = 0.0\nsamples = 1\nvalue = [1, 0]"] ;
9 -> 11 ;
12 [label="gini = 0.0\nsamples = 5\nvalue = [0, 5]"] ;
8 -> 12 ;
13 [label="gini = 0.0\nsamples = 2\nvalue = [2, 0]"] ;
7 -> 13 ;
14 [label="genre12 <= 0.5\ngini = 0.2311\nsamples = 15\nvalue = [13, 2]"] ;
6 -> 14 ;
15 [label="plat_D <= 0.5\ngini = 0.4444\nsamples = 3\nvalue = [1, 2]"] ;
14 -> 15 ;
16 [label="gini = 0.0\nsamples = 2\nvalue = [0, 2]"] ;
15 -> 16 ;
17 [label="gini = 0.0\nsamples = 1\nvalue = [1, 0]"] ;
15 -> 17 ;
18 [label="gini = 0.0\nsamples = 12\nvalue = [12, 0]"] ;
14 -> 18 ;
19 [label="plat_B <= 0.5\ngini = 0.1827\nsamples = 1288\nvalue = [1157, 131]"] ;
5 -> 19 ;
20 [label="genre3 <= 0.5\ngini = 0.235\nsamples = 625\nvalue = [540, 85]"] ;
19 -> 20 ;
21 [label="coin_needed <= 3.5\ngini = 0.1823\nsamples = 414\nvalue = [372, 42]"] ;
20 -> 21 ;
22 [label="genre15 <= 0.5\ngini = 0.1524\nsamples = 373\nvalue = [342, 31]"] ;
21 -> 22 ;
23 [label="gini = 0.0485\nsamples = 201\nvalue = [196, 5]"] ;
22 -> 23 ;
24 [label="gini = 0.2566\nsamples = 172\nvalue = [146, 26]"] ;
22 -> 24 ;
25 [label="total_session <= 18.5\ngini = 0.3926\nsamples = 41\nvalue = [30, 11]"] ;
21 -> 25 ;
26 [label="gini = 0.4922\nsamples = 16\nvalue = [7, 9]"] ;
25 -> 26 ;
27 [label="gini = 0.1472\nsamples = 25\nvalue = [23, 2]"] ;
25 -> 27 ;
28 [label="plat_C <= 0.5\ngini = 0.3245\nsamples = 211\nvalue = [168, 43]"] ;
20 -> 28 ;
29 [label="comic_start <= 14.5\ngini = 0.2631\nsamples = 154\nvalue = [130, 24]"] ;
28 -> 29 ;
30 [label="gini = 0.3409\nsamples = 78\nvalue = [61, 17]"] ;
29 -> 30 ;
31 [label="gini = 0.1672\nsamples = 76\nvalue = [69, 7]"] ;
29 -> 31 ;
32 [label="total_session <= 292.5\ngini = 0.4444\nsamples = 57\nvalue = [38, 19]"] ;
28 -> 32 ;
33 [label="gini = 0.4817\nsamples = 47\nvalue = [28, 19]"] ;
32 -> 33 ;
34 [label="gini = 0.0\nsamples = 10\nvalue = [10, 0]"] ;
32 -> 34 ;
35 [label="last_episode <= 13.5\ngini = 0.1291\nsamples = 663\nvalue = [617, 46]"] ;
19 -> 35 ;
36 [label="genre12 <= 0.5\ngini = 0.0575\nsamples = 270\nvalue = [262, 8]"] ;
35 -> 36 ;
37 [label="genre6 <= 0.5\ngini = 0.0511\nsamples = 267\nvalue = [260, 7]"] ;
36 -> 37 ;
38 [label="gini = 0.0265\nsamples = 223\nvalue = [220, 3]"] ;
37 -> 38 ;
39 [label="gini = 0.1653\nsamples = 44\nvalue = [40, 4]"] ;
37 -> 39 ;
40 [label="total_session <= 8.0\ngini = 0.4444\nsamples = 3\nvalue = [2, 1]"] ;
36 -> 40 ;
41 [label="gini = 0.0\nsamples = 1\nvalue = [1, 0]"] ;
40 -> 41 ;
42 [label="gini = 0.5\nsamples = 2\nvalue = [1, 1]"] ;
40 -> 42 ;
43 [label="genre14 <= 0.5\ngini = 0.1747\nsamples = 393\nvalue = [355, 38]"] ;
35 -> 43 ;
44 [label="genre5 <= 0.5\ngini = 0.171\nsamples = 392\nvalue = [355, 37]"] ;
43 -> 44 ;
45 [label="gini = 0.1512\nsamples = 364\nvalue = [334, 30]"] ;
44 -> 45 ;
46 [label="gini = 0.375\nsamples = 28\nvalue = [21, 7]"] ;
44 -> 46 ;
47 [label="gini = 0.0\nsamples = 1\nvalue = [0, 1]"] ;
43 -> 47 ;
48 [label="genre6 <= 0.5\ngini = 0.4181\nsamples = 5620\nvalue = [3947, 1673]"] ;
4 -> 48 ;
49 [label="total_episode <= 1.5\ngini = 0.3991\nsamples = 4626\nvalue = [3352, 1274]"] ;
48 -> 49 ;
50 [label="comic_start <= 13.5\ngini = 0.3334\nsamples = 2020\nvalue = [1593, 427]"] ;
49 -> 50 ;
51 [label="schedule5 <= 0.5\ngini = 0.2702\nsamples = 1236\nvalue = [1037, 199]"] ;
50 -> 51 ;
52 [label="total_session <= 1.5\ngini = 0.3007\nsamples = 1020\nvalue = [832, 188]"] ;
51 -> 52 ;
53 [label="gini = 0.4414\nsamples = 73\nvalue = [49, 24]"] ;
52 -> 53 ;
54 [label="gini = 0.2864\nsamples = 947\nvalue = [783, 164]"] ;
52 -> 54 ;
55 [label="plat_B <= 0.5\ngini = 0.0967\nsamples = 216\nvalue = [205, 11]"] ;
51 -> 55 ;
56 [label="gini = 0.1368\nsamples = 149\nvalue = [138, 11]"] ;
55 -> 56 ;
57 [label="gini = 0.0\nsamples = 67\nvalue = [67, 0]"] ;
55 -> 57 ;
58 [label="plat_B <= 0.5\ngini = 0.4125\nsamples = 784\nvalue = [556, 228]"] ;
50 -> 58 ;
59 [label="last_episode <= 14.5\ngini = 0.4719\nsamples = 367\nvalue = [227, 140]"] ;
58 -> 59 ;
60 [label="gini = 0.4986\nsamples = 230\nvalue = [121, 109]"] ;
59 -> 60 ;
61 [label="gini = 0.3502\nsamples = 137\nvalue = [106, 31]"] ;
59 -> 61 ;
62 [label="total_session <= 3.5\ngini = 0.333\nsamples = 417\nvalue = [329, 88]"] ;
58 -> 62 ;
63 [label="gini = 0.4537\nsamples = 46\nvalue = [30, 16]"] ;
62 -> 63 ;
64 [label="gini = 0.3128\nsamples = 371\nvalue = [299, 72]"] ;
62 -> 64 ;
65 [label="schedule5 <= 0.5\ngini = 0.4388\nsamples = 2606\nvalue = [1759, 847]"] ;
49 -> 65 ;
66 [label="schedule3 <= 0.5\ngini = 0.4102\nsamples = 1954\nvalue = [1391, 563]"] ;
65 -> 66 ;
67 [label="genre3 <= 0.5\ngini = 0.3607\nsamples = 1470\nvalue = [1123, 347]"] ;
66 -> 67 ;
68 [label="gini = 0.2481\nsamples = 579\nvalue = [495, 84]"] ;
67 -> 68 ;
69 [label="gini = 0.4161\nsamples = 891\nvalue = [628, 263]"] ;
67 -> 69 ;
70 [label="plat_D <= 0.5\ngini = 0.4942\nsamples = 484\nvalue = [268, 216]"] ;
66 -> 70 ;
71 [label="gini = 0.4695\nsamples = 324\nvalue = [202, 122]"] ;
70 -> 71 ;
72 [label="gini = 0.4847\nsamples = 160\nvalue = [66, 94]"] ;
70 -> 72 ;
73 [label="comic_start <= 11.0\ngini = 0.4917\nsamples = 652\nvalue = [368, 284]"] ;
65 -> 73 ;
74 [label="genre5 <= 0.5\ngini = 0.4965\nsamples = 594\nvalue = [322, 272]"] ;
73 -> 74 ;
75 [label="gini = 0.4973\nsamples = 587\nvalue = [315, 272]"] ;
74 -> 75 ;
76 [label="gini = 0.0\nsamples = 7\nvalue = [7, 0]"] ;
74 -> 76 ;
77 [label="total_session <= 249.0\ngini = 0.3282\nsamples = 58\nvalue = [46, 12]"] ;
73 -> 77 ;
78 [label="gini = 0.2737\nsamples = 55\nvalue = [46, 9]"] ;
77 -> 78 ;
79 [label="gini = 0.0\nsamples = 3\nvalue = [0, 3]"] ;
77 -> 79 ;
80 [label="comic_start <= 12.5\ngini = 0.4806\nsamples = 994\nvalue = [595, 399]"] ;
48 -> 80 ;
81 [label="total_session <= 224.5\ngini = 0.2224\nsamples = 204\nvalue = [178, 26]"] ;
80 -> 81 ;
82 [label="genre5 <= 0.5\ngini = 0.1836\nsamples = 176\nvalue = [158, 18]"] ;
81 -> 82 ;
83 [label="plat_B <= 0.5\ngini = 0.1544\nsamples = 166\nvalue = [152, 14]"] ;
82 -> 83 ;
84 [label="gini = 0.0519\nsamples = 75\nvalue = [73, 2]"] ;
83 -> 84 ;
85 [label="gini = 0.229\nsamples = 91\nvalue = [79, 12]"] ;
83 -> 85 ;
86 [label="total_session <= 63.0\ngini = 0.48\nsamples = 10\nvalue = [6, 4]"] ;
82 -> 86 ;
87 [label="gini = 0.0\nsamples = 5\nvalue = [5, 0]"] ;
86 -> 87 ;
88 [label="gini = 0.32\nsamples = 5\nvalue = [1, 4]"] ;
86 -> 88 ;
89 [label="total_session <= 234.5\ngini = 0.4082\nsamples = 28\nvalue = [20, 8]"] ;
81 -> 89 ;
90 [label="gini = 0.0\nsamples = 2\nvalue = [0, 2]"] ;
89 -> 90 ;
91 [label="plat_D <= 0.5\ngini = 0.355\nsamples = 26\nvalue = [20, 6]"] ;
89 -> 91 ;
92 [label="gini = 0.255\nsamples = 20\nvalue = [17, 3]"] ;
91 -> 92 ;
93 [label="gini = 0.5\nsamples = 6\nvalue = [3, 3]"] ;
91 -> 93 ;
94 [label="total_episode <= 1.5\ngini = 0.4984\nsamples = 790\nvalue = [417, 373]"] ;
80 -> 94 ;
95 [label="total_session <= 1.5\ngini = 0.4999\nsamples = 717\nvalue = [363, 354]"] ;
94 -> 95 ;
96 [label="coin_needed <= 1.5\ngini = 0.3018\nsamples = 27\nvalue = [5, 22]"] ;
95 -> 96 ;
97 [label="gini = 0.0\nsamples = 1\nvalue = [1, 0]"] ;
96 -> 97 ;
98 [label="gini = 0.2604\nsamples = 26\nvalue = [4, 22]"] ;
96 -> 98 ;
99 [label="plat_B <= 0.5\ngini = 0.4993\nsamples = 690\nvalue = [358, 332]"] ;
95 -> 99 ;
100 [label="gini = 0.4991\nsamples = 445\nvalue = [213, 232]"] ;
99 -> 100 ;
101 [label="gini = 0.4831\nsamples = 245\nvalue = [145, 100]"] ;
99 -> 101 ;
102 [label="comic_start <= 15.5\ngini = 0.3851\nsamples = 73\nvalue = [54, 19]"] ;
94 -> 102 ;
103 [label="total_session <= 92.5\ngini = 0.3562\nsamples = 69\nvalue = [53, 16]"] ;
102 -> 103 ;
104 [label="gini = 0.2337\nsamples = 37\nvalue = [32, 5]"] ;
103 -> 104 ;
105 [label="gini = 0.4512\nsamples = 32\nvalue = [21, 11]"] ;
103 -> 105 ;
106 [label="genre1 <= 0.5\ngini = 0.375\nsamples = 4\nvalue = [1, 3]"] ;
102 -> 106 ;
107 [label="gini = 0.0\nsamples = 3\nvalue = [0, 3]"] ;
106 -> 107 ;
108 [label="gini = 0.0\nsamples = 1\nvalue = [1, 0]"] ;
106 -> 108 ;
109 [label="plat_D <= 0.5\ngini = 0.4838\nsamples = 8562\nvalue = [5051, 3511]"] ;
3 -> 109 ;
110 [label="last_episode <= 13.5\ngini = 0.4614\nsamples = 5598\nvalue = [3577, 2021]"] ;
109 -> 110 ;
111 [label="genre5 <= 0.5\ngini = 0.4778\nsamples = 4128\nvalue = [2499, 1629]"] ;
110 -> 111 ;
112 [label="comic_start <= 2.5\ngini = 0.4672\nsamples = 3618\nvalue = [2272, 1346]"] ;
111 -> 112 ;
113 [label="genre15 <= 0.5\ngini = 0.3465\nsamples = 462\nvalue = [359, 103]"] ;
112 -> 113 ;
114 [label="total_session <= 71.5\ngini = 0.4886\nsamples = 212\nvalue = [122, 90]"] ;
113 -> 114 ;
115 [label="gini = 0.5\nsamples = 147\nvalue = [73, 74]"] ;
114 -> 115 ;
116 [label="gini = 0.3711\nsamples = 65\nvalue = [49, 16]"] ;
114 -> 116 ;
117 [label="purchasing_power <= 2.5\ngini = 0.0986\nsamples = 250\nvalue = [237, 13]"] ;
113 -> 117 ;
118 [label="gini = 0.0\nsamples = 128\nvalue = [128, 0]"] ;
117 -> 118 ;
119 [label="gini = 0.1904\nsamples = 122\nvalue = [109, 13]"] ;
117 -> 119 ;
120 [label="genre17 <= 0.5\ngini = 0.4775\nsamples = 3156\nvalue = [1913, 1243]"] ;
112 -> 120 ;
121 [label="genre3 <= 0.5\ngini = 0.4804\nsamples = 3097\nvalue = [1855, 1242]"] ;
120 -> 121 ;
122 [label="gini = 0.47\nsamples = 2492\nvalue = [1551, 941]"] ;
121 -> 122 ;
123 [label="gini = 0.5\nsamples = 605\nvalue = [304, 301]"] ;
121 -> 123 ;
124 [label="comic_start <= 8.5\ngini = 0.0333\nsamples = 59\nvalue = [58, 1]"] ;
120 -> 124 ;
125 [label="gini = 0.0\nsamples = 53\nvalue = [53, 0]"] ;
124 -> 125 ;
126 [label="gini = 0.2778\nsamples = 6\nvalue = [5, 1]"] ;
124 -> 126 ;
127 [label="plat_C <= 0.5\ngini = 0.494\nsamples = 510\nvalue = [227, 283]"] ;
111 -> 127 ;
128 [label="total_session <= 402.5\ngini = 0.5\nsamples = 363\nvalue = [183, 180]"] ;
127 -> 128 ;
129 [label="total_session <= 16.5\ngini = 0.4989\nsamples = 346\nvalue = [181, 165]"] ;
128 -> 129 ;
130 [label="gini = 0.4512\nsamples = 64\nvalue = [42, 22]"] ;
129 -> 130 ;
131 [label="gini = 0.4999\nsamples = 282\nvalue = [139, 143]"] ;
129 -> 131 ;
132 [label="total_session <= 501.5\ngini = 0.2076\nsamples = 17\nvalue = [2, 15]"] ;
128 -> 132 ;
133 [label="gini = 0.3457\nsamples = 9\nvalue = [2, 7]"] ;
132 -> 133 ;
134 [label="gini = 0.0\nsamples = 8\nvalue = [0, 8]"] ;
132 -> 134 ;
135 [label="total_session <= 56.5\ngini = 0.4195\nsamples = 147\nvalue = [44, 103]"] ;
127 -> 135 ;
136 [label="total_session <= 20.5\ngini = 0.4875\nsamples = 19\nvalue = [11, 8]"] ;
135 -> 136 ;
137 [label="gini = 0.4628\nsamples = 11\nvalue = [4, 7]"] ;
136 -> 137 ;
138 [label="gini = 0.2188\nsamples = 8\nvalue = [7, 1]"] ;
136 -> 138 ;
139 [label="total_session <= 747.5\ngini = 0.3827\nsamples = 128\nvalue = [33, 95]"] ;
135 -> 139 ;
140 [label="gini = 0.3648\nsamples = 125\nvalue = [30, 95]"] ;
139 -> 140 ;
141 [label="gini = 0.0\nsamples = 3\nvalue = [3, 0]"] ;
139 -> 141 ;
142 [label="total_session <= 246.0\ngini = 0.3911\nsamples = 1470\nvalue = [1078, 392]"] ;
110 -> 142 ;
143 [label="end <= 0.5\ngini = 0.3721\nsamples = 1315\nvalue = [990, 325]"] ;
142 -> 143 ;
144 [label="purchasing_power <= 1.5\ngini = 0.4707\nsamples = 161\nvalue = [100, 61]"] ;
143 -> 144 ;
145 [label="total_session <= 13.0\ngini = 0.4997\nsamples = 76\nvalue = [39, 37]"] ;
144 -> 145 ;
146 [label="gini = 0.0\nsamples = 13\nvalue = [13, 0]"] ;
145 -> 146 ;
147 [label="gini = 0.4848\nsamples = 63\nvalue = [26, 37]"] ;
145 -> 147 ;
148 [label="total_session <= 2.5\ngini = 0.4053\nsamples = 85\nvalue = [61, 24]"] ;
144 -> 148 ;
149 [label="gini = 0.4297\nsamples = 16\nvalue = [5, 11]"] ;
148 -> 149 ;
150 [label="gini = 0.3058\nsamples = 69\nvalue = [56, 13]"] ;
148 -> 150 ;
151 [label="genre1 <= 0.5\ngini = 0.3529\nsamples = 1154\nvalue = [890, 264]"] ;
143 -> 151 ;
152 [label="plat_B <= 0.5\ngini = 0.3229\nsamples = 904\nvalue = [721, 183]"] ;
151 -> 152 ;
153 [label="gini = 0.3777\nsamples = 368\nvalue = [275, 93]"] ;
152 -> 153 ;
154 [label="gini = 0.2794\nsamples = 536\nvalue = [446, 90]"] ;
152 -> 154 ;
155 [label="total_session <= 71.5\ngini = 0.438\nsamples = 250\nvalue = [169, 81]"] ;
151 -> 155 ;
156 [label="gini = 0.4937\nsamples = 151\nvalue = [84, 67]"] ;
155 -> 156 ;
157 [label="gini = 0.2428\nsamples = 99\nvalue = [85, 14]"] ;
155 -> 157 ;
158 [label="total_session <= 927.0\ngini = 0.4908\nsamples = 155\nvalue = [88, 67]"] ;
142 -> 158 ;
159 [label="total_session <= 280.5\ngini = 0.4836\nsamples = 149\nvalue = [88, 61]"] ;
158 -> 159 ;
160 [label="last_episode <= 14.5\ngini = 0.4821\nsamples = 37\nvalue = [15, 22]"] ;
159 -> 160 ;
161 [label="gini = 0.0\nsamples = 5\nvalue = [5, 0]"] ;
160 -> 161 ;
162 [label="gini = 0.4297\nsamples = 32\nvalue = [10, 22]"] ;
160 -> 162 ;
163 [label="coin_needed <= 2.5\ngini = 0.4539\nsamples = 112\nvalue = [73, 39]"] ;
159 -> 163 ;
164 [label="gini = 0.3607\nsamples = 72\nvalue = [55, 17]"] ;
163 -> 164 ;
165 [label="gini = 0.495\nsamples = 40\nvalue = [18, 22]"] ;
163 -> 165 ;
166 [label="gini = 0.0\nsamples = 6\nvalue = [0, 6]"] ;
158 -> 166 ;
167 [label="end <= 0.5\ngini = 0.5\nsamples = 2964\nvalue = [1474, 1490]"] ;
109 -> 167 ;
168 [label="last_episode <= 15.0\ngini = 0.2932\nsamples = 241\nvalue = [198, 43]"] ;
167 -> 168 ;
169 [label="total_session <= 12.0\ngini = 0.2637\nsamples = 224\nvalue = [189, 35]"] ;
168 -> 169 ;
170 [label="total_session <= 8.0\ngini = 0.4608\nsamples = 25\nvalue = [16, 9]"] ;
169 -> 170 ;
171 [label="purchasing_power <= 2.5\ngini = 0.4082\nsamples = 21\nvalue = [15, 6]"] ;
170 -> 171 ;
172 [label="gini = 0.497\nsamples = 13\nvalue = [7, 6]"] ;
171 -> 172 ;
173 [label="gini = 0.0\nsamples = 8\nvalue = [8, 0]"] ;
171 -> 173 ;
174 [label="total_session <= 10.0\ngini = 0.375\nsamples = 4\nvalue = [1, 3]"] ;
170 -> 174 ;
175 [label="gini = 0.4444\nsamples = 3\nvalue = [1, 2]"] ;
174 -> 175 ;
176 [label="gini = 0.0\nsamples = 1\nvalue = [0, 1]"] ;
174 -> 176 ;
177 [label="total_session <= 422.5\ngini = 0.2272\nsamples = 199\nvalue = [173, 26]"] ;
169 -> 177 ;
178 [label="total_session <= 126.0\ngini = 0.2022\nsamples = 184\nvalue = [163, 21]"] ;
177 -> 178 ;
179 [label="gini = 0.2817\nsamples = 112\nvalue = [93, 19]"] ;
178 -> 179 ;
180 [label="gini = 0.054\nsamples = 72\nvalue = [70, 2]"] ;
178 -> 180 ;
181 [label="total_session <= 464.5\ngini = 0.4444\nsamples = 15\nvalue = [10, 5]"] ;
177 -> 181 ;
182 [label="gini = 0.0\nsamples = 2\nvalue = [0, 2]"] ;
181 -> 182 ;
183 [label="gini = 0.355\nsamples = 13\nvalue = [10, 3]"] ;
181 -> 183 ;
184 [label="total_session <= 48.5\ngini = 0.4983\nsamples = 17\nvalue = [9, 8]"] ;
168 -> 184 ;
185 [label="purchasing_power <= 1.5\ngini = 0.2188\nsamples = 8\nvalue = [7, 1]"] ;
184 -> 185 ;
186 [label="coin_needed <= 1.0\ngini = 0.4444\nsamples = 3\nvalue = [2, 1]"] ;
185 -> 186 ;
187 [label="gini = 0.5\nsamples = 2\nvalue = [1, 1]"] ;
186 -> 187 ;
188 [label="gini = 0.0\nsamples = 1\nvalue = [1, 0]"] ;
186 -> 188 ;
189 [label="gini = 0.0\nsamples = 5\nvalue = [5, 0]"] ;
185 -> 189 ;
190 [label="total_session <= 176.0\ngini = 0.3457\nsamples = 9\nvalue = [2, 7]"] ;
184 -> 190 ;
191 [label="gini = 0.0\nsamples = 7\nvalue = [0, 7]"] ;
190 -> 191 ;
192 [label="gini = 0.0\nsamples = 2\nvalue = [2, 0]"] ;
190 -> 192 ;
193 [label="last_episode <= 13.5\ngini = 0.498\nsamples = 2723\nvalue = [1276, 1447]"] ;
167 -> 193 ;
194 [label="schedule4 <= 0.5\ngini = 0.489\nsamples = 2073\nvalue = [883, 1190]"] ;
193 -> 194 ;
195 [label="total_session <= 130.5\ngini = 0.4861\nsamples = 2040\nvalue = [850, 1190]"] ;
194 -> 195 ;
196 [label="schedule3 <= 0.5\ngini = 0.497\nsamples = 1311\nvalue = [605, 706]"] ;
195 -> 196 ;
197 [label="gini = 0.4946\nsamples = 1239\nvalue = [555, 684]"] ;
196 -> 197 ;
198 [label="gini = 0.4244\nsamples = 72\nvalue = [50, 22]"] ;
196 -> 198 ;
199 [label="genre1 <= 0.5\ngini = 0.4463\nsamples = 729\nvalue = [245, 484]"] ;
195 -> 199 ;
200 [label="gini = 0.442\nsamples = 722\nvalue = [238, 484]"] ;
199 -> 200 ;
201 [label="gini = 0.0\nsamples = 7\nvalue = [7, 0]"] ;
199 -> 201 ;
202 [label="gini = 0.0\nsamples = 33\nvalue = [33, 0]"] ;
194 -> 202 ;
203 [label="total_session <= 340.5\ngini = 0.4781\nsamples = 650\nvalue = [393, 257]"] ;
193 -> 203 ;
204 [label="last_episode <= 15.5\ngini = 0.4652\nsamples = 595\nvalue = [376, 219]"] ;
203 -> 204 ;
205 [label="total_session <= 32.5\ngini = 0.4332\nsamples = 416\nvalue = [284, 132]"] ;
204 -> 205 ;
206 [label="gini = 0.4844\nsamples = 136\nvalue = [80, 56]"] ;
205 -> 206 ;
207 [label="gini = 0.3955\nsamples = 280\nvalue = [204, 76]"] ;
205 -> 207 ;
208 [label="genre4 <= 0.5\ngini = 0.4996\nsamples = 179\nvalue = [92, 87]"] ;
204 -> 208 ;
209 [label="gini = 0.4999\nsamples = 172\nvalue = [85, 87]"] ;
208 -> 209 ;
210 [label="gini = 0.0\nsamples = 7\nvalue = [7, 0]"] ;
208 -> 210 ;
211 [label="book <= 0.5\ngini = 0.4271\nsamples = 55\nvalue = [17, 38]"] ;
203 -> 211 ;
212 [label="purchasing_power <= 1.5\ngini = 0.3648\nsamples = 50\nvalue = [12, 38]"] ;
211 -> 212 ;
213 [label="gini = 0.0\nsamples = 11\nvalue = [0, 11]"] ;
212 -> 213 ;
214 [label="gini = 0.426\nsamples = 39\nvalue = [12, 27]"] ;
212 -> 214 ;
215 [label="gini = 0.0\nsamples = 5\nvalue = [5, 0]"] ;
211 -> 215 ;
216 [label="plat_D <= 0.5\ngini = 0.4981\nsamples = 39827\nvalue = [18694, 21133]"] ;
2 -> 216 ;
217 [label="end <= 0.5\ngini = 0.4994\nsamples = 27650\nvalue = [14293, 13357]"] ;
216 -> 217 ;
218 [label="total_session <= 5.5\ngini = 0.3933\nsamples = 1981\nvalue = [1448, 533]"] ;
217 -> 218 ;
219 [label="last_episode <= 15.5\ngini = 0.4938\nsamples = 243\nvalue = [108, 135]"] ;
218 -> 219 ;
220 [label="plat_A <= 0.5\ngini = 0.4592\nsamples = 56\nvalue = [36, 20]"] ;
219 -> 220 ;
221 [label="total_episode <= 5.0\ngini = 0.32\nsamples = 30\nvalue = [24, 6]"] ;
220 -> 221 ;
222 [label="total_session <= 2.5\ngini = 0.48\nsamples = 15\nvalue = [9, 6]"] ;
221 -> 222 ;
223 [label="gini = 0.32\nsamples = 10\nvalue = [8, 2]"] ;
222 -> 223 ;
224 [label="gini = 0.32\nsamples = 5\nvalue = [1, 4]"] ;
222 -> 224 ;
225 [label="gini = 0.0\nsamples = 15\nvalue = [15, 0]"] ;
221 -> 225 ;
226 [label="purchasing_power <= 1.5\ngini = 0.497\nsamples = 26\nvalue = [12, 14]"] ;
220 -> 226 ;
227 [label="total_session <= 1.5\ngini = 0.355\nsamples = 13\nvalue = [3, 10]"] ;
226 -> 227 ;
228 [label="gini = 0.0\nsamples = 1\nvalue = [1, 0]"] ;
227 -> 228 ;
229 [label="gini = 0.2778\nsamples = 12\nvalue = [2, 10]"] ;
227 -> 229 ;
230 [label="purchasing_power <= 3.5\ngini = 0.426\nsamples = 13\nvalue = [9, 4]"] ;
226 -> 230 ;
231 [label="gini = 0.0\nsamples = 7\nvalue = [7, 0]"] ;
230 -> 231 ;
232 [label="gini = 0.4444\nsamples = 6\nvalue = [2, 4]"] ;
230 -> 232 ;
233 [label="schedule7 <= 0.5\ngini = 0.4736\nsamples = 187\nvalue = [72, 115]"] ;
219 -> 233 ;
234 [label="purchasing_power <= 2.5\ngini = 0.4585\nsamples = 177\nvalue = [63, 114]"] ;
233 -> 234 ;
235 [label="genre13 <= 0.5\ngini = 0.4142\nsamples = 99\nvalue = [29, 70]"] ;
234 -> 235 ;
236 [label="gini = 0.4342\nsamples = 91\nvalue = [29, 62]"] ;
235 -> 236 ;
237 [label="gini = 0.0\nsamples = 8\nvalue = [0, 8]"] ;
235 -> 237 ;
238 [label="plat_C <= 0.5\ngini = 0.4918\nsamples = 78\nvalue = [34, 44]"] ;
234 -> 238 ;
239 [label="gini = 0.485\nsamples = 75\nvalue = [31, 44]"] ;
238 -> 239 ;
240 [label="gini = 0.0\nsamples = 3\nvalue = [3, 0]"] ;
238 -> 240 ;
241 [label="purchasing_power <= 1.5\ngini = 0.18\nsamples = 10\nvalue = [9, 1]"] ;
233 -> 241 ;
242 [label="plat_B <= 0.5\ngini = 0.5\nsamples = 2\nvalue = [1, 1]"] ;
241 -> 242 ;
243 [label="gini = 0.0\nsamples = 1\nvalue = [0, 1]"] ;
242 -> 243 ;
244 [label="gini = 0.0\nsamples = 1\nvalue = [1, 0]"] ;
242 -> 244 ;
245 [label="gini = 0.0\nsamples = 8\nvalue = [8, 0]"] ;
241 -> 245 ;
246 [label="plat_B <= 0.5\ngini = 0.3531\nsamples = 1738\nvalue = [1340, 398]"] ;
218 -> 246 ;
247 [label="genre3 <= 0.5\ngini = 0.2325\nsamples = 715\nvalue = [619, 96]"] ;
246 -> 247 ;
248 [label="total_session <= 20.5\ngini = 0.2177\nsamples = 684\nvalue = [599, 85]"] ;
247 -> 248 ;
249 [label="schedule2 <= 0.5\ngini = 0.3115\nsamples = 171\nvalue = [138, 33]"] ;
248 -> 249 ;
250 [label="gini = 0.0\nsamples = 29\nvalue = [29, 0]"] ;
249 -> 250 ;
251 [label="gini = 0.3568\nsamples = 142\nvalue = [109, 33]"] ;
249 -> 251 ;
252 [label="plat_C <= 0.5\ngini = 0.1822\nsamples = 513\nvalue = [461, 52]"] ;
248 -> 252 ;
253 [label="gini = 0.137\nsamples = 338\nvalue = [313, 25]"] ;
252 -> 253 ;
254 [label="gini = 0.261\nsamples = 175\nvalue = [148, 27]"] ;
252 -> 254 ;
255 [label="total_session <= 170.0\ngini = 0.4579\nsamples = 31\nvalue = [20, 11]"] ;
247 -> 255 ;
256 [label="last_episode <= 13.0\ngini = 0.1172\nsamples = 16\nvalue = [15, 1]"] ;
255 -> 256 ;
257 [label="gini = 0.0\nsamples = 14\nvalue = [14, 0]"] ;
256 -> 257 ;
258 [label="gini = 0.5\nsamples = 2\nvalue = [1, 1]"] ;
256 -> 258 ;
259 [label="total_session <= 179.0\ngini = 0.4444\nsamples = 15\nvalue = [5, 10]"] ;
255 -> 259 ;
260 [label="gini = 0.0\nsamples = 4\nvalue = [0, 4]"] ;
259 -> 260 ;
261 [label="gini = 0.4959\nsamples = 11\nvalue = [5, 6]"] ;
259 -> 261 ;
262 [label="coin_needed <= 2.5\ngini = 0.4161\nsamples = 1023\nvalue = [721, 302]"] ;
246 -> 262 ;
263 [label="comic_start <= 9.0\ngini = 0.3894\nsamples = 925\nvalue = [680, 245]"] ;
262 -> 263 ;
264 [label="total_session <= 35.5\ngini = 0.4248\nsamples = 794\nvalue = [551, 243]"] ;
263 -> 264 ;
265 [label="gini = 0.4999\nsamples = 195\nvalue = [99, 96]"] ;
264 -> 265 ;
266 [label="gini = 0.3704\nsamples = 599\nvalue = [452, 147]"] ;
264 -> 266 ;
267 [label="genre3 <= 0.5\ngini = 0.0301\nsamples = 131\nvalue = [129, 2]"] ;
263 -> 267 ;
268 [label="gini = 0.0164\nsamples = 121\nvalue = [120, 1]"] ;
267 -> 268 ;
269 [label="gini = 0.18\nsamples = 10\nvalue = [9, 1]"] ;
267 -> 269 ;
270 [label="total_session <= 118.5\ngini = 0.4867\nsamples = 98\nvalue = [41, 57]"] ;
262 -> 270 ;
271 [label="total_session <= 43.5\ngini = 0.4968\nsamples = 50\nvalue = [27, 23]"] ;
270 -> 271 ;
272 [label="gini = 0.4592\nsamples = 28\nvalue = [10, 18]"] ;
271 -> 272 ;
273 [label="gini = 0.3512\nsamples = 22\nvalue = [17, 5]"] ;
271 -> 273 ;
274 [label="total_session <= 129.5\ngini = 0.4132\nsamples = 48\nvalue = [14, 34]"] ;
270 -> 274 ;
275 [label="gini = 0.1107\nsamples = 17\nvalue = [1, 16]"] ;
274 -> 275 ;
276 [label="gini = 0.487\nsamples = 31\nvalue = [13, 18]"] ;
274 -> 276 ;
277 [label="plat_C <= 0.5\ngini = 0.5\nsamples = 25669\nvalue = [12845, 12824]"] ;
217 -> 277 ;
278 [label="genre15 <= 0.5\ngini = 0.4988\nsamples = 21549\nvalue = [11297, 10252]"] ;
277 -> 278 ;
279 [label="total_episode <= 9.5\ngini = 0.4999\nsamples = 15151\nvalue = [7495, 7656]"] ;
278 -> 279 ;
280 [label="genre9 <= 0.5\ngini = 0.4991\nsamples = 12582\nvalue = [6555, 6027]"] ;
279 -> 280 ;
281 [label="genre1 <= 0.5\ngini = 0.4996\nsamples = 12262\nvalue = [6303, 5959]"] ;
280 -> 281 ;
282 [label="gini = 0.4979\nsamples = 9781\nvalue = [5207, 4574]"] ;
281 -> 282 ;
283 [label="gini = 0.4932\nsamples = 2481\nvalue = [1096, 1385]"] ;
281 -> 283 ;
284 [label="comic_start <= 11.5\ngini = 0.3347\nsamples = 320\nvalue = [252, 68]"] ;
280 -> 284 ;
285 [label="gini = 0.2188\nsamples = 232\nvalue = [203, 29]"] ;
284 -> 285 ;
286 [label="gini = 0.4935\nsamples = 88\nvalue = [49, 39]"] ;
284 -> 286 ;
287 [label="genre6 <= 0.5\ngini = 0.464\nsamples = 2569\nvalue = [940, 1629]"] ;
279 -> 287 ;
288 [label="total_session <= 8.5\ngini = 0.4797\nsamples = 1879\nvalue = [750, 1129]"] ;
287 -> 288 ;
289 [label="gini = 0.3914\nsamples = 457\nvalue = [122, 335]"] ;
288 -> 289 ;
290 [label="gini = 0.4932\nsamples = 1422\nvalue = [628, 794]"] ;
288 -> 290 ;
291 [label="genre1 <= 0.5\ngini = 0.3991\nsamples = 690\nvalue = [190, 500]"] ;
287 -> 291 ;
292 [label="gini = 0.3869\nsamples = 675\nvalue = [177, 498]"] ;
291 -> 292 ;
293 [label="gini = 0.2311\nsamples = 15\nvalue = [13, 2]"] ;
291 -> 293 ;
294 [label="schedule5 <= 0.5\ngini = 0.4822\nsamples = 6398\nvalue = [3802, 2596]"] ;
278 -> 294 ;
295 [label="total_session <= 6.5\ngini = 0.4717\nsamples = 5280\nvalue = [3268, 2012]"] ;
294 -> 295 ;
296 [label="last_episode <= 14.5\ngini = 0.4997\nsamples = 894\nvalue = [437, 457]"] ;
295 -> 296 ;
297 [label="gini = 0.4955\nsamples = 787\nvalue = [356, 431]"] ;
296 -> 297 ;
298 [label="gini = 0.3679\nsamples = 107\nvalue = [81, 26]"] ;
296 -> 298 ;
299 [label="purchasing_power <= 2.5\ngini = 0.4577\nsamples = 4386\nvalue = [2831, 1555]"] ;
295 -> 299 ;
300 [label="gini = 0.412\nsamples = 2064\nvalue = [1465, 599]"] ;
299 -> 300 ;
301 [label="gini = 0.4844\nsamples = 2322\nvalue = [1366, 956]"] ;
299 -> 301 ;
302 [label="total_session <= 1.5\ngini = 0.499\nsamples = 1118\nvalue = [534, 584]"] ;
294 -> 302 ;
303 [label="last_episode <= 10.5\ngini = 0.3358\nsamples = 89\nvalue = [19, 70]"] ;
302 -> 303 ;
304 [label="gini = 0.0\nsamples = 3\nvalue = [3, 0]"] ;
303 -> 304 ;
305 [label="gini = 0.3029\nsamples = 86\nvalue = [16, 70]"] ;
303 -> 305 ;
306 [label="total_session <= 232.0\ngini = 0.5\nsamples = 1029\nvalue = [515, 514]"] ;
302 -> 306 ;
307 [label="gini = 0.4986\nsamples = 935\nvalue = [492, 443]"] ;
306 -> 307 ;
308 [label="gini = 0.3696\nsamples = 94\nvalue = [23, 71]"] ;
306 -> 308 ;
309 [label="comic_start <= 4.5\ngini = 0.4691\nsamples = 4120\nvalue = [1548, 2572]"] ;
277 -> 309 ;
310 [label="genre16 <= 0.5\ngini = 0.4974\nsamples = 761\nvalue = [408, 353]"] ;
309 -> 310 ;
311 [label="total_session <= 45.5\ngini = 0.4858\nsamples = 486\nvalue = [202, 284]"] ;
310 -> 311 ;
312 [label="total_session <= 6.0\ngini = 0.4392\nsamples = 86\nvalue = [58, 28]"] ;
311 -> 312 ;
313 [label="gini = 0.4444\nsamples = 21\nvalue = [7, 14]"] ;
312 -> 313 ;
314 [label="gini = 0.338\nsamples = 65\nvalue = [51, 14]"] ;
312 -> 314 ;
315 [label="last_episode <= 8.5\ngini = 0.4608\nsamples = 400\nvalue = [144, 256]"] ;
311 -> 315 ;
316 [label="gini = 0.3915\nsamples = 161\nvalue = [43, 118]"] ;
315 -> 316 ;
317 [label="gini = 0.488\nsamples = 239\nvalue = [101, 138]"] ;
315 -> 317 ;
318 [label="purchasing_power <= 2.5\ngini = 0.3759\nsamples = 275\nvalue = [206, 69]"] ;
310 -> 318 ;
319 [label="total_session <= 159.0\ngini = 0.4867\nsamples = 129\nvalue = [75, 54]"] ;
318 -> 319 ;
320 [label="gini = 0.4968\nsamples = 100\nvalue = [46, 54]"] ;
319 -> 320 ;
321 [label="gini = 0.0\nsamples = 29\nvalue = [29, 0]"] ;
319 -> 321 ;
322 [label="total_session <= 60.0\ngini = 0.1844\nsamples = 146\nvalue = [131, 15]"] ;
318 -> 322 ;
323 [label="gini = 0.0\nsamples = 38\nvalue = [38, 0]"] ;
322 -> 323 ;
324 [label="gini = 0.2392\nsamples = 108\nvalue = [93, 15]"] ;
322 -> 324 ;
325 [label="last_episode <= 7.5\ngini = 0.4484\nsamples = 3359\nvalue = [1140, 2219]"] ;
309 -> 325 ;
326 [label="gini = 0.0\nsamples = 33\nvalue = [33, 0]"] ;
325 -> 326 ;
327 [label="comic_start <= 10.5\ngini = 0.4441\nsamples = 3326\nvalue = [1107, 2219]"] ;
325 -> 327 ;
328 [label="schedule3 <= 0.5\ngini = 0.4268\nsamples = 2734\nvalue = [844, 1890]"] ;
327 -> 328 ;
329 [label="gini = 0.4063\nsamples = 2257\nvalue = [640, 1617]"] ;
328 -> 329 ;
330 [label="gini = 0.4895\nsamples = 477\nvalue = [204, 273]"] ;
328 -> 330 ;
331 [label="genre6 <= 0.5\ngini = 0.4938\nsamples = 592\nvalue = [263, 329]"] ;
327 -> 331 ;
332 [label="gini = 0.4697\nsamples = 390\nvalue = [147, 243]"] ;
331 -> 332 ;
333 [label="gini = 0.489\nsamples = 202\nvalue = [116, 86]"] ;
331 -> 333 ;
334 [label="end <= 0.5\ngini = 0.4616\nsamples = 12177\nvalue = [4401, 7776]"] ;
216 -> 334 ;
335 [label="total_episode <= 4.5\ngini = 0.4123\nsamples = 492\nvalue = [349, 143]"] ;
334 -> 335 ;
336 [label="purchasing_power <= 2.5\ngini = 0.4999\nsamples = 152\nvalue = [77, 75]"] ;
335 -> 336 ;
337 [label="total_session <= 34.5\ngini = 0.417\nsamples = 54\nvalue = [38, 16]"] ;
336 -> 337 ;
338 [label="total_session <= 29.0\ngini = 0.4983\nsamples = 17\nvalue = [8, 9]"] ;
337 -> 338 ;
339 [label="purchasing_power <= 1.5\ngini = 0.4734\nsamples = 13\nvalue = [8, 5]"] ;
338 -> 339 ;
340 [label="gini = 0.4688\nsamples = 8\nvalue = [3, 5]"] ;
339 -> 340 ;
341 [label="gini = 0.0\nsamples = 5\nvalue = [5, 0]"] ;
339 -> 341 ;
342 [label="gini = 0.0\nsamples = 4\nvalue = [0, 4]"] ;
338 -> 342 ;
343 [label="total_session <= 245.0\ngini = 0.3068\nsamples = 37\nvalue = [30, 7]"] ;
337 -> 343 ;
344 [label="purchasing_power <= 1.5\ngini = 0.1748\nsamples = 31\nvalue = [28, 3]"] ;
343 -> 344 ;
345 [label="gini = 0.32\nsamples = 15\nvalue = [12, 3]"] ;
344 -> 345 ;
346 [label="gini = 0.0\nsamples = 16\nvalue = [16, 0]"] ;
344 -> 346 ;
347 [label="genre16 <= 0.5\ngini = 0.4444\nsamples = 6\nvalue = [2, 4]"] ;
343 -> 347 ;
348 [label="gini = 0.0\nsamples = 3\nvalue = [0, 3]"] ;
347 -> 348 ;
349 [label="gini = 0.4444\nsamples = 3\nvalue = [2, 1]"] ;
347 -> 349 ;
350 [label="total_session <= 21.5\ngini = 0.4792\nsamples = 98\nvalue = [39, 59]"] ;
336 -> 350 ;
351 [label="purchasing_power <= 3.5\ngini = 0.3367\nsamples = 28\nvalue = [6, 22]"] ;
350 -> 351 ;
352 [label="genre16 <= 0.5\ngini = 0.4082\nsamples = 21\nvalue = [6, 15]"] ;
351 -> 352 ;
353 [label="gini = 0.0\nsamples = 1\nvalue = [1, 0]"] ;
352 -> 353 ;
354 [label="gini = 0.375\nsamples = 20\nvalue = [5, 15]"] ;
352 -> 354 ;
355 [label="gini = 0.0\nsamples = 7\nvalue = [0, 7]"] ;
351 -> 355 ;
356 [label="total_session <= 51.0\ngini = 0.4984\nsamples = 70\nvalue = [33, 37]"] ;
350 -> 356 ;
357 [label="gini = 0.0\nsamples = 6\nvalue = [6, 0]"] ;
356 -> 357 ;
358 [label="total_session <= 114.0\ngini = 0.4878\nsamples = 64\nvalue = [27, 37]"] ;
356 -> 358 ;
359 [label="gini = 0.4392\nsamples = 43\nvalue = [14, 29]"] ;
358 -> 359 ;
360 [label="gini = 0.4717\nsamples = 21\nvalue = [13, 8]"] ;
358 -> 360 ;
361 [label="purchasing_power <= 1.5\ngini = 0.32\nsamples = 340\nvalue = [272, 68]"] ;
335 -> 361 ;
362 [label="genre6 <= 0.5\ngini = 0.4472\nsamples = 80\nvalue = [53, 27]"] ;
361 -> 362 ;
363 [label="total_session <= 28.0\ngini = 0.375\nsamples = 60\nvalue = [45, 15]"] ;
362 -> 363 ;
364 [label="total_session <= 21.0\ngini = 0.4965\nsamples = 24\nvalue = [13, 11]"] ;
363 -> 364 ;
365 [label="gini = 0.3047\nsamples = 16\nvalue = [13, 3]"] ;
364 -> 365 ;
366 [label="gini = 0.0\nsamples = 8\nvalue = [0, 8]"] ;
364 -> 366 ;
367 [label="total_session <= 134.5\ngini = 0.1975\nsamples = 36\nvalue = [32, 4]"] ;
363 -> 367 ;
368 [label="gini = 0.0832\nsamples = 23\nvalue = [22, 1]"] ;
367 -> 368 ;
369 [label="gini = 0.355\nsamples = 13\nvalue = [10, 3]"] ;
367 -> 369 ;
370 [label="total_session <= 101.5\ngini = 0.48\nsamples = 20\nvalue = [8, 12]"] ;
362 -> 370 ;
371 [label="total_session <= 43.0\ngini = 0.2778\nsamples = 6\nvalue = [5, 1]"] ;
370 -> 371 ;
372 [label="gini = 0.5\nsamples = 2\nvalue = [1, 1]"] ;
371 -> 372 ;
373 [label="gini = 0.0\nsamples = 4\nvalue = [4, 0]"] ;
371 -> 373 ;
374 [label="total_session <= 106.5\ngini = 0.3367\nsamples = 14\nvalue = [3, 11]"] ;
370 -> 374 ;
375 [label="gini = 0.0\nsamples = 7\nvalue = [0, 7]"] ;
374 -> 375 ;
376 [label="gini = 0.4898\nsamples = 7\nvalue = [3, 4]"] ;
374 -> 376 ;
377 [label="total_session <= 9.5\ngini = 0.2657\nsamples = 260\nvalue = [219, 41]"] ;
361 -> 377 ;
378 [label="total_session <= 2.5\ngini = 0.4628\nsamples = 33\nvalue = [21, 12]"] ;
377 -> 378 ;
379 [label="gini = 0.0\nsamples = 9\nvalue = [9, 0]"] ;
378 -> 379 ;
380 [label="total_session <= 7.5\ngini = 0.5\nsamples = 24\nvalue = [12, 12]"] ;
378 -> 380 ;
381 [label="gini = 0.4592\nsamples = 14\nvalue = [9, 5]"] ;
380 -> 381 ;
382 [label="gini = 0.42\nsamples = 10\nvalue = [3, 7]"] ;
380 -> 382 ;
383 [label="total_session <= 250.5\ngini = 0.2229\nsamples = 227\nvalue = [198, 29]"] ;
377 -> 383 ;
384 [label="coin_needed <= 2.5\ngini = 0.1784\nsamples = 202\nvalue = [182, 20]"] ;
383 -> 384 ;
385 [label="gini = 0.144\nsamples = 192\nvalue = [177, 15]"] ;
384 -> 385 ;
386 [label="gini = 0.5\nsamples = 10\nvalue = [5, 5]"] ;
384 -> 386 ;
387 [label="total_session <= 253.5\ngini = 0.4608\nsamples = 25\nvalue = [16, 9]"] ;
383 -> 387 ;
388 [label="gini = 0.0\nsamples = 4\nvalue = [0, 4]"] ;
387 -> 388 ;
389 [label="gini = 0.3628\nsamples = 21\nvalue = [16, 5]"] ;
387 -> 389 ;
390 [label="genre16 <= 0.5\ngini = 0.453\nsamples = 11685\nvalue = [4052, 7633]"] ;
334 -> 390 ;
391 [label="schedule9 <= 0.5\ngini = 0.4329\nsamples = 8770\nvalue = [2779, 5991]"] ;
390 -> 391 ;
392 [label="total_episode <= 9.5\ngini = 0.4266\nsamples = 8608\nvalue = [2655, 5953]"] ;
391 -> 392 ;
393 [label="last_episode <= 14.5\ngini = 0.4411\nsamples = 7092\nvalue = [2329, 4763]"] ;
392 -> 393 ;
394 [label="last_episode <= 5.5\ngini = 0.4222\nsamples = 5376\nvalue = [1628, 3748]"] ;
393 -> 394 ;
395 [label="gini = 0.5\nsamples = 290\nvalue = [144, 146]"] ;
394 -> 395 ;
396 [label="gini = 0.4133\nsamples = 5086\nvalue = [1484, 3602]"] ;
394 -> 396 ;
397 [label="schedule7 <= 0.5\ngini = 0.4833\nsamples = 1716\nvalue = [701, 1015]"] ;
393 -> 397 ;
398 [label="gini = 0.4783\nsamples = 1672\nvalue = [662, 1010]"] ;
397 -> 398 ;
399 [label="gini = 0.2014\nsamples = 44\nvalue = [39, 5]"] ;
397 -> 399 ;
400 [label="last_episode <= 12.0\ngini = 0.3376\nsamples = 1516\nvalue = [326, 1190]"] ;
392 -> 400 ;
401 [label="book <= 0.5\ngini = 0.4531\nsamples = 196\nvalue = [68, 128]"] ;
400 -> 401 ;
402 [label="gini = 0.4742\nsamples = 176\nvalue = [68, 108]"] ;
401 -> 402 ;
403 [label="gini = 0.0\nsamples = 20\nvalue = [0, 20]"] ;
401 -> 403 ;
404 [label="genre4 <= 0.5\ngini = 0.3145\nsamples = 1320\nvalue = [258, 1062]"] ;
400 -> 404 ;
405 [label="gini = 0.3055\nsamples = 1286\nvalue = [242, 1044]"] ;
404 -> 405 ;
406 [label="gini = 0.4983\nsamples = 34\nvalue = [16, 18]"] ;
404 -> 406 ;
407 [label="total_session <= 467.5\ngini = 0.3591\nsamples = 162\nvalue = [124, 38]"] ;
391 -> 407 ;
408 [label="genre17 <= 0.5\ngini = 0.3247\nsamples = 152\nvalue = [121, 31]"] ;
407 -> 408 ;
409 [label="total_session <= 32.0\ngini = 0.3119\nsamples = 150\nvalue = [121, 29]"] ;
408 -> 409 ;
410 [label="gini = 0.0\nsamples = 25\nvalue = [25, 0]"] ;
409 -> 410 ;
411 [label="gini = 0.3564\nsamples = 125\nvalue = [96, 29]"] ;
409 -> 411 ;
412 [label="gini = 0.0\nsamples = 2\nvalue = [0, 2]"] ;
408 -> 412 ;
413 [label="purchasing_power <= 1.5\ngini = 0.42\nsamples = 10\nvalue = [3, 7]"] ;
407 -> 413 ;
414 [label="gini = 0.0\nsamples = 1\nvalue = [1, 0]"] ;
413 -> 414 ;
415 [label="purchasing_power <= 2.5\ngini = 0.3457\nsamples = 9\nvalue = [2, 7]"] ;
413 -> 415 ;
416 [label="gini = 0.0\nsamples = 5\nvalue = [0, 5]"] ;
415 -> 416 ;
417 [label="gini = 0.5\nsamples = 4\nvalue = [2, 2]"] ;
415 -> 417 ;
418 [label="total_episode <= 4.5\ngini = 0.492\nsamples = 2915\nvalue = [1273, 1642]"] ;
390 -> 418 ;
419 [label="schedule2 <= 0.5\ngini = 0.3406\nsamples = 510\nvalue = [111, 399]"] ;
418 -> 419 ;
420 [label="total_session <= 94.0\ngini = 0.3358\nsamples = 506\nvalue = [108, 398]"] ;
419 -> 420 ;
421 [label="total_session <= 33.0\ngini = 0.3758\nsamples = 303\nvalue = [76, 227]"] ;
420 -> 421 ;
422 [label="gini = 0.3034\nsamples = 177\nvalue = [33, 144]"] ;
421 -> 422 ;
423 [label="gini = 0.4496\nsamples = 126\nvalue = [43, 83]"] ;
421 -> 423 ;
424 [label="total_session <= 253.5\ngini = 0.2656\nsamples = 203\nvalue = [32, 171]"] ;
420 -> 424 ;
425 [label="gini = 0.1975\nsamples = 144\nvalue = [16, 128]"] ;
424 -> 425 ;
426 [label="gini = 0.3953\nsamples = 59\nvalue = [16, 43]"] ;
424 -> 426 ;
427 [label="total_session <= 170.0\ngini = 0.375\nsamples = 4\nvalue = [3, 1]"] ;
419 -> 427 ;
428 [label="gini = 0.0\nsamples = 2\nvalue = [2, 0]"] ;
427 -> 428 ;
429 [label="gini = 0.5\nsamples = 2\nvalue = [1, 1]"] ;
427 -> 429 ;
430 [label="total_episode <= 11.5\ngini = 0.4994\nsamples = 2405\nvalue = [1162, 1243]"] ;
418 -> 430 ;
431 [label="total_episode <= 10.0\ngini = 0.4968\nsamples = 2073\nvalue = [953, 1120]"] ;
430 -> 431 ;
432 [label="total_session <= 3.5\ngini = 0.4989\nsamples = 1915\nvalue = [912, 1003]"] ;
431 -> 432 ;
433 [label="gini = 0.4122\nsamples = 179\nvalue = [52, 127]"] ;
432 -> 433 ;
434 [label="gini = 0.5\nsamples = 1736\nvalue = [860, 876]"] ;
432 -> 434 ;
435 [label="total_session <= 12.0\ngini = 0.3843\nsamples = 158\nvalue = [41, 117]"] ;
431 -> 435 ;
436 [label="gini = 0.4082\nsamples = 14\nvalue = [10, 4]"] ;
435 -> 436 ;
437 [label="gini = 0.3379\nsamples = 144\nvalue = [31, 113]"] ;
435 -> 437 ;
438 [label="genre1 <= 0.5\ngini = 0.4665\nsamples = 332\nvalue = [209, 123]"] ;
430 -> 438 ;
439 [label="total_session <= 43.5\ngini = 0.4857\nsamples = 272\nvalue = [159, 113]"] ;
438 -> 439 ;
440 [label="gini = 0.3128\nsamples = 67\nvalue = [54, 13]"] ;
439 -> 440 ;
441 [label="gini = 0.4997\nsamples = 205\nvalue = [105, 100]"] ;
439 -> 441 ;
442 [label="total_session <= 34.0\ngini = 0.2778\nsamples = 60\nvalue = [50, 10]"] ;
438 -> 442 ;
443 [label="gini = 0.4986\nsamples = 19\nvalue = [9, 10]"] ;
442 -> 443 ;
444 [label="gini = 0.0\nsamples = 41\nvalue = [41, 0]"] ;
442 -> 444 ;
445 [label="schedule8 <= 0.5\ngini = 0.3392\nsamples = 350546\nvalue = [274655, 75891]"] ;
1 -> 445 ;
446 [label="book <= 0.5\ngini = 0.3145\nsamples = 330876\nvalue = [266219, 64657]"] ;
445 -> 446 ;
447 [label="plat_D <= 0.5\ngini = 0.292\nsamples = 302342\nvalue = [248677, 53665]"] ;
446 -> 447 ;
448 [label="comic_start <= 10.5\ngini = 0.2603\nsamples = 244242\nvalue = [206672, 37570]"] ;
447 -> 448 ;
449 [label="schedule3 <= 0.5\ngini = 0.3959\nsamples = 33412\nvalue = [24330, 9082]"] ;
448 -> 449 ;
450 [label="total_session <= 7.5\ngini = 0.3524\nsamples = 23636\nvalue = [18240, 5396]"] ;
449 -> 450 ;
451 [label="total_episode <= 17.5\ngini = 0.4587\nsamples = 2543\nvalue = [1637, 906]"] ;
450 -> 451 ;
452 [label="schedule6 <= 0.5\ngini = 0.4663\nsamples = 2434\nvalue = [1533, 901]"] ;
451 -> 452 ;
453 [label="gini = 0.4586\nsamples = 2300\nvalue = [1481, 819]"] ;
452 -> 453 ;
454 [label="gini = 0.4749\nsamples = 134\nvalue = [52, 82]"] ;
452 -> 454 ;
455 [label="purchasing_power <= 3.5\ngini = 0.0875\nsamples = 109\nvalue = [104, 5]"] ;
451 -> 455 ;
456 [label="gini = 0.0582\nsamples = 100\nvalue = [97, 3]"] ;
455 -> 456 ;
457 [label="gini = 0.3457\nsamples = 9\nvalue = [7, 2]"] ;
455 -> 457 ;
458 [label="last_episode <= 18.5\ngini = 0.3351\nsamples = 21093\nvalue = [16603, 4490]"] ;
450 -> 458 ;
459 [label="purchasing_power <= 3.5\ngini = 0.4612\nsamples = 1644\nvalue = [1051, 593]"] ;
458 -> 459 ;
460 [label="gini = 0.452\nsamples = 1495\nvalue = [979, 516]"] ;
459 -> 460 ;
461 [label="gini = 0.4994\nsamples = 149\nvalue = [72, 77]"] ;
459 -> 461 ;
462 [label="plat_C <= 0.5\ngini = 0.3204\nsamples = 19449\nvalue = [15552, 3897]"] ;
458 -> 462 ;
463 [label="gini = 0.303\nsamples = 16828\nvalue = [13695, 3133]"] ;
462 -> 463 ;
464 [label="gini = 0.413\nsamples = 2621\nvalue = [1857, 764]"] ;
462 -> 464 ;
465 [label="total_episode <= 14.0\ngini = 0.4698\nsamples = 9776\nvalue = [6090, 3686]"] ;
449 -> 465 ;
466 [label="comic_start <= 9.0\ngini = 0.4854\nsamples = 8274\nvalue = [4844, 3430]"] ;
465 -> 466 ;
467 [label="coin_needed <= 2.5\ngini = 0.4902\nsamples = 7806\nvalue = [4450, 3356]"] ;
466 -> 467 ;
468 [label="gini = 0.4642\nsamples = 385\nvalue = [141, 244]"] ;
467 -> 468 ;
469 [label="gini = 0.487\nsamples = 7421\nvalue = [4309, 3112]"] ;
467 -> 469 ;
470 [label="purchasing_power <= 0.5\ngini = 0.2662\nsamples = 468\nvalue = [394, 74]"] ;
466 -> 470 ;
471 [label="gini = 0.32\nsamples = 5\nvalue = [1, 4]"] ;
470 -> 471 ;
472 [label="gini = 0.2567\nsamples = 463\nvalue = [393, 70]"] ;
470 -> 472 ;
473 [label="plat_A <= 0.5\ngini = 0.2828\nsamples = 1502\nvalue = [1246, 256]"] ;
465 -> 473 ;
474 [label="total_session <= 1260.0\ngini = 0.3182\nsamples = 1053\nvalue = [844, 209]"] ;
473 -> 474 ;
475 [label="gini = 0.3154\nsamples = 1050\nvalue = [844, 206]"] ;
474 -> 475 ;
476 [label="gini = 0.0\nsamples = 3\nvalue = [0, 3]"] ;
474 -> 476 ;
477 [label="purchasing_power <= 0.5\ngini = 0.1874\nsamples = 449\nvalue = [402, 47]"] ;
473 -> 477 ;
478 [label="gini = 0.0\nsamples = 1\nvalue = [0, 1]"] ;
477 -> 478 ;
479 [label="gini = 0.1843\nsamples = 448\nvalue = [402, 46]"] ;
477 -> 479 ;
480 [label="plat_C <= 0.5\ngini = 0.2337\nsamples = 210830\nvalue = [182342, 28488]"] ;
448 -> 480 ;
481 [label="genre3 <= 0.5\ngini = 0.2154\nsamples = 187416\nvalue = [164409, 23007]"] ;
480 -> 481 ;
482 [label="total_episode <= 2.5\ngini = 0.2\nsamples = 159325\nvalue = [141368, 17957]"] ;
481 -> 482 ;
483 [label="total_session <= 4.5\ngini = 0.1599\nsamples = 56198\nvalue = [51274, 4924]"] ;
482 -> 483 ;
484 [label="gini = 0.2497\nsamples = 3317\nvalue = [2832, 485]"] ;
483 -> 484 ;
485 [label="gini = 0.1538\nsamples = 52881\nvalue = [48442, 4439]"] ;
483 -> 485 ;
486 [label="coin_needed <= 2.5\ngini = 0.2208\nsamples = 103127\nvalue = [90094, 13033]"] ;
482 -> 486 ;
487 [label="gini = 0.1894\nsamples = 45890\nvalue = [41029, 4861]"] ;
486 -> 487 ;
488 [label="gini = 0.2448\nsamples = 57237\nvalue = [49065, 8172]"] ;
486 -> 488 ;
489 [label="comic_start <= 18.5\ngini = 0.2949\nsamples = 28091\nvalue = [23041, 5050]"] ;
481 -> 489 ;
490 [label="coin_needed <= 2.5\ngini = 0.3466\nsamples = 18861\nvalue = [14654, 4207]"] ;
489 -> 490 ;
491 [label="gini = 0.1943\nsamples = 2678\nvalue = [2386, 292]"] ;
490 -> 491 ;
492 [label="gini = 0.3668\nsamples = 16183\nvalue = [12268, 3915]"] ;
490 -> 492 ;
493 [label="schedule3 <= 0.5\ngini = 0.166\nsamples = 9230\nvalue = [8387, 843]"] ;
489 -> 493 ;
494 [label="gini = 0.1334\nsamples = 7834\nvalue = [7271, 563]"] ;
493 -> 494 ;
495 [label="gini = 0.3207\nsamples = 1396\nvalue = [1116, 280]"] ;
493 -> 495 ;
496 [label="genre3 <= 0.5\ngini = 0.3586\nsamples = 23414\nvalue = [17933, 5481]"] ;
480 -> 496 ;
497 [label="coin_needed <= 2.5\ngini = 0.3376\nsamples = 19478\nvalue = [15289, 4189]"] ;
496 -> 497 ;
498 [label="schedule1 <= 0.5\ngini = 0.2825\nsamples = 5999\nvalue = [4978, 1021]"] ;
497 -> 498 ;
499 [label="gini = 0.3112\nsamples = 5094\nvalue = [4112, 982]"] ;
498 -> 499 ;
500 [label="gini = 0.0825\nsamples = 905\nvalue = [866, 39]"] ;
498 -> 500 ;
501 [label="total_episode <= 6.5\ngini = 0.3596\nsamples = 13479\nvalue = [10311, 3168]"] ;
497 -> 501 ;
502 [label="gini = 0.3505\nsamples = 12924\nvalue = [9995, 2929]"] ;
501 -> 502 ;
503 [label="gini = 0.4904\nsamples = 555\nvalue = [316, 239]"] ;
501 -> 503 ;
504 [label="schedule3 <= 0.5\ngini = 0.441\nsamples = 3936\nvalue = [2644, 1292]"] ;
496 -> 504 ;
505 [label="comic_start <= 18.5\ngini = 0.3895\nsamples = 2710\nvalue = [1992, 718]"] ;
504 -> 505 ;
506 [label="gini = 0.4442\nsamples = 1649\nvalue = [1100, 549]"] ;
505 -> 506 ;
507 [label="gini = 0.2678\nsamples = 1061\nvalue = [892, 169]"] ;
505 -> 507 ;
508 [label="comic_start <= 17.0\ngini = 0.498\nsamples = 1226\nvalue = [652, 574]"] ;
504 -> 508 ;
509 [label="gini = 0.4743\nsamples = 781\nvalue = [479, 302]"] ;
508 -> 509 ;
510 [label="gini = 0.4753\nsamples = 445\nvalue = [173, 272]"] ;
508 -> 510 ;
511 [label="schedule3 <= 0.5\ngini = 0.4006\nsamples = 58100\nvalue = [42005, 16095]"] ;
447 -> 511 ;
512 [label="comic_start <= 10.5\ngini = 0.3706\nsamples = 45987\nvalue = [34692, 11295]"] ;
511 -> 512 ;
513 [label="end <= 0.5\ngini = 0.4491\nsamples = 5705\nvalue = [3763, 1942]"] ;
512 -> 513 ;
514 [label="total_episode <= 17.5\ngini = 0.4326\nsamples = 4999\nvalue = [3417, 1582]"] ;
513 -> 514 ;
515 [label="schedule5 <= 0.5\ngini = 0.4415\nsamples = 4785\nvalue = [3211, 1574]"] ;
514 -> 515 ;
516 [label="gini = 0.4473\nsamples = 4616\nvalue = [3057, 1559]"] ;
515 -> 516 ;
517 [label="gini = 0.1618\nsamples = 169\nvalue = [154, 15]"] ;
515 -> 517 ;
518 [label="genre6 <= 0.5\ngini = 0.072\nsamples = 214\nvalue = [206, 8]"] ;
514 -> 518 ;
519 [label="gini = 0.2032\nsamples = 61\nvalue = [54, 7]"] ;
518 -> 519 ;
520 [label="gini = 0.013\nsamples = 153\nvalue = [152, 1]"] ;
518 -> 520 ;
521 [label="schedule7 <= 0.5\ngini = 0.4998\nsamples = 706\nvalue = [346, 360]"] ;
513 -> 521 ;
522 [label="total_session <= 189.5\ngini = 0.4768\nsamples = 441\nvalue = [173, 268]"] ;
521 -> 522 ;
523 [label="gini = 0.4981\nsamples = 305\nvalue = [143, 162]"] ;
522 -> 523 ;
524 [label="gini = 0.3439\nsamples = 136\nvalue = [30, 106]"] ;
522 -> 524 ;
525 [label="total_session <= 5.5\ngini = 0.4533\nsamples = 265\nvalue = [173, 92]"] ;
521 -> 525 ;
526 [label="gini = 0.3967\nsamples = 33\nvalue = [9, 24]"] ;
525 -> 526 ;
527 [label="gini = 0.4144\nsamples = 232\nvalue = [164, 68]"] ;
525 -> 527 ;
528 [label="coin_needed <= 2.5\ngini = 0.3566\nsamples = 40282\nvalue = [30929, 9353]"] ;
512 -> 528 ;
529 [label="end <= 0.5\ngini = 0.2789\nsamples = 10100\nvalue = [8408, 1692]"] ;
528 -> 529 ;
530 [label="schedule1 <= 0.5\ngini = 0.2491\nsamples = 9127\nvalue = [7796, 1331]"] ;
529 -> 530 ;
531 [label="gini = 0.2745\nsamples = 7581\nvalue = [6336, 1245]"] ;
530 -> 531 ;
532 [label="gini = 0.1051\nsamples = 1546\nvalue = [1460, 86]"] ;
530 -> 532 ;
533 [label="genre4 <= 0.5\ngini = 0.4667\nsamples = 973\nvalue = [612, 361]"] ;
529 -> 533 ;
534 [label="gini = 0.4959\nsamples = 277\nvalue = [126, 151]"] ;
533 -> 534 ;
535 [label="gini = 0.4214\nsamples = 696\nvalue = [486, 210]"] ;
533 -> 535 ;
536 [label="total_episode <= 6.5\ngini = 0.3788\nsamples = 30182\nvalue = [22521, 7661]"] ;
528 -> 536 ;
537 [label="genre4 <= 0.5\ngini = 0.3676\nsamples = 28775\nvalue = [21790, 6985]"] ;
536 -> 537 ;
538 [label="gini = 0.3534\nsamples = 25787\nvalue = [19875, 5912]"] ;
537 -> 538 ;
539 [label="gini = 0.4603\nsamples = 2988\nvalue = [1915, 1073]"] ;
537 -> 539 ;
540 [label="schedule5 <= 0.5\ngini = 0.4992\nsamples = 1407\nvalue = [731, 676]"] ;
536 -> 540 ;
541 [label="gini = 0.4874\nsamples = 1120\nvalue = [471, 649]"] ;
540 -> 541 ;
542 [label="gini = 0.1705\nsamples = 287\nvalue = [260, 27]"] ;
540 -> 542 ;
543 [label="genre3 <= 0.5\ngini = 0.4785\nsamples = 12113\nvalue = [7313, 4800]"] ;
511 -> 543 ;
544 [label="genre17 <= 0.5\ngini = 0.436\nsamples = 7927\nvalue = [5382, 2545]"] ;
543 -> 544 ;
545 [label="comic_start <= 8.5\ngini = 0.408\nsamples = 7126\nvalue = [5091, 2035]"] ;
544 -> 545 ;
546 [label="total_session <= 23.5\ngini = 0.4978\nsamples = 1754\nvalue = [935, 819]"] ;
545 -> 546 ;
547 [label="gini = 0.4844\nsamples = 413\nvalue = [170, 243]"] ;
546 -> 547 ;
548 [label="gini = 0.4901\nsamples = 1341\nvalue = [765, 576]"] ;
546 -> 548 ;
549 [label="genre16 <= 0.5\ngini = 0.3502\nsamples = 5372\nvalue = [4156, 1216]"] ;
545 -> 549 ;
550 [label="gini = 0.2905\nsamples = 3715\nvalue = [3060, 655]"] ;
549 -> 550 ;
551 [label="gini = 0.4479\nsamples = 1657\nvalue = [1096, 561]"] ;
549 -> 551 ;
552 [label="total_episode <= 2.5\ngini = 0.4626\nsamples = 801\nvalue = [291, 510]"] ;
544 -> 552 ;
553 [label="total_session <= 214.5\ngini = 0.3628\nsamples = 21\nvalue = [16, 5]"] ;
552 -> 553 ;
554 [label="gini = 0.1244\nsamples = 15\nvalue = [14, 1]"] ;
553 -> 554 ;
555 [label="gini = 0.4444\nsamples = 6\nvalue = [2, 4]"] ;
553 -> 555 ;
556 [label="total_session <= 96.5\ngini = 0.4565\nsamples = 780\nvalue = [275, 505]"] ;
552 -> 556 ;
557 [label="gini = 0.4865\nsamples = 395\nvalue = [165, 230]"] ;
556 -> 557 ;
558 [label="gini = 0.4082\nsamples = 385\nvalue = [110, 275]"] ;
556 -> 558 ;
559 [label="genre15 <= 0.5\ngini = 0.497\nsamples = 4186\nvalue = [1931, 2255]"] ;
543 -> 559 ;
560 [label="total_session <= 236.0\ngini = 0.4182\nsamples = 1773\nvalue = [528, 1245]"] ;
559 -> 560 ;
561 [label="purchasing_power <= 1.5\ngini = 0.4356\nsamples = 1413\nvalue = [453, 960]"] ;
560 -> 561 ;
562 [label="gini = 0.4813\nsamples = 243\nvalue = [98, 145]"] ;
561 -> 562 ;
563 [label="gini = 0.4227\nsamples = 1170\nvalue = [355, 815]"] ;
561 -> 563 ;
564 [label="total_episode <= 5.5\ngini = 0.3299\nsamples = 360\nvalue = [75, 285]"] ;
560 -> 564 ;
565 [label="gini = 0.3193\nsamples = 356\nvalue = [71, 285]"] ;
564 -> 565 ;
566 [label="gini = 0.0\nsamples = 4\nvalue = [4, 0]"] ;
564 -> 566 ;
567 [label="purchasing_power <= 0.5\ngini = 0.4867\nsamples = 2413\nvalue = [1403, 1010]"] ;
559 -> 567 ;
568 [label="gini = 0.0\nsamples = 3\nvalue = [0, 3]"] ;
567 -> 568 ;
569 [label="total_session <= 2.5\ngini = 0.4865\nsamples = 2410\nvalue = [1403, 1007]"] ;
567 -> 569 ;
570 [label="gini = 0.499\nsamples = 88\nvalue = [42, 46]"] ;
569 -> 570 ;
571 [label="gini = 0.4852\nsamples = 2322\nvalue = [1361, 961]"] ;
569 -> 571 ;
572 [label="total_episode <= 4.5\ngini = 0.4737\nsamples = 28534\nvalue = [17542, 10992]"] ;
446 -> 572 ;
573 [label="total_episode <= 2.5\ngini = 0.3948\nsamples = 15805\nvalue = [11528, 4277]"] ;
572 -> 573 ;
574 [label="plat_D <= 0.5\ngini = 0.3611\nsamples = 10552\nvalue = [8057, 2495]"] ;
573 -> 574 ;
575 [label="plat_C <= 0.5\ngini = 0.323\nsamples = 6824\nvalue = [5442, 1382]"] ;
574 -> 575 ;
576 [label="total_episode <= 0.5\ngini = 0.2878\nsamples = 5423\nvalue = [4478, 945]"] ;
575 -> 576 ;
577 [label="total_session <= 726.0\ngini = 0.2105\nsamples = 1631\nvalue = [1436, 195]"] ;
576 -> 577 ;
578 [label="gini = 0.2005\nsamples = 1610\nvalue = [1428, 182]"] ;
577 -> 578 ;
579 [label="gini = 0.4717\nsamples = 21\nvalue = [8, 13]"] ;
577 -> 579 ;
580 [label="genre8 <= 0.5\ngini = 0.3173\nsamples = 3792\nvalue = [3042, 750]"] ;
576 -> 580 ;
581 [label="gini = 0.3362\nsamples = 3344\nvalue = [2629, 715]"] ;
580 -> 581 ;
582 [label="gini = 0.144\nsamples = 448\nvalue = [413, 35]"] ;
580 -> 582 ;
583 [label="last_episode <= 18.5\ngini = 0.4293\nsamples = 1401\nvalue = [964, 437]"] ;
575 -> 583 ;
584 [label="total_session <= 740.5\ngini = 0.3238\nsamples = 374\nvalue = [298, 76]"] ;
583 -> 584 ;
585 [label="gini = 0.3161\nsamples = 371\nvalue = [298, 73]"] ;
584 -> 585 ;
586 [label="gini = 0.0\nsamples = 3\nvalue = [0, 3]"] ;
584 -> 586 ;
587 [label="coin_needed <= 3.5\ngini = 0.4559\nsamples = 1027\nvalue = [666, 361]"] ;
583 -> 587 ;
588 [label="gini = 0.4815\nsamples = 713\nvalue = [425, 288]"] ;
587 -> 588 ;
589 [label="gini = 0.3569\nsamples = 314\nvalue = [241, 73]"] ;
587 -> 589 ;
590 [label="genre8 <= 0.5\ngini = 0.4188\nsamples = 3728\nvalue = [2615, 1113]"] ;
574 -> 590 ;
591 [label="coin_needed <= 3.5\ngini = 0.4326\nsamples = 3404\nvalue = [2327, 1077]"] ;
590 -> 591 ;
592 [label="total_session <= 243.5\ngini = 0.4701\nsamples = 1975\nvalue = [1229, 746]"] ;
591 -> 592 ;
593 [label="gini = 0.4536\nsamples = 1582\nvalue = [1032, 550]"] ;
592 -> 593 ;
594 [label="gini = 0.5\nsamples = 393\nvalue = [197, 196]"] ;
592 -> 594 ;
595 [label="total_episode <= 0.5\ngini = 0.356\nsamples = 1429\nvalue = [1098, 331]"] ;
591 -> 595 ;
596 [label="gini = 0.23\nsamples = 347\nvalue = [301, 46]"] ;
595 -> 596 ;
597 [label="gini = 0.388\nsamples = 1082\nvalue = [797, 285]"] ;
595 -> 597 ;
598 [label="end <= 0.5\ngini = 0.1975\nsamples = 324\nvalue = [288, 36]"] ;
590 -> 598 ;
599 [label="total_session <= 551.0\ngini = 0.1561\nsamples = 293\nvalue = [268, 25]"] ;
598 -> 599 ;
600 [label="gini = 0.1456\nsamples = 291\nvalue = [268, 23]"] ;
599 -> 600 ;
601 [label="gini = 0.0\nsamples = 2\nvalue = [0, 2]"] ;
599 -> 601 ;
602 [label="genre15 <= 0.5\ngini = 0.4579\nsamples = 31\nvalue = [20, 11]"] ;
598 -> 602 ;
603 [label="gini = 0.4991\nsamples = 23\nvalue = [12, 11]"] ;
602 -> 603 ;
604 [label="gini = 0.0\nsamples = 8\nvalue = [8, 0]"] ;
602 -> 604 ;
605 [label="comic_start <= 15.5\ngini = 0.4483\nsamples = 5253\nvalue = [3471, 1782]"] ;
573 -> 605 ;
606 [label="total_session <= 6.5\ngini = 0.3906\nsamples = 2131\nvalue = [1564, 567]"] ;
605 -> 606 ;
607 [label="plat_D <= 0.5\ngini = 0.4749\nsamples = 366\nvalue = [224, 142]"] ;
606 -> 607 ;
608 [label="coin_needed <= 3.5\ngini = 0.4844\nsamples = 311\nvalue = [183, 128]"] ;
607 -> 608 ;
609 [label="gini = 0.3343\nsamples = 33\nvalue = [26, 7]"] ;
608 -> 609 ;
610 [label="gini = 0.4916\nsamples = 278\nvalue = [157, 121]"] ;
608 -> 610 ;
611 [label="total_episode <= 3.5\ngini = 0.3795\nsamples = 55\nvalue = [41, 14]"] ;
607 -> 611 ;
612 [label="gini = 0.3383\nsamples = 51\nvalue = [40, 11]"] ;
611 -> 612 ;
613 [label="gini = 0.375\nsamples = 4\nvalue = [1, 3]"] ;
611 -> 613 ;
614 [label="coin_needed <= 3.5\ngini = 0.3656\nsamples = 1765\nvalue = [1340, 425]"] ;
606 -> 614 ;
615 [label="total_session <= 935.0\ngini = 0.4621\nsamples = 207\nvalue = [132, 75]"] ;
614 -> 615 ;
616 [label="gini = 0.4529\nsamples = 202\nvalue = [132, 70]"] ;
615 -> 616 ;
617 [label="gini = 0.0\nsamples = 5\nvalue = [0, 5]"] ;
615 -> 617 ;
618 [label="total_session <= 92.5\ngini = 0.3484\nsamples = 1558\nvalue = [1208, 350]"] ;
614 -> 618 ;
619 [label="gini = 0.3687\nsamples = 1009\nvalue = [763, 246]"] ;
618 -> 619 ;
620 [label="gini = 0.3071\nsamples = 549\nvalue = [445, 104]"] ;
618 -> 620 ;
621 [label="coin_needed <= 3.5\ngini = 0.4754\nsamples = 3122\nvalue = [1907, 1215]"] ;
605 -> 621 ;
622 [label="total_session <= 4.5\ngini = 0.4441\nsamples = 2392\nvalue = [1596, 796]"] ;
621 -> 622 ;
623 [label="coin_needed <= 2.5\ngini = 0.5\nsamples = 288\nvalue = [144, 144]"] ;
622 -> 623 ;
624 [label="gini = 0.4545\nsamples = 63\nvalue = [41, 22]"] ;
623 -> 624 ;
625 [label="gini = 0.4964\nsamples = 225\nvalue = [103, 122]"] ;
623 -> 625 ;
626 [label="genre5 <= 0.5\ngini = 0.4277\nsamples = 2104\nvalue = [1452, 652]"] ;
622 -> 626 ;
627 [label="gini = 0.4364\nsamples = 2024\nvalue = [1373, 651]"] ;
626 -> 627 ;
628 [label="gini = 0.0247\nsamples = 80\nvalue = [79, 1]"] ;
626 -> 628 ;
629 [label="comic_start <= 17.5\ngini = 0.4891\nsamples = 730\nvalue = [311, 419]"] ;
621 -> 629 ;
630 [label="plat_B <= 0.5\ngini = 0.4883\nsamples = 229\nvalue = [132, 97]"] ;
629 -> 630 ;
631 [label="gini = 0.4986\nsamples = 133\nvalue = [63, 70]"] ;
630 -> 631 ;
632 [label="gini = 0.4043\nsamples = 96\nvalue = [69, 27]"] ;
630 -> 632 ;
633 [label="total_session <= 28.5\ngini = 0.4593\nsamples = 501\nvalue = [179, 322]"] ;
629 -> 633 ;
634 [label="gini = 0.4983\nsamples = 87\nvalue = [46, 41]"] ;
633 -> 634 ;
635 [label="gini = 0.4361\nsamples = 414\nvalue = [133, 281]"] ;
633 -> 635 ;
636 [label="genre1 <= 0.5\ngini = 0.4985\nsamples = 12729\nvalue = [6014, 6715]"] ;
572 -> 636 ;
637 [label="plat_D <= 0.5\ngini = 0.4963\nsamples = 8845\nvalue = [4803, 4042]"] ;
636 -> 637 ;
638 [label="total_episode <= 16.5\ngini = 0.4906\nsamples = 6439\nvalue = [3661, 2778]"] ;
637 -> 638 ;
639 [label="total_session <= 6.5\ngini = 0.4926\nsamples = 6297\nvalue = [3531, 2766]"] ;
638 -> 639 ;
640 [label="end <= 0.5\ngini = 0.4981\nsamples = 1154\nvalue = [541, 613]"] ;
639 -> 640 ;
641 [label="gini = 0.4926\nsamples = 1020\nvalue = [448, 572]"] ;
640 -> 641 ;
642 [label="gini = 0.4247\nsamples = 134\nvalue = [93, 41]"] ;
640 -> 642 ;
643 [label="total_session <= 210.5\ngini = 0.4868\nsamples = 5143\nvalue = [2990, 2153]"] ;
639 -> 643 ;
644 [label="gini = 0.4797\nsamples = 4373\nvalue = [2627, 1746]"] ;
643 -> 644 ;
645 [label="gini = 0.4984\nsamples = 770\nvalue = [363, 407]"] ;
643 -> 645 ;
646 [label="purchasing_power <= 3.5\ngini = 0.1547\nsamples = 142\nvalue = [130, 12]"] ;
638 -> 646 ;
647 [label="last_episode <= 18.0\ngini = 0.1115\nsamples = 135\nvalue = [127, 8]"] ;
646 -> 647 ;
648 [label="gini = 0.0\nsamples = 2\nvalue = [0, 2]"] ;
647 -> 648 ;
649 [label="gini = 0.0862\nsamples = 133\nvalue = [127, 6]"] ;
647 -> 649 ;
650 [label="comic_start <= 13.5\ngini = 0.4898\nsamples = 7\nvalue = [3, 4]"] ;
646 -> 650 ;
651 [label="gini = 0.4444\nsamples = 3\nvalue = [2, 1]"] ;
650 -> 651 ;
652 [label="gini = 0.375\nsamples = 4\nvalue = [1, 3]"] ;
650 -> 652 ;
653 [label="purchasing_power <= 3.5\ngini = 0.4987\nsamples = 2406\nvalue = [1142, 1264]"] ;
637 -> 653 ;
654 [label="comic_start <= 16.5\ngini = 0.4997\nsamples = 2191\nvalue = [1068, 1123]"] ;
653 -> 654 ;
655 [label="total_session <= 94.5\ngini = 0.4987\nsamples = 1910\nvalue = [906, 1004]"] ;
654 -> 655 ;
656 [label="gini = 0.4919\nsamples = 1222\nvalue = [533, 689]"] ;
655 -> 656 ;
657 [label="gini = 0.4964\nsamples = 688\nvalue = [373, 315]"] ;
655 -> 657 ;
658 [label="total_session <= 77.5\ngini = 0.4883\nsamples = 281\nvalue = [162, 119]"] ;
654 -> 658 ;
659 [label="gini = 0.3557\nsamples = 121\nvalue = [93, 28]"] ;
658 -> 659 ;
660 [label="gini = 0.4905\nsamples = 160\nvalue = [69, 91]"] ;
658 -> 660 ;
661 [label="comic_start <= 13.5\ngini = 0.4514\nsamples = 215\nvalue = [74, 141]"] ;
653 -> 661 ;
662 [label="total_session <= 193.0\ngini = 0.4047\nsamples = 142\nvalue = [40, 102]"] ;
661 -> 662 ;
663 [label="gini = 0.4425\nsamples = 115\nvalue = [38, 77]"] ;
662 -> 663 ;
664 [label="gini = 0.1372\nsamples = 27\nvalue = [2, 25]"] ;
662 -> 664 ;
665 [label="genre5 <= 0.5\ngini = 0.4977\nsamples = 73\nvalue = [34, 39]"] ;
661 -> 665 ;
666 [label="gini = 0.4781\nsamples = 43\nvalue = [26, 17]"] ;
665 -> 666 ;
667 [label="gini = 0.3911\nsamples = 30\nvalue = [8, 22]"] ;
665 -> 667 ;
668 [label="plat_A <= 0.5\ngini = 0.4292\nsamples = 3884\nvalue = [1211, 2673]"] ;
636 -> 668 ;
669 [label="plat_B <= 0.5\ngini = 0.3965\nsamples = 3321\nvalue = [905, 2416]"] ;
668 -> 669 ;
670 [label="total_session <= 287.5\ngini = 0.3105\nsamples = 1670\nvalue = [321, 1349]"] ;
669 -> 670 ;
671 [label="total_episode <= 7.5\ngini = 0.3343\nsamples = 1381\nvalue = [293, 1088]"] ;
670 -> 671 ;
672 [label="gini = 0.0\nsamples = 6\nvalue = [6, 0]"] ;
671 -> 672 ;
673 [label="gini = 0.3303\nsamples = 1375\nvalue = [287, 1088]"] ;
671 -> 673 ;
674 [label="total_session <= 1185.5\ngini = 0.175\nsamples = 289\nvalue = [28, 261]"] ;
670 -> 674 ;
675 [label="gini = 0.1699\nsamples = 288\nvalue = [27, 261]"] ;
674 -> 675 ;
676 [label="gini = 0.0\nsamples = 1\nvalue = [1, 0]"] ;
674 -> 676 ;
677 [label="comic_start <= 13.5\ngini = 0.4572\nsamples = 1651\nvalue = [584, 1067]"] ;
669 -> 677 ;
678 [label="total_session <= 164.5\ngini = 0.4431\nsamples = 1479\nvalue = [490, 989]"] ;
677 -> 678 ;
679 [label="gini = 0.4666\nsamples = 1022\nvalue = [379, 643]"] ;
678 -> 679 ;
680 [label="gini = 0.3678\nsamples = 457\nvalue = [111, 346]"] ;
678 -> 680 ;
681 [label="total_episode <= 13.5\ngini = 0.4957\nsamples = 172\nvalue = [94, 78]"] ;
677 -> 681 ;
682 [label="gini = 0.4923\nsamples = 105\nvalue = [46, 59]"] ;
681 -> 682 ;
683 [label="gini = 0.4063\nsamples = 67\nvalue = [48, 19]"] ;
681 -> 683 ;
684 [label="total_session <= 8.5\ngini = 0.4962\nsamples = 563\nvalue = [306, 257]"] ;
668 -> 684 ;
685 [label="total_session <= 1.5\ngini = 0.484\nsamples = 134\nvalue = [55, 79]"] ;
684 -> 685 ;
686 [label="purchasing_power <= 3.5\ngini = 0.4898\nsamples = 35\nvalue = [20, 15]"] ;
685 -> 686 ;
687 [label="gini = 0.4362\nsamples = 28\nvalue = [19, 9]"] ;
686 -> 687 ;
688 [label="gini = 0.2449\nsamples = 7\nvalue = [1, 6]"] ;
686 -> 688 ;
689 [label="purchasing_power <= 3.5\ngini = 0.4571\nsamples = 99\nvalue = [35, 64]"] ;
685 -> 689 ;
690 [label="gini = 0.4468\nsamples = 95\nvalue = [32, 63]"] ;
689 -> 690 ;
691 [label="gini = 0.375\nsamples = 4\nvalue = [3, 1]"] ;
689 -> 691 ;
692 [label="total_session <= 28.5\ngini = 0.4855\nsamples = 429\nvalue = [251, 178]"] ;
684 -> 692 ;
693 [label="total_session <= 16.5\ngini = 0.379\nsamples = 185\nvalue = [138, 47]"] ;
692 -> 693 ;
694 [label="gini = 0.4722\nsamples = 89\nvalue = [55, 34]"] ;
693 -> 694 ;
695 [label="gini = 0.2342\nsamples = 96\nvalue = [83, 13]"] ;
693 -> 695 ;
696 [label="total_session <= 38.5\ngini = 0.4973\nsamples = 244\nvalue = [113, 131]"] ;
692 -> 696 ;
697 [label="gini = 0.4548\nsamples = 123\nvalue = [43, 80]"] ;
696 -> 697 ;
698 [label="gini = 0.4877\nsamples = 121\nvalue = [70, 51]"] ;
696 -> 698 ;
699 [label="last_episode <= 18.5\ngini = 0.4899\nsamples = 19670\nvalue = [8436, 11234]"] ;
445 -> 699 ;
700 [label="comic_start <= 15.0\ngini = 0.4145\nsamples = 3124\nvalue = [2208, 916]"] ;
699 -> 700 ;
701 [label="plat_D <= 0.5\ngini = 0.4797\nsamples = 2277\nvalue = [1368, 909]"] ;
700 -> 701 ;
702 [label="genre16 <= 0.5\ngini = 0.4603\nsamples = 1582\nvalue = [1014, 568]"] ;
701 -> 702 ;
703 [label="total_session <= 17.5\ngini = 0.4763\nsamples = 1271\nvalue = [774, 497]"] ;
702 -> 703 ;
704 [label="plat_B <= 0.5\ngini = 0.4973\nsamples = 475\nvalue = [255, 220]"] ;
703 -> 704 ;
705 [label="purchasing_power <= 3.5\ngini = 0.4573\nsamples = 195\nvalue = [126, 69]"] ;
704 -> 705 ;
706 [label="gini = 0.4315\nsamples = 181\nvalue = [124, 57]"] ;
705 -> 706 ;
707 [label="gini = 0.2449\nsamples = 14\nvalue = [2, 12]"] ;
705 -> 707 ;
708 [label="total_session <= 9.5\ngini = 0.4969\nsamples = 280\nvalue = [129, 151]"] ;
704 -> 708 ;
709 [label="gini = 0.4991\nsamples = 194\nvalue = [101, 93]"] ;
708 -> 709 ;
710 [label="gini = 0.4392\nsamples = 86\nvalue = [28, 58]"] ;
708 -> 710 ;
711 [label="plat_C <= 0.5\ngini = 0.4538\nsamples = 796\nvalue = [519, 277]"] ;
703 -> 711 ;
712 [label="total_session <= 289.0\ngini = 0.4421\nsamples = 679\nvalue = [455, 224]"] ;
711 -> 712 ;
713 [label="gini = 0.4322\nsamples = 630\nvalue = [431, 199]"] ;
712 -> 713 ;
714 [label="gini = 0.4998\nsamples = 49\nvalue = [24, 25]"] ;
712 -> 714 ;
715 [label="purchasing_power <= 3.5\ngini = 0.4956\nsamples = 117\nvalue = [64, 53]"] ;
711 -> 715 ;
716 [label="gini = 0.4726\nsamples = 94\nvalue = [58, 36]"] ;
715 -> 716 ;
717 [label="gini = 0.3856\nsamples = 23\nvalue = [6, 17]"] ;
715 -> 717 ;
718 [label="total_session <= 177.5\ngini = 0.3524\nsamples = 311\nvalue = [240, 71]"] ;
702 -> 718 ;
719 [label="total_session <= 172.5\ngini = 0.3759\nsamples = 271\nvalue = [203, 68]"] ;
718 -> 719 ;
720 [label="total_session <= 125.5\ngini = 0.3634\nsamples = 264\nvalue = [201, 63]"] ;
719 -> 720 ;
721 [label="gini = 0.382\nsamples = 245\nvalue = [182, 63]"] ;
720 -> 721 ;
722 [label="gini = 0.0\nsamples = 19\nvalue = [19, 0]"] ;
720 -> 722 ;
723 [label="plat_B <= 0.5\ngini = 0.4082\nsamples = 7\nvalue = [2, 5]"] ;
719 -> 723 ;
724 [label="gini = 0.0\nsamples = 1\nvalue = [1, 0]"] ;
723 -> 724 ;
725 [label="gini = 0.2778\nsamples = 6\nvalue = [1, 5]"] ;
723 -> 725 ;
726 [label="purchasing_power <= 1.5\ngini = 0.1388\nsamples = 40\nvalue = [37, 3]"] ;
718 -> 726 ;
727 [label="total_session <= 463.5\ngini = 0.375\nsamples = 8\nvalue = [6, 2]"] ;
726 -> 727 ;
728 [label="gini = 0.2449\nsamples = 7\nvalue = [6, 1]"] ;
727 -> 728 ;
729 [label="gini = 0.0\nsamples = 1\nvalue = [0, 1]"] ;
727 -> 729 ;
730 [label="total_session <= 274.0\ngini = 0.0605\nsamples = 32\nvalue = [31, 1]"] ;
726 -> 730 ;
731 [label="gini = 0.1172\nsamples = 16\nvalue = [15, 1]"] ;
730 -> 731 ;
732 [label="gini = 0.0\nsamples = 16\nvalue = [16, 0]"] ;
730 -> 732 ;
733 [label="total_session <= 60.5\ngini = 0.4998\nsamples = 695\nvalue = [354, 341]"] ;
701 -> 733 ;
734 [label="total_session <= 18.5\ngini = 0.4915\nsamples = 368\nvalue = [160, 208]"] ;
733 -> 734 ;
735 [label="total_session <= 4.5\ngini = 0.4968\nsamples = 150\nvalue = [81, 69]"] ;
734 -> 735 ;
736 [label="total_session <= 3.5\ngini = 0.4628\nsamples = 66\nvalue = [24, 42]"] ;
735 -> 736 ;
737 [label="gini = 0.4841\nsamples = 56\nvalue = [23, 33]"] ;
736 -> 737 ;
738 [label="gini = 0.18\nsamples = 10\nvalue = [1, 9]"] ;
736 -> 738 ;
739 [label="total_session <= 12.5\ngini = 0.4362\nsamples = 84\nvalue = [57, 27]"] ;
735 -> 739 ;
740 [label="gini = 0.2676\nsamples = 44\nvalue = [37, 7]"] ;
739 -> 740 ;
741 [label="gini = 0.5\nsamples = 40\nvalue = [20, 20]"] ;
739 -> 741 ;
742 [label="total_session <= 31.5\ngini = 0.4621\nsamples = 218\nvalue = [79, 139]"] ;
734 -> 742 ;
743 [label="purchasing_power <= 3.5\ngini = 0.3628\nsamples = 84\nvalue = [20, 64]"] ;
742 -> 743 ;
744 [label="gini = 0.3427\nsamples = 82\nvalue = [18, 64]"] ;
743 -> 744 ;
745 [label="gini = 0.0\nsamples = 2\nvalue = [2, 0]"] ;
743 -> 745 ;
746 [label="total_episode <= 4.0\ngini = 0.4929\nsamples = 134\nvalue = [59, 75]"] ;
742 -> 746 ;
747 [label="gini = 0.0\nsamples = 4\nvalue = [4, 0]"] ;
746 -> 747 ;
748 [label="gini = 0.4882\nsamples = 130\nvalue = [55, 75]"] ;
746 -> 748 ;
749 [label="total_session <= 135.5\ngini = 0.4826\nsamples = 327\nvalue = [194, 133]"] ;
733 -> 749 ;
750 [label="total_session <= 82.5\ngini = 0.457\nsamples = 150\nvalue = [97, 53]"] ;
749 -> 750 ;
751 [label="total_session <= 70.5\ngini = 0.4982\nsamples = 66\nvalue = [35, 31]"] ;
750 -> 751 ;
752 [label="gini = 0.3648\nsamples = 25\nvalue = [19, 6]"] ;
751 -> 752 ;
753 [label="gini = 0.4759\nsamples = 41\nvalue = [16, 25]"] ;
751 -> 753 ;
754 [label="genre16 <= 0.5\ngini = 0.3866\nsamples = 84\nvalue = [62, 22]"] ;
750 -> 754 ;
755 [label="gini = 0.4234\nsamples = 69\nvalue = [48, 21]"] ;
754 -> 755 ;
756 [label="gini = 0.1244\nsamples = 15\nvalue = [14, 1]"] ;
754 -> 756 ;
757 [label="total_session <= 155.5\ngini = 0.4954\nsamples = 177\nvalue = [97, 80]"] ;
749 -> 757 ;
758 [label="total_session <= 154.0\ngini = 0.4114\nsamples = 38\nvalue = [11, 27]"] ;
757 -> 758 ;
759 [label="gini = 0.4579\nsamples = 31\nvalue = [11, 20]"] ;
758 -> 759 ;
760 [label="gini = 0.0\nsamples = 7\nvalue = [0, 7]"] ;
758 -> 760 ;
761 [label="total_session <= 257.0\ngini = 0.4718\nsamples = 139\nvalue = [86, 53]"] ;
757 -> 761 ;
762 [label="gini = 0.3978\nsamples = 73\nvalue = [53, 20]"] ;
761 -> 762 ;
763 [label="gini = 0.5\nsamples = 66\nvalue = [33, 33]"] ;
761 -> 763 ;
764 [label="plat_D <= 0.5\ngini = 0.0164\nsamples = 847\nvalue = [840, 7]"] ;
700 -> 764 ;
765 [label="purchasing_power <= 1.5\ngini = 0.0087\nsamples = 689\nvalue = [686, 3]"] ;
764 -> 765 ;
766 [label="total_session <= 71.5\ngini = 0.0345\nsamples = 171\nvalue = [168, 3]"] ;
765 -> 766 ;
767 [label="gini = 0.0\nsamples = 99\nvalue = [99, 0]"] ;
766 -> 767 ;
768 [label="total_session <= 74.0\ngini = 0.0799\nsamples = 72\nvalue = [69, 3]"] ;
766 -> 768 ;
769 [label="gini = 0.0\nsamples = 2\nvalue = [0, 2]"] ;
768 -> 769 ;
770 [label="plat_C <= 0.5\ngini = 0.0282\nsamples = 70\nvalue = [69, 1]"] ;
768 -> 770 ;
771 [label="gini = 0.0\nsamples = 62\nvalue = [62, 0]"] ;
770 -> 771 ;
772 [label="gini = 0.2188\nsamples = 8\nvalue = [7, 1]"] ;
770 -> 772 ;
773 [label="gini = 0.0\nsamples = 518\nvalue = [518, 0]"] ;
765 -> 773 ;
774 [label="total_session <= 121.5\ngini = 0.0494\nsamples = 158\nvalue = [154, 4]"] ;
764 -> 774 ;
775 [label="total_session <= 119.0\ngini = 0.0775\nsamples = 99\nvalue = [95, 4]"] ;
774 -> 775 ;
776 [label="total_session <= 23.5\ngini = 0.0612\nsamples = 95\nvalue = [92, 3]"] ;
775 -> 776 ;
777 [label="gini = 0.0\nsamples = 38\nvalue = [38, 0]"] ;
776 -> 777 ;
778 [label="total_session <= 24.5\ngini = 0.0997\nsamples = 57\nvalue = [54, 3]"] ;
776 -> 778 ;
779 [label="gini = 0.5\nsamples = 2\nvalue = [1, 1]"] ;
778 -> 779 ;
780 [label="gini = 0.0701\nsamples = 55\nvalue = [53, 2]"] ;
778 -> 780 ;
781 [label="genre9 <= 0.5\ngini = 0.375\nsamples = 4\nvalue = [3, 1]"] ;
775 -> 781 ;
782 [label="gini = 0.0\nsamples = 3\nvalue = [3, 0]"] ;
781 -> 782 ;
783 [label="gini = 0.0\nsamples = 1\nvalue = [0, 1]"] ;
781 -> 783 ;
784 [label="gini = 0.0\nsamples = 59\nvalue = [59, 0]"] ;
774 -> 784 ;
785 [label="total_episode <= 6.5\ngini = 0.4694\nsamples = 16546\nvalue = [6228, 10318]"] ;
699 -> 785 ;
786 [label="total_session <= 2.5\ngini = 0.4918\nsamples = 11803\nvalue = [5145, 6658]"] ;
785 -> 786 ;
787 [label="coin_needed <= 2.5\ngini = 0.3475\nsamples = 1443\nvalue = [323, 1120]"] ;
786 -> 787 ;
788 [label="purchasing_power <= 0.5\ngini = 0.4977\nsamples = 161\nvalue = [75, 86]"] ;
787 -> 788 ;
789 [label="gini = 0.1653\nsamples = 11\nvalue = [1, 10]"] ;
788 -> 789 ;
790 [label="purchasing_power <= 3.5\ngini = 0.4999\nsamples = 150\nvalue = [74, 76]"] ;
788 -> 790 ;
791 [label="purchasing_power <= 1.5\ngini = 0.4991\nsamples = 144\nvalue = [69, 75]"] ;
790 -> 791 ;
792 [label="gini = 0.4948\nsamples = 49\nvalue = [27, 22]"] ;
791 -> 792 ;
793 [label="gini = 0.4933\nsamples = 95\nvalue = [42, 53]"] ;
791 -> 793 ;
794 [label="plat_D <= 0.5\ngini = 0.2778\nsamples = 6\nvalue = [5, 1]"] ;
790 -> 794 ;
795 [label="gini = 0.0\nsamples = 5\nvalue = [5, 0]"] ;
794 -> 795 ;
796 [label="gini = 0.0\nsamples = 1\nvalue = [0, 1]"] ;
794 -> 796 ;
797 [label="purchasing_power <= 1.5\ngini = 0.3121\nsamples = 1282\nvalue = [248, 1034]"] ;
787 -> 797 ;
798 [label="plat_B <= 0.5\ngini = 0.2818\nsamples = 666\nvalue = [113, 553]"] ;
797 -> 798 ;
799 [label="purchasing_power <= 0.5\ngini = 0.3016\nsamples = 308\nvalue = [57, 251]"] ;
798 -> 799 ;
800 [label="gini = 0.0\nsamples = 1\nvalue = [1, 0]"] ;
799 -> 800 ;
801 [label="gini = 0.2983\nsamples = 307\nvalue = [56, 251]"] ;
799 -> 801 ;
802 [label="purchasing_power <= 0.5\ngini = 0.2639\nsamples = 358\nvalue = [56, 302]"] ;
798 -> 802 ;
803 [label="gini = 0.0\nsamples = 7\nvalue = [0, 7]"] ;
802 -> 803 ;
804 [label="gini = 0.2682\nsamples = 351\nvalue = [56, 295]"] ;
802 -> 804 ;
805 [label="plat_C <= 0.5\ngini = 0.3423\nsamples = 616\nvalue = [135, 481]"] ;
797 -> 805 ;
806 [label="purchasing_power <= 2.5\ngini = 0.3361\nsamples = 599\nvalue = [128, 471]"] ;
805 -> 806 ;
807 [label="gini = 0.3592\nsamples = 196\nvalue = [46, 150]"] ;
806 -> 807 ;
808 [label="gini = 0.3241\nsamples = 403\nvalue = [82, 321]"] ;
806 -> 808 ;
809 [label="purchasing_power <= 3.5\ngini = 0.4844\nsamples = 17\nvalue = [7, 10]"] ;
805 -> 809 ;
810 [label="gini = 0.4938\nsamples = 9\nvalue = [5, 4]"] ;
809 -> 810 ;
811 [label="gini = 0.375\nsamples = 8\nvalue = [2, 6]"] ;
809 -> 811 ;
812 [label="genre3 <= 0.5\ngini = 0.4976\nsamples = 10360\nvalue = [4822, 5538]"] ;
786 -> 812 ;
813 [label="plat_C <= 0.5\ngini = 0.494\nsamples = 2860\nvalue = [1586, 1274]"] ;
812 -> 813 ;
814 [label="plat_D <= 0.5\ngini = 0.489\nsamples = 2562\nvalue = [1471, 1091]"] ;
813 -> 814 ;
815 [label="purchasing_power <= 2.5\ngini = 0.4776\nsamples = 1900\nvalue = [1151, 749]"] ;
814 -> 815 ;
816 [label="gini = 0.4386\nsamples = 893\nvalue = [603, 290]"] ;
815 -> 816 ;
817 [label="gini = 0.4961\nsamples = 1007\nvalue = [548, 459]"] ;
815 -> 817 ;
818 [label="total_session <= 377.5\ngini = 0.4994\nsamples = 662\nvalue = [320, 342]"] ;
814 -> 818 ;
819 [label="gini = 0.5\nsamples = 628\nvalue = [311, 317]"] ;
818 -> 819 ;
820 [label="gini = 0.3893\nsamples = 34\nvalue = [9, 25]"] ;
818 -> 820 ;
821 [label="total_session <= 16.5\ngini = 0.474\nsamples = 298\nvalue = [115, 183]"] ;
813 -> 821 ;
822 [label="total_session <= 10.5\ngini = 0.426\nsamples = 26\nvalue = [18, 8]"] ;
821 -> 822 ;
823 [label="gini = 0.4938\nsamples = 18\nvalue = [10, 8]"] ;
822 -> 823 ;
824 [label="gini = 0.0\nsamples = 8\nvalue = [8, 0]"] ;
822 -> 824 ;
825 [label="total_session <= 81.5\ngini = 0.4589\nsamples = 272\nvalue = [97, 175]"] ;
821 -> 825 ;
826 [label="gini = 0.356\nsamples = 82\nvalue = [19, 63]"] ;
825 -> 826 ;
827 [label="gini = 0.484\nsamples = 190\nvalue = [78, 112]"] ;
825 -> 827 ;
828 [label="plat_A <= 0.5\ngini = 0.4906\nsamples = 7500\nvalue = [3236, 4264]"] ;
812 -> 828 ;
829 [label="total_session <= 35.5\ngini = 0.4825\nsamples = 6258\nvalue = [2544, 3714]"] ;
828 -> 829 ;
830 [label="purchasing_power <= 3.5\ngini = 0.4654\nsamples = 1995\nvalue = [735, 1260]"] ;
829 -> 830 ;
831 [label="gini = 0.4625\nsamples = 1911\nvalue = [694, 1217]"] ;
830 -> 831 ;
832 [label="gini = 0.4997\nsamples = 84\nvalue = [41, 43]"] ;
830 -> 832 ;
833 [label="plat_B <= 0.5\ngini = 0.4886\nsamples = 4263\nvalue = [1809, 2454]"] ;
829 -> 833 ;
834 [label="gini = 0.4732\nsamples = 1931\nvalue = [742, 1189]"] ;
833 -> 834 ;
835 [label="gini = 0.4964\nsamples = 2332\nvalue = [1067, 1265]"] ;
833 -> 835 ;
836 [label="total_session <= 7.5\ngini = 0.4935\nsamples = 1242\nvalue = [692, 550]"] ;
828 -> 836 ;
837 [label="purchasing_power <= 3.5\ngini = 0.496\nsamples = 323\nvalue = [147, 176]"] ;
836 -> 837 ;
838 [label="gini = 0.4936\nsamples = 309\nvalue = [137, 172]"] ;
837 -> 838 ;
839 [label="gini = 0.4082\nsamples = 14\nvalue = [10, 4]"] ;
837 -> 839 ;
840 [label="total_session <= 76.5\ngini = 0.4827\nsamples = 919\nvalue = [545, 374]"] ;
836 -> 840 ;
841 [label="gini = 0.4782\nsamples = 885\nvalue = [535, 350]"] ;
840 -> 841 ;
842 [label="gini = 0.4152\nsamples = 34\nvalue = [10, 24]"] ;
840 -> 842 ;
843 [label="plat_D <= 0.5\ngini = 0.3524\nsamples = 4743\nvalue = [1083, 3660]"] ;
785 -> 843 ;
844 [label="plat_C <= 0.5\ngini = 0.4842\nsamples = 1934\nvalue = [795, 1139]"] ;
843 -> 844 ;
845 [label="total_session <= 141.5\ngini = 0.4957\nsamples = 1277\nvalue = [698, 579]"] ;
844 -> 845 ;
846 [label="purchasing_power <= 2.5\ngini = 0.4847\nsamples = 948\nvalue = [557, 391]"] ;
845 -> 846 ;
847 [label="total_session <= 3.5\ngini = 0.4416\nsamples = 480\nvalue = [322, 158]"] ;
846 -> 847 ;
848 [label="gini = 0.4978\nsamples = 90\nvalue = [42, 48]"] ;
847 -> 848 ;
849 [label="gini = 0.405\nsamples = 390\nvalue = [280, 110]"] ;
847 -> 849 ;
850 [label="total_session <= 24.5\ngini = 0.5\nsamples = 468\nvalue = [235, 233]"] ;
846 -> 850 ;
851 [label="gini = 0.4876\nsamples = 178\nvalue = [103, 75]"] ;
850 -> 851 ;
852 [label="gini = 0.496\nsamples = 290\nvalue = [132, 158]"] ;
850 -> 852 ;
853 [label="total_session <= 670.5\ngini = 0.4898\nsamples = 329\nvalue = [141, 188]"] ;
845 -> 853 ;
854 [label="total_session <= 281.0\ngini = 0.4942\nsamples = 316\nvalue = [141, 175]"] ;
853 -> 854 ;
855 [label="gini = 0.4756\nsamples = 249\nvalue = [97, 152]"] ;
854 -> 855 ;
856 [label="gini = 0.4509\nsamples = 67\nvalue = [44, 23]"] ;
854 -> 856 ;
857 [label="gini = 0.0\nsamples = 13\nvalue = [0, 13]"] ;
853 -> 857 ;
858 [label="purchasing_power <= 1.5\ngini = 0.2517\nsamples = 657\nvalue = [97, 560]"] ;
844 -> 858 ;
859 [label="total_session <= 199.0\ngini = 0.5\nsamples = 28\nvalue = [14, 14]"] ;
858 -> 859 ;
860 [label="total_session <= 99.0\ngini = 0.4567\nsamples = 17\nvalue = [11, 6]"] ;
859 -> 860 ;
861 [label="gini = 0.497\nsamples = 13\nvalue = [7, 6]"] ;
860 -> 861 ;
862 [label="gini = 0.0\nsamples = 4\nvalue = [4, 0]"] ;
860 -> 862 ;
863 [label="total_session <= 277.0\ngini = 0.3967\nsamples = 11\nvalue = [3, 8]"] ;
859 -> 863 ;
864 [label="gini = 0.32\nsamples = 10\nvalue = [2, 8]"] ;
863 -> 864 ;
865 [label="gini = 0.0\nsamples = 1\nvalue = [1, 0]"] ;
863 -> 865 ;
866 [label="total_session <= 55.5\ngini = 0.2291\nsamples = 629\nvalue = [83, 546]"] ;
858 -> 866 ;
867 [label="total_session <= 51.5\ngini = 0.3324\nsamples = 152\nvalue = [32, 120]"] ;
866 -> 867 ;
868 [label="gini = 0.3135\nsamples = 149\nvalue = [29, 120]"] ;
867 -> 868 ;
869 [label="gini = 0.0\nsamples = 3\nvalue = [3, 0]"] ;
867 -> 869 ;
870 [label="total_session <= 66.0\ngini = 0.191\nsamples = 477\nvalue = [51, 426]"] ;
866 -> 870 ;
871 [label="gini = 0.0\nsamples = 30\nvalue = [0, 30]"] ;
870 -> 871 ;
872 [label="gini = 0.2022\nsamples = 447\nvalue = [51, 396]"] ;
870 -> 872 ;
873 [label="purchasing_power <= 1.5\ngini = 0.184\nsamples = 2809\nvalue = [288, 2521]"] ;
843 -> 873 ;
874 [label="total_session <= 166.5\ngini = 0.3553\nsamples = 290\nvalue = [67, 223]"] ;
873 -> 874 ;
875 [label="total_session <= 103.0\ngini = 0.4142\nsamples = 198\nvalue = [58, 140]"] ;
874 -> 875 ;
876 [label="total_session <= 15.5\ngini = 0.3778\nsamples = 178\nvalue = [45, 133]"] ;
875 -> 876 ;
877 [label="gini = 0.4992\nsamples = 25\nvalue = [13, 12]"] ;
876 -> 877 ;
878 [label="gini = 0.3308\nsamples = 153\nvalue = [32, 121]"] ;
876 -> 878 ;
879 [label="total_session <= 118.0\ngini = 0.455\nsamples = 20\nvalue = [13, 7]"] ;
875 -> 879 ;
880 [label="gini = 0.0\nsamples = 5\nvalue = [5, 0]"] ;
879 -> 880 ;
881 [label="gini = 0.4978\nsamples = 15\nvalue = [8, 7]"] ;
879 -> 881 ;
882 [label="total_session <= 241.5\ngini = 0.1765\nsamples = 92\nvalue = [9, 83]"] ;
874 -> 882 ;
883 [label="total_session <= 188.5\ngini = 0.0454\nsamples = 43\nvalue = [1, 42]"] ;
882 -> 883 ;
884 [label="gini = 0.1107\nsamples = 17\nvalue = [1, 16]"] ;
883 -> 884 ;
885 [label="gini = 0.0\nsamples = 26\nvalue = [0, 26]"] ;
883 -> 885 ;
886 [label="total_session <= 297.0\ngini = 0.2732\nsamples = 49\nvalue = [8, 41]"] ;
882 -> 886 ;
887 [label="gini = 0.0\nsamples = 5\nvalue = [5, 0]"] ;
886 -> 887 ;
888 [label="gini = 0.1271\nsamples = 44\nvalue = [3, 41]"] ;
886 -> 888 ;
889 [label="total_session <= 64.5\ngini = 0.1601\nsamples = 2519\nvalue = [221, 2298]"] ;
873 -> 889 ;
890 [label="total_session <= 58.5\ngini = 0.227\nsamples = 789\nvalue = [103, 686]"] ;
889 -> 890 ;
891 [label="total_session <= 50.5\ngini = 0.2215\nsamples = 757\nvalue = [96, 661]"] ;
890 -> 891 ;
892 [label="gini = 0.2353\nsamples = 646\nvalue = [88, 558]"] ;
891 -> 892 ;
893 [label="gini = 0.1338\nsamples = 111\nvalue = [8, 103]"] ;
891 -> 893 ;
894 [label="purchasing_power <= 2.5\ngini = 0.3418\nsamples = 32\nvalue = [7, 25]"] ;
890 -> 894 ;
895 [label="gini = 0.0\nsamples = 2\nvalue = [2, 0]"] ;
894 -> 895 ;
896 [label="gini = 0.2778\nsamples = 30\nvalue = [5, 25]"] ;
894 -> 896 ;
897 [label="total_session <= 359.5\ngini = 0.1271\nsamples = 1730\nvalue = [118, 1612]"] ;
889 -> 897 ;
898 [label="total_session <= 333.0\ngini = 0.1359\nsamples = 1459\nvalue = [107, 1352]"] ;
897 -> 898 ;
899 [label="gini = 0.1324\nsamples = 1417\nvalue = [101, 1316]"] ;
898 -> 899 ;
900 [label="gini = 0.2449\nsamples = 42\nvalue = [6, 36]"] ;
898 -> 900 ;
901 [label="total_session <= 403.0\ngini = 0.0779\nsamples = 271\nvalue = [11, 260]"] ;
897 -> 901 ;
902 [label="gini = 0.0286\nsamples = 69\nvalue = [1, 68]"] ;
901 -> 902 ;
903 [label="gini = 0.0941\nsamples = 202\nvalue = [10, 192]"] ;
901 -> 903 ;
904 [label="book <= 0.5\ngini = 0.4997\nsamples = 245083\nvalue = [125646, 119437]"] ;
0 -> 904 [labeldistance=2.5, labelangle=-45, headlabel="False"] ;
905 [label="last_episode <= 18.5\ngini = 0.4989\nsamples = 200565\nvalue = [95628, 104937]"] ;
904 -> 905 ;
906 [label="comic_start <= 9.5\ngini = 0.4912\nsamples = 62935\nvalue = [35643, 27292]"] ;
905 -> 906 ;
907 [label="total_episode <= 3.5\ngini = 0.4757\nsamples = 14831\nvalue = [5781, 9050]"] ;
906 -> 907 ;
908 [label="last_episode <= 10.5\ngini = 0.4771\nsamples = 2310\nvalue = [1402, 908]"] ;
907 -> 908 ;
909 [label="total_episode <= 1.5\ngini = 0.4985\nsamples = 1525\nvalue = [804, 721]"] ;
908 -> 909 ;
910 [label="total_session <= 83.5\ngini = 0.3464\nsamples = 323\nvalue = [251, 72]"] ;
909 -> 910 ;
911 [label="last_episode <= 3.5\ngini = 0.4281\nsamples = 203\nvalue = [140, 63]"] ;
910 -> 911 ;
912 [label="plat_D <= 0.5\ngini = 0.4898\nsamples = 14\nvalue = [6, 8]"] ;
911 -> 912 ;
913 [label="gini = 0.0\nsamples = 4\nvalue = [4, 0]"] ;
912 -> 913 ;
914 [label="gini = 0.32\nsamples = 10\nvalue = [2, 8]"] ;
912 -> 914 ;
915 [label="total_episode <= 0.5\ngini = 0.4126\nsamples = 189\nvalue = [134, 55]"] ;
911 -> 915 ;
916 [label="gini = 0.2014\nsamples = 44\nvalue = [39, 5]"] ;
915 -> 916 ;
917 [label="gini = 0.4518\nsamples = 145\nvalue = [95, 50]"] ;
915 -> 917 ;
918 [label="schedule7 <= 0.5\ngini = 0.1388\nsamples = 120\nvalue = [111, 9]"] ;
910 -> 918 ;
919 [label="genre16 <= 0.5\ngini = 0.1125\nsamples = 117\nvalue = [110, 7]"] ;
918 -> 919 ;
920 [label="gini = 0.0989\nsamples = 115\nvalue = [109, 6]"] ;
919 -> 920 ;
921 [label="gini = 0.5\nsamples = 2\nvalue = [1, 1]"] ;
919 -> 921 ;
922 [label="total_session <= 155.0\ngini = 0.4444\nsamples = 3\nvalue = [1, 2]"] ;
918 -> 922 ;
923 [label="gini = 0.0\nsamples = 2\nvalue = [0, 2]"] ;
922 -> 923 ;
924 [label="gini = 0.0\nsamples = 1\nvalue = [1, 0]"] ;
922 -> 924 ;
925 [label="total_session <= 143.5\ngini = 0.4968\nsamples = 1202\nvalue = [553, 649]"] ;
909 -> 925 ;
926 [label="genre1 <= 0.5\ngini = 0.4999\nsamples = 845\nvalue = [418, 427]"] ;
925 -> 926 ;
927 [label="total_session <= 140.5\ngini = 0.4994\nsamples = 797\nvalue = [385, 412]"] ;
926 -> 927 ;
928 [label="gini = 0.4991\nsamples = 790\nvalue = [378, 412]"] ;
927 -> 928 ;
929 [label="gini = 0.0\nsamples = 7\nvalue = [7, 0]"] ;
927 -> 929 ;
930 [label="total_session <= 12.5\ngini = 0.4297\nsamples = 48\nvalue = [33, 15]"] ;
926 -> 930 ;
931 [label="gini = 0.2449\nsamples = 7\nvalue = [1, 6]"] ;
930 -> 931 ;
932 [label="gini = 0.3427\nsamples = 41\nvalue = [32, 9]"] ;
930 -> 932 ;
933 [label="last_episode <= 9.5\ngini = 0.4703\nsamples = 357\nvalue = [135, 222]"] ;
925 -> 933 ;
934 [label="purchasing_power <= 2.5\ngini = 0.4925\nsamples = 294\nvalue = [129, 165]"] ;
933 -> 934 ;
935 [label="gini = 0.4465\nsamples = 107\nvalue = [36, 71]"] ;
934 -> 935 ;
936 [label="gini = 0.5\nsamples = 187\nvalue = [93, 94]"] ;
934 -> 936 ;
937 [label="total_session <= 227.0\ngini = 0.1723\nsamples = 63\nvalue = [6, 57]"] ;
933 -> 937 ;
938 [label="gini = 0.3599\nsamples = 17\nvalue = [4, 13]"] ;
937 -> 938 ;
939 [label="gini = 0.0832\nsamples = 46\nvalue = [2, 44]"] ;
937 -> 939 ;
940 [label="total_session <= 149.0\ngini = 0.3629\nsamples = 785\nvalue = [598, 187]"] ;
908 -> 940 ;
941 [label="total_session <= 55.5\ngini = 0.3353\nsamples = 615\nvalue = [484, 131]"] ;
940 -> 941 ;
942 [label="total_session <= 34.5\ngini = 0.3851\nsamples = 388\nvalue = [287, 101]"] ;
941 -> 942 ;
943 [label="total_session <= 2.5\ngini = 0.3302\nsamples = 278\nvalue = [220, 58]"] ;
942 -> 943 ;
944 [label="gini = 0.4688\nsamples = 48\nvalue = [30, 18]"] ;
943 -> 944 ;
945 [label="gini = 0.2873\nsamples = 230\nvalue = [190, 40]"] ;
943 -> 945 ;
946 [label="total_session <= 35.5\ngini = 0.4762\nsamples = 110\nvalue = [67, 43]"] ;
942 -> 946 ;
947 [label="gini = 0.0\nsamples = 8\nvalue = [0, 8]"] ;
946 -> 947 ;
948 [label="gini = 0.4508\nsamples = 102\nvalue = [67, 35]"] ;
946 -> 948 ;
949 [label="total_session <= 73.5\ngini = 0.2294\nsamples = 227\nvalue = [197, 30]"] ;
941 -> 949 ;
950 [label="plat_C <= 0.5\ngini = 0.0965\nsamples = 59\nvalue = [56, 3]"] ;
949 -> 950 ;
951 [label="gini = 0.0\nsamples = 43\nvalue = [43, 0]"] ;
950 -> 951 ;
952 [label="gini = 0.3047\nsamples = 16\nvalue = [13, 3]"] ;
950 -> 952 ;
953 [label="total_session <= 74.5\ngini = 0.2698\nsamples = 168\nvalue = [141, 27]"] ;
949 -> 953 ;
954 [label="gini = 0.0\nsamples = 5\nvalue = [0, 5]"] ;
953 -> 954 ;
955 [label="gini = 0.2335\nsamples = 163\nvalue = [141, 22]"] ;
953 -> 955 ;
956 [label="total_session <= 150.5\ngini = 0.4418\nsamples = 170\nvalue = [114, 56]"] ;
940 -> 956 ;
957 [label="purchasing_power <= 3.5\ngini = 0.3457\nsamples = 9\nvalue = [2, 7]"] ;
956 -> 957 ;
958 [label="gini = 0.0\nsamples = 2\nvalue = [2, 0]"] ;
957 -> 958 ;
959 [label="gini = 0.0\nsamples = 7\nvalue = [0, 7]"] ;
957 -> 959 ;
960 [label="purchasing_power <= 3.5\ngini = 0.4234\nsamples = 161\nvalue = [112, 49]"] ;
956 -> 960 ;
961 [label="total_session <= 406.5\ngini = 0.4429\nsamples = 148\nvalue = [99, 49]"] ;
960 -> 961 ;
962 [label="gini = 0.4589\nsamples = 129\nvalue = [83, 46]"] ;
961 -> 962 ;
963 [label="gini = 0.2659\nsamples = 19\nvalue = [16, 3]"] ;
961 -> 963 ;
964 [label="gini = 0.0\nsamples = 13\nvalue = [13, 0]"] ;
960 -> 964 ;
965 [label="comic_tag7 <= 0.5\ngini = 0.4548\nsamples = 12521\nvalue = [4379, 8142]"] ;
907 -> 965 ;
966 [label="end <= 0.5\ngini = 0.4408\nsamples = 11353\nvalue = [3724, 7629]"] ;
965 -> 966 ;
967 [label="total_session <= 71.5\ngini = 0.4998\nsamples = 1311\nvalue = [667, 644]"] ;
966 -> 967 ;
968 [label="total_session <= 11.5\ngini = 0.4868\nsamples = 867\nvalue = [363, 504]"] ;
967 -> 968 ;
969 [label="plat_B <= 0.5\ngini = 0.4411\nsamples = 399\nvalue = [131, 268]"] ;
968 -> 969 ;
970 [label="gini = 0.4302\nsamples = 364\nvalue = [114, 250]"] ;
969 -> 970 ;
971 [label="gini = 0.4996\nsamples = 35\nvalue = [17, 18]"] ;
969 -> 971 ;
972 [label="purchasing_power <= 1.5\ngini = 0.5\nsamples = 468\nvalue = [232, 236]"] ;
968 -> 972 ;
973 [label="gini = 0.4548\nsamples = 123\nvalue = [43, 80]"] ;
972 -> 973 ;
974 [label="gini = 0.4954\nsamples = 345\nvalue = [189, 156]"] ;
972 -> 974 ;
975 [label="purchasing_power <= 1.5\ngini = 0.4318\nsamples = 444\nvalue = [304, 140]"] ;
967 -> 975 ;
976 [label="total_session <= 112.5\ngini = 0.4987\nsamples = 97\nvalue = [51, 46]"] ;
975 -> 976 ;
977 [label="gini = 0.4121\nsamples = 31\nvalue = [22, 9]"] ;
976 -> 977 ;
978 [label="gini = 0.4927\nsamples = 66\nvalue = [29, 37]"] ;
976 -> 978 ;
979 [label="total_session <= 209.0\ngini = 0.395\nsamples = 347\nvalue = [253, 94]"] ;
975 -> 979 ;
980 [label="gini = 0.3564\nsamples = 237\nvalue = [182, 55]"] ;
979 -> 980 ;
981 [label="gini = 0.4577\nsamples = 110\nvalue = [71, 39]"] ;
979 -> 981 ;
982 [label="schedule5 <= 0.5\ngini = 0.4235\nsamples = 10042\nvalue = [3057, 6985]"] ;
966 -> 982 ;
983 [label="schedule1 <= 0.5\ngini = 0.3913\nsamples = 7538\nvalue = [2012, 5526]"] ;
982 -> 983 ;
984 [label="total_episode <= 9.5\ngini = 0.3576\nsamples = 6520\nvalue = [1520, 5000]"] ;
983 -> 984 ;
985 [label="gini = 0.3304\nsamples = 5437\nvalue = [1135, 4302]"] ;
984 -> 985 ;
986 [label="gini = 0.4582\nsamples = 1083\nvalue = [385, 698]"] ;
984 -> 986 ;
987 [label="genre2 <= 0.5\ngini = 0.4994\nsamples = 1018\nvalue = [492, 526]"] ;
983 -> 987 ;
988 [label="gini = 0.3429\nsamples = 132\nvalue = [29, 103]"] ;
987 -> 988 ;
989 [label="gini = 0.499\nsamples = 886\nvalue = [463, 423]"] ;
987 -> 989 ;
990 [label="genre8 <= 0.5\ngini = 0.4863\nsamples = 2504\nvalue = [1045, 1459]"] ;
982 -> 990 ;
991 [label="plat_C <= 0.5\ngini = 0.4999\nsamples = 1516\nvalue = [747, 769]"] ;
990 -> 991 ;
992 [label="gini = 0.4988\nsamples = 1262\nvalue = [600, 662]"] ;
991 -> 992 ;
993 [label="gini = 0.4876\nsamples = 254\nvalue = [147, 107]"] ;
991 -> 993 ;
994 [label="plat_C <= 0.5\ngini = 0.4213\nsamples = 988\nvalue = [298, 690]"] ;
990 -> 994 ;
995 [label="gini = 0.4492\nsamples = 687\nvalue = [234, 453]"] ;
994 -> 995 ;
996 [label="gini = 0.3348\nsamples = 301\nvalue = [64, 237]"] ;
994 -> 996 ;
997 [label="last_episode <= 11.0\ngini = 0.4926\nsamples = 1168\nvalue = [655, 513]"] ;
965 -> 997 ;
998 [label="plat_C <= 0.5\ngini = 0.4589\nsamples = 286\nvalue = [102, 184]"] ;
997 -> 998 ;
999 [label="total_session <= 6.0\ngini = 0.4839\nsamples = 195\nvalue = [80, 115]"] ;
998 -> 999 ;
1000 [label="total_session <= 4.5\ngini = 0.3585\nsamples = 47\nvalue = [11, 36]"] ;
999 -> 1000 ;
1001 [label="gini = 0.4377\nsamples = 34\nvalue = [11, 23]"] ;
1000 -> 1001 ;
1002 [label="gini = 0.0\nsamples = 13\nvalue = [0, 13]"] ;
1000 -> 1002 ;
1003 [label="total_session <= 224.0\ngini = 0.4977\nsamples = 148\nvalue = [69, 79]"] ;
999 -> 1003 ;
1004 [label="gini = 0.4989\nsamples = 126\nvalue = [66, 60]"] ;
1003 -> 1004 ;
1005 [label="gini = 0.2355\nsamples = 22\nvalue = [3, 19]"] ;
1003 -> 1005 ;
1006 [label="total_session <= 253.0\ngini = 0.3666\nsamples = 91\nvalue = [22, 69]"] ;
998 -> 1006 ;
1007 [label="total_session <= 122.0\ngini = 0.3112\nsamples = 83\nvalue = [16, 67]"] ;
1006 -> 1007 ;
1008 [label="gini = 0.4592\nsamples = 42\nvalue = [15, 27]"] ;
1007 -> 1008 ;
1009 [label="gini = 0.0476\nsamples = 41\nvalue = [1, 40]"] ;
1007 -> 1009 ;
1010 [label="total_session <= 290.0\ngini = 0.375\nsamples = 8\nvalue = [6, 2]"] ;
1006 -> 1010 ;
1011 [label="gini = 0.0\nsamples = 3\nvalue = [3, 0]"] ;
1010 -> 1011 ;
1012 [label="gini = 0.48\nsamples = 5\nvalue = [3, 2]"] ;
1010 -> 1012 ;
1013 [label="total_session <= 48.5\ngini = 0.4678\nsamples = 882\nvalue = [553, 329]"] ;
997 -> 1013 ;
1014 [label="purchasing_power <= 3.5\ngini = 0.4941\nsamples = 415\nvalue = [230, 185]"] ;
1013 -> 1014 ;
1015 [label="total_session <= 29.5\ngini = 0.4832\nsamples = 365\nvalue = [216, 149]"] ;
1014 -> 1015 ;
1016 [label="gini = 0.4939\nsamples = 290\nvalue = [161, 129]"] ;
1015 -> 1016 ;
1017 [label="gini = 0.3911\nsamples = 75\nvalue = [55, 20]"] ;
1015 -> 1017 ;
1018 [label="total_session <= 1.5\ngini = 0.4032\nsamples = 50\nvalue = [14, 36]"] ;
1014 -> 1018 ;
1019 [label="gini = 0.0\nsamples = 3\nvalue = [3, 0]"] ;
1018 -> 1019 ;
1020 [label="gini = 0.3585\nsamples = 47\nvalue = [11, 36]"] ;
1018 -> 1020 ;
1021 [label="total_session <= 73.5\ngini = 0.4265\nsamples = 467\nvalue = [323, 144]"] ;
1013 -> 1021 ;
1022 [label="total_session <= 55.5\ngini = 0.2105\nsamples = 92\nvalue = [81, 11]"] ;
1021 -> 1022 ;
1023 [label="gini = 0.0\nsamples = 22\nvalue = [22, 0]"] ;
1022 -> 1023 ;
1024 [label="gini = 0.2649\nsamples = 70\nvalue = [59, 11]"] ;
1022 -> 1024 ;
1025 [label="plat_C <= 0.5\ngini = 0.4578\nsamples = 375\nvalue = [242, 133]"] ;
1021 -> 1025 ;
1026 [label="gini = 0.4854\nsamples = 275\nvalue = [161, 114]"] ;
1025 -> 1026 ;
1027 [label="gini = 0.3078\nsamples = 100\nvalue = [81, 19]"] ;
1025 -> 1027 ;
1028 [label="total_episode <= 5.5\ngini = 0.4708\nsamples = 48104\nvalue = [29862, 18242]"] ;
906 -> 1028 ;
1029 [label="genre3 <= 0.5\ngini = 0.4607\nsamples = 43232\nvalue = [27679, 15553]"] ;
1028 -> 1029 ;
1030 [label="genre17 <= 0.5\ngini = 0.4459\nsamples = 34346\nvalue = [22824, 11522]"] ;
1029 -> 1030 ;
1031 [label="comic_tag7 <= 0.5\ngini = 0.4423\nsamples = 33888\nvalue = [22701, 11187]"] ;
1030 -> 1031 ;
1032 [label="schedule3 <= 0.5\ngini = 0.4494\nsamples = 31616\nvalue = [20836, 10780]"] ;
1031 -> 1032 ;
1033 [label="total_episode <= 1.5\ngini = 0.4348\nsamples = 25355\nvalue = [17255, 8100]"] ;
1032 -> 1033 ;
1034 [label="gini = 0.3515\nsamples = 5187\nvalue = [4007, 1180]"] ;
1033 -> 1034 ;
1035 [label="gini = 0.4508\nsamples = 20168\nvalue = [13248, 6920]"] ;
1033 -> 1035 ;
1036 [label="last_episode <= 13.5\ngini = 0.4896\nsamples = 6261\nvalue = [3581, 2680]"] ;
1032 -> 1036 ;
1037 [label="gini = 0.4617\nsamples = 412\nvalue = [149, 263]"] ;
1036 -> 1037 ;
1038 [label="gini = 0.4849\nsamples = 5849\nvalue = [3432, 2417]"] ;
1036 -> 1038 ;
1039 [label="total_session <= 11.5\ngini = 0.2941\nsamples = 2272\nvalue = [1865, 407]"] ;
1031 -> 1039 ;
1040 [label="last_episode <= 17.5\ngini = 0.3973\nsamples = 406\nvalue = [295, 111]"] ;
1039 -> 1040 ;
1041 [label="gini = 0.4731\nsamples = 151\nvalue = [93, 58]"] ;
1040 -> 1041 ;
1042 [label="gini = 0.3293\nsamples = 255\nvalue = [202, 53]"] ;
1040 -> 1042 ;
1043 [label="total_session <= 843.0\ngini = 0.2669\nsamples = 1866\nvalue = [1570, 296]"] ;
1039 -> 1043 ;
1044 [label="gini = 0.2637\nsamples = 1856\nvalue = [1566, 290]"] ;
1043 -> 1044 ;
1045 [label="gini = 0.48\nsamples = 10\nvalue = [4, 6]"] ;
1043 -> 1045 ;
1046 [label="total_session <= 39.5\ngini = 0.3929\nsamples = 458\nvalue = [123, 335]"] ;
1030 -> 1046 ;
1047 [label="purchasing_power <= 0.5\ngini = 0.3107\nsamples = 156\nvalue = [30, 126]"] ;
1046 -> 1047 ;
1048 [label="gini = 0.0\nsamples = 1\nvalue = [1, 0]"] ;
1047 -> 1048 ;
1049 [label="purchasing_power <= 1.5\ngini = 0.3042\nsamples = 155\nvalue = [29, 126]"] ;
1047 -> 1049 ;
1050 [label="gini = 0.142\nsamples = 26\nvalue = [2, 24]"] ;
1049 -> 1050 ;
1051 [label="gini = 0.331\nsamples = 129\nvalue = [27, 102]"] ;
1049 -> 1051 ;
1052 [label="total_session <= 43.5\ngini = 0.4262\nsamples = 302\nvalue = [93, 209]"] ;
1046 -> 1052 ;
1053 [label="total_session <= 40.5\ngini = 0.2778\nsamples = 6\nvalue = [5, 1]"] ;
1052 -> 1053 ;
1054 [label="gini = 0.5\nsamples = 2\nvalue = [1, 1]"] ;
1053 -> 1054 ;
1055 [label="gini = 0.0\nsamples = 4\nvalue = [4, 0]"] ;
1053 -> 1055 ;
1056 [label="total_session <= 357.5\ngini = 0.4178\nsamples = 296\nvalue = [88, 208]"] ;
1052 -> 1056 ;
1057 [label="gini = 0.4348\nsamples = 263\nvalue = [84, 179]"] ;
1056 -> 1057 ;
1058 [label="gini = 0.213\nsamples = 33\nvalue = [4, 29]"] ;
1056 -> 1058 ;
1059 [label="coin_needed <= 1.0\ngini = 0.4957\nsamples = 8886\nvalue = [4855, 4031]"] ;
1029 -> 1059 ;
1060 [label="gini = 0.0\nsamples = 231\nvalue = [231, 0]"] ;
1059 -> 1060 ;
1061 [label="total_session <= 14.5\ngini = 0.4977\nsamples = 8655\nvalue = [4624, 4031]"] ;
1059 -> 1061 ;
1062 [label="end <= 0.5\ngini = 0.4867\nsamples = 2055\nvalue = [860, 1195]"] ;
1061 -> 1062 ;
1063 [label="total_session <= 4.5\ngini = 0.4709\nsamples = 1732\nvalue = [657, 1075]"] ;
1062 -> 1063 ;
1064 [label="gini = 0.4442\nsamples = 880\nvalue = [293, 587]"] ;
1063 -> 1064 ;
1065 [label="gini = 0.4894\nsamples = 852\nvalue = [364, 488]"] ;
1063 -> 1065 ;
1066 [label="total_session <= 13.5\ngini = 0.467\nsamples = 323\nvalue = [203, 120]"] ;
1062 -> 1066 ;
1067 [label="gini = 0.4584\nsamples = 312\nvalue = [201, 111]"] ;
1066 -> 1067 ;
1068 [label="gini = 0.2975\nsamples = 11\nvalue = [2, 9]"] ;
1066 -> 1068 ;
1069 [label="genre2 <= 0.5\ngini = 0.4901\nsamples = 6600\nvalue = [3764, 2836]"] ;
1061 -> 1069 ;
1070 [label="total_session <= 53.0\ngini = 0.4633\nsamples = 428\nvalue = [156, 272]"] ;
1069 -> 1070 ;
1071 [label="gini = 0.3557\nsamples = 121\nvalue = [28, 93]"] ;
1070 -> 1071 ;
1072 [label="gini = 0.4862\nsamples = 307\nvalue = [128, 179]"] ;
1070 -> 1072 ;
1073 [label="total_session <= 100.5\ngini = 0.4857\nsamples = 6172\nvalue = [3608, 2564]"] ;
1069 -> 1073 ;
1074 [label="gini = 0.496\nsamples = 3564\nvalue = [1941, 1623]"] ;
1073 -> 1074 ;
1075 [label="gini = 0.4613\nsamples = 2608\nvalue = [1667, 941]"] ;
1073 -> 1075 ;
1076 [label="schedule7 <= 0.5\ngini = 0.4946\nsamples = 4872\nvalue = [2183, 2689]"] ;
1028 -> 1076 ;
1077 [label="total_session <= 359.5\ngini = 0.4832\nsamples = 3669\nvalue = [1498, 2171]"] ;
1076 -> 1077 ;
1078 [label="total_session <= 5.5\ngini = 0.4873\nsamples = 3385\nvalue = [1423, 1962]"] ;
1077 -> 1078 ;
1079 [label="comic_tag4 <= 0.5\ngini = 0.4234\nsamples = 470\nvalue = [143, 327]"] ;
1078 -> 1079 ;
1080 [label="total_episode <= 6.5\ngini = 0.3948\nsamples = 447\nvalue = [121, 326]"] ;
1079 -> 1080 ;
1081 [label="gini = 0.4727\nsamples = 154\nvalue = [59, 95]"] ;
1080 -> 1081 ;
1082 [label="gini = 0.3337\nsamples = 293\nvalue = [62, 231]"] ;
1080 -> 1082 ;
1083 [label="purchasing_power <= 1.5\ngini = 0.0832\nsamples = 23\nvalue = [22, 1]"] ;
1079 -> 1083 ;
1084 [label="gini = 0.32\nsamples = 5\nvalue = [4, 1]"] ;
1083 -> 1084 ;
1085 [label="gini = 0.0\nsamples = 18\nvalue = [18, 0]"] ;
1083 -> 1085 ;
1086 [label="plat_B <= 0.5\ngini = 0.4926\nsamples = 2915\nvalue = [1280, 1635]"] ;
1078 -> 1086 ;
1087 [label="genre5 <= 0.5\ngini = 0.4943\nsamples = 2809\nvalue = [1255, 1554]"] ;
1086 -> 1087 ;
1088 [label="gini = 0.4958\nsamples = 2708\nvalue = [1230, 1478]"] ;
1087 -> 1088 ;
1089 [label="gini = 0.3725\nsamples = 101\nvalue = [25, 76]"] ;
1087 -> 1089 ;
1090 [label="total_session <= 206.0\ngini = 0.3604\nsamples = 106\nvalue = [25, 81]"] ;
1086 -> 1090 ;
1091 [label="gini = 0.2975\nsamples = 88\nvalue = [16, 72]"] ;
1090 -> 1091 ;
1092 [label="gini = 0.5\nsamples = 18\nvalue = [9, 9]"] ;
1090 -> 1092 ;
1093 [label="genre6 <= 0.5\ngini = 0.3887\nsamples = 284\nvalue = [75, 209]"] ;
1077 -> 1093 ;
1094 [label="total_episode <= 8.5\ngini = 0.3452\nsamples = 257\nvalue = [57, 200]"] ;
1093 -> 1094 ;
1095 [label="total_session <= 368.5\ngini = 0.3059\nsamples = 191\nvalue = [36, 155]"] ;
1094 -> 1095 ;
1096 [label="gini = 0.0\nsamples = 2\nvalue = [2, 0]"] ;
1095 -> 1096 ;
1097 [label="gini = 0.2951\nsamples = 189\nvalue = [34, 155]"] ;
1095 -> 1097 ;
1098 [label="total_session <= 361.5\ngini = 0.4339\nsamples = 66\nvalue = [21, 45]"] ;
1094 -> 1098 ;
1099 [label="gini = 0.0\nsamples = 15\nvalue = [0, 15]"] ;
1098 -> 1099 ;
1100 [label="gini = 0.4844\nsamples = 51\nvalue = [21, 30]"] ;
1098 -> 1100 ;
1101 [label="plat_D <= 0.5\ngini = 0.4444\nsamples = 27\nvalue = [18, 9]"] ;
1093 -> 1101 ;
1102 [label="plat_B <= 0.5\ngini = 0.4898\nsamples = 14\nvalue = [6, 8]"] ;
1101 -> 1102 ;
1103 [label="gini = 0.4959\nsamples = 11\nvalue = [6, 5]"] ;
1102 -> 1103 ;
1104 [label="gini = 0.0\nsamples = 3\nvalue = [0, 3]"] ;
1102 -> 1104 ;
1105 [label="total_session <= 370.5\ngini = 0.142\nsamples = 13\nvalue = [12, 1]"] ;
1101 -> 1105 ;
1106 [label="gini = 0.0\nsamples = 1\nvalue = [0, 1]"] ;
1105 -> 1106 ;
1107 [label="gini = 0.0\nsamples = 12\nvalue = [12, 0]"] ;
1105 -> 1107 ;
1108 [label="total_session <= 11.5\ngini = 0.4904\nsamples = 1203\nvalue = [685, 518]"] ;
1076 -> 1108 ;
1109 [label="comic_start <= 14.0\ngini = 0.4809\nsamples = 261\nvalue = [105, 156]"] ;
1108 -> 1109 ;
1110 [label="gini = 0.0\nsamples = 7\nvalue = [7, 0]"] ;
1109 -> 1110 ;
1111 [label="purchasing_power <= 1.5\ngini = 0.4739\nsamples = 254\nvalue = [98, 156]"] ;
1109 -> 1111 ;
1112 [label="plat_C <= 0.5\ngini = 0.4006\nsamples = 83\nvalue = [23, 60]"] ;
1111 -> 1112 ;
1113 [label="gini = 0.3817\nsamples = 74\nvalue = [19, 55]"] ;
1112 -> 1113 ;
1114 [label="gini = 0.4938\nsamples = 9\nvalue = [4, 5]"] ;
1112 -> 1114 ;
1115 [label="total_session <= 7.5\ngini = 0.4925\nsamples = 171\nvalue = [75, 96]"] ;
1111 -> 1115 ;
1116 [label="gini = 0.4998\nsamples = 108\nvalue = [53, 55]"] ;
1115 -> 1116 ;
1117 [label="gini = 0.4545\nsamples = 63\nvalue = [22, 41]"] ;
1115 -> 1117 ;
1118 [label="total_session <= 220.5\ngini = 0.4732\nsamples = 942\nvalue = [580, 362]"] ;
1108 -> 1118 ;
1119 [label="total_session <= 41.5\ngini = 0.4847\nsamples = 841\nvalue = [494, 347]"] ;
1118 -> 1119 ;
1120 [label="total_session <= 22.5\ngini = 0.4176\nsamples = 239\nvalue = [168, 71]"] ;
1119 -> 1120 ;
1121 [label="gini = 0.4682\nsamples = 115\nvalue = [72, 43]"] ;
1120 -> 1121 ;
1122 [label="gini = 0.3496\nsamples = 124\nvalue = [96, 28]"] ;
1120 -> 1122 ;
1123 [label="purchasing_power <= 3.5\ngini = 0.4966\nsamples = 602\nvalue = [326, 276]"] ;
1119 -> 1123 ;
1124 [label="gini = 0.4913\nsamples = 530\nvalue = [300, 230]"] ;
1123 -> 1124 ;
1125 [label="gini = 0.4614\nsamples = 72\nvalue = [26, 46]"] ;
1123 -> 1125 ;
1126 [label="total_session <= 830.5\ngini = 0.2529\nsamples = 101\nvalue = [86, 15]"] ;
1118 -> 1126 ;
1127 [label="total_session <= 310.5\ngini = 0.18\nsamples = 90\nvalue = [81, 9]"] ;
1126 -> 1127 ;
1128 [label="gini = 0.2645\nsamples = 51\nvalue = [43, 8]"] ;
1127 -> 1128 ;
1129 [label="gini = 0.05\nsamples = 39\nvalue = [38, 1]"] ;
1127 -> 1129 ;
1130 [label="total_session <= 948.0\ngini = 0.4959\nsamples = 11\nvalue = [5, 6]"] ;
1126 -> 1130 ;
1131 [label="gini = 0.0\nsamples = 6\nvalue = [0, 6]"] ;
1130 -> 1131 ;
1132 [label="gini = 0.0\nsamples = 5\nvalue = [5, 0]"] ;
1130 -> 1132 ;
1133 [label="genre5 <= 0.5\ngini = 0.4918\nsamples = 137630\nvalue = [59985, 77645]"] ;
905 -> 1133 ;
1134 [label="genre8 <= 0.5\ngini = 0.484\nsamples = 117569\nvalue = [48278, 69291]"] ;
1133 -> 1134 ;
1135 [label="comic_start <= 12.5\ngini = 0.4805\nsamples = 112086\nvalue = [44982, 67104]"] ;
1134 -> 1135 ;
1136 [label="genre9 <= 0.5\ngini = 0.4961\nsamples = 9969\nvalue = [5424, 4545]"] ;
1135 -> 1136 ;
1137 [label="genre10 <= 0.5\ngini = 0.4845\nsamples = 8376\nvalue = [4926, 3450]"] ;
1136 -> 1137 ;
1138 [label="comic_start <= 10.5\ngini = 0.4896\nsamples = 7940\nvalue = [4543, 3397]"] ;
1137 -> 1138 ;
1139 [label="comic_start <= 5.0\ngini = 0.4996\nsamples = 3286\nvalue = [1691, 1595]"] ;
1138 -> 1139 ;
1140 [label="gini = 0.4859\nsamples = 1817\nvalue = [1061, 756]"] ;
1139 -> 1140 ;
1141 [label="gini = 0.4899\nsamples = 1469\nvalue = [630, 839]"] ;
1139 -> 1141 ;
1142 [label="total_session <= 3.5\ngini = 0.4745\nsamples = 4654\nvalue = [2852, 1802]"] ;
1138 -> 1142 ;
1143 [label="gini = 0.4998\nsamples = 452\nvalue = [221, 231]"] ;
1142 -> 1143 ;
1144 [label="gini = 0.4682\nsamples = 4202\nvalue = [2631, 1571]"] ;
1142 -> 1144 ;
1145 [label="schedule4 <= 0.5\ngini = 0.2136\nsamples = 436\nvalue = [383, 53]"] ;
1137 -> 1145 ;
1146 [label="total_session <= 42.5\ngini = 0.2746\nsamples = 213\nvalue = [178, 35]"] ;
1145 -> 1146 ;
1147 [label="gini = 0.3709\nsamples = 61\nvalue = [46, 15]"] ;
1146 -> 1147 ;
1148 [label="gini = 0.2285\nsamples = 152\nvalue = [132, 20]"] ;
1146 -> 1148 ;
1149 [label="total_session <= 286.5\ngini = 0.1484\nsamples = 223\nvalue = [205, 18]"] ;
1145 -> 1149 ;
1150 [label="gini = 0.1699\nsamples = 192\nvalue = [174, 18]"] ;
1149 -> 1150 ;
1151 [label="gini = 0.0\nsamples = 31\nvalue = [31, 0]"] ;
1149 -> 1151 ;
